{"learner":{"attributes":{"scikit_learn":"{\"_estimator_type\": \"classifier\"}"},"feature_names":["url_len","dot_count","hyphen_count","has_ip","suspicious_total","subdomain_count","tld_length","url_entropy","has_a","has_mx","has_ns","ip_count"],"feature_types":["int","int","int","int","int","int","int","float","int","int","int","int"],"gradient_booster":{"model":{"gbtree_model_param":{"num_parallel_tree":"1","num_trees":"500"},"iteration_indptr":[0,1,2,3,4,5,6,7,8,9,10,11,12,13,14,15,16,17,18,19,20,21,22,23,24,25,26,27,28,29,30,31,32,33,34,35,36,37,38,39,40,41,42,43,44,45,46,47,48,49,50,51,52,53,54,55,56,57,58,59,60,61,62,63,64,65,66,67,68,69,70,71,72,73,74,75,76,77,78,79,80,81,82,83,84,85,86,87,88,89,90,91,92,93,94,95,96,97,98,99,100,101,102,103,104,105,106,107,108,109,110,111,112,113,114,115,116,117,118,119,120,121,122,123,124,125,126,127,128,129,130,131,132,133,134,135,136,137,138,139,140,141,142,143,144,145,146,147,148,149,150,151,152,153,154,155,156,157,158,159,160,161,162,163,164,165,166,167,168,169,170,171,172,173,174,175,176,177,178,179,180,181,182,183,184,185,186,187,188,189,190,191,192,193,194,195,196,197,198,199,200,201,202,203,204,205,206,207,208,209,210,211,212,213,214,215,216,217,218,219,220,221,222,223,224,225,226,227,228,229,230,231,232,233,234,235,236,237,238,239,240,241,242,243,244,245,246,247,248,249,250,251,252,253,254,255,256,257,258,259,260,261,262,263,264,265,266,267,268,269,270,271,272,273,274,275,276,277,278,279,280,281,282,283,284,285,286,287,288,289,290,291,292,293,294,295,296,297,298,299,300,301,302,303,304,305,306,307,308,309,310,311,312,313,314,315,316,317,318,319,320,321,322,323,324,325,326,327,328,329,330,331,332,333,334,335,336,337,338,339,340,341,342,343,344,345,346,347,348,349,350,351,352,353,354,355,356,357,358,359,360,361,362,363,364,365,366,367,368,369,370,371,372,373,374,375,376,377,378,379,380,381,382,383,384,385,386,387,388,389,390,391,392,393,394,395,396,397,398,399,400,401,402,403,404,405,406,407,408,409,410,411,412,413,414,415,416,417,418,419,420,421,422,423,424,425,426,427,428,429,430,431,432,433,434,435,436,437,438,439,440,441,442,443,444,445,446,447,448,449,450,451,452,453,454,455,456,457,458,459,460,461,462,463,464,465,466,467,468,469,470,471,472,473,474,475,476,477,478,479,480,481,482,483,484,485,486,487,488,489,490,491,492,493,494,495,496,497,498,499,500],"tree_info":[0,0,0,0,0,0,0,0,0,0,0,0,0,0,0,0,0,0,0,0,0,0,0,0,0,0,0,0,0,0,0,0,0,0,0,0,0,0,0,0,0,0,0,0,0,0,0,0,0,0,0,0,0,0,0,0,0,0,0,0,0,0,0,0,0,0,0,0,0,0,0,0,0,0,0,0,0,0,0,0,0,0,0,0,0,0,0,0,0,0,0,0,0,0,0,0,0,0,0,0,0,0,0,0,0,0,0,0,0,0,0,0,0,0,0,0,0,0,0,0,0,0,0,0,0,0,0,0,0,0,0,0,0,0,0,0,0,0,0,0,0,0,0,0,0,0,0,0,0,0,0,0,0,0,0,0,0,0,0,0,0,0,0,0,0,0,0,0,0,0,0,0,0,0,0,0,0,0,0,0,0,0,0,0,0,0,0,0,0,0,0,0,0,0,0,0,0,0,0,0,0,0,0,0,0,0,0,0,0,0,0,0,0,0,0,0,0,0,0,0,0,0,0,0,0,0,0,0,0,0,0,0,0,0,0,0,0,0,0,0,0,0,0,0,0,0,0,0,0,0,0,0,0,0,0,0,0,0,0,0,0,0,0,0,0,0,0,0,0,0,0,0,0,0,0,0,0,0,0,0,0,0,0,0,0,0,0,0,0,0,0,0,0,0,0,0,0,0,0,0,0,0,0,0,0,0,0,0,0,0,0,0,0,0,0,0,0,0,0,0,0,0,0,0,0,0,0,0,0,0,0,0,0,0,0,0,0,0,0,0,0,0,0,0,0,0,0,0,0,0,0,0,0,0,0,0,0,0,0,0,0,0,0,0,0,0,0,0,0,0,0,0,0,0,0,0,0,0,0,0,0,0,0,0,0,0,0,0,0,0,0,0,0,0,0,0,0,0,0,0,0,0,0,0,0,0,0,0,0,0,0,0,0,0,0,0,0,0,0,0,0,0,0,0,0,0,0,0,0,0,0,0,0,0,0,0,0,0,0,0,0,0,0,0,0,0,0,0,0,0,0,0,0,0,0,0,0,0,0,0,0,0,0,0,0,0,0,0,0,0,0,0,0,0,0,0,0,0,0,0,0,0,0,0,0,0,0,0,0,0,0,0,0,0,0,0,0,0,0,0],"trees":[{"base_weights":[-7.163147E-3,-1.3913044E0,1.4070377E0,-1.6114154E0,-1.6852146E-1,3.52E-1,1.8826512E0,-1.8362148E0,-1.2188236E0,-1.3106796E0,9.819005E-2,1.5465839E0,-9.114754E-1,1.3720931E0,9.982215E-2,-1.4454278E0,-9.516908E-2,-5.540166E-3,-1.6906319E0,-1.438849E-2,-9.711191E-2,1.2307692E-1,9.459459E-2,6.368715E-1,-1.5402299E0,9.376499E-2,-7.184466E-1,-1.5309446E0,-5.555556E-1,-1.1395348E0,1.0051813E0,-6.928105E-1,-9.4018206E-2,-1.1272727E0,6.818182E-1,1.0243902E0,-1.3076923E0,7.764706E-1,-6.923077E-2,-1.6714976E0,8.8E-1,-1.255814E0,8.095238E-2,-6.828194E-2,-9.52381E-2,-6.0000002E-2,-4E-3,-1.03448285E-2,-7.79661E-2,5.801105E-2,-5E-2,-2.248062E-2,-8.571429E-2,-7.5E-2,-2.5925925E-2,9.677419E-3,8.0000006E-2,8.412699E-2,-4.782609E-2,-8.139535E-2,7.692308E-3,2.3809524E-2,7.5E-2,-8.756757E-2,-4.5833334E-2,6.25E-2,7.692308E-3,-6.8E-2,-2.0000001E-2],"categories":[],"categories_nodes":[],"categories_segments":[],"categories_sizes":[],"default_left":[0,0,0,0,0,0,0,0,0,0,0,0,0,0,0,0,0,0,0,0,0,0,0,0,0,0,0,0,0,0,0,0,0,0,0,0,0,0,0,0,0,0,0,0,0,0,0,0,0,0,0,0,0,0,0,0,0,0,0,0,0,0,0,0,0,0,0,0,0],"id":0,"left_children":[1,3,5,7,9,11,13,15,17,19,-1,21,23,25,-1,27,-1,29,31,33,-1,35,-1,37,39,-1,41,43,45,47,49,51,-1,53,55,57,59,61,-1,63,65,67,-1,-1,-1,-1,-1,-1,-1,-1,-1,-1,-1,-1,-1,-1,-1,-1,-1,-1,-1,-1,-1,-1,-1,-1,-1,-1,-1],"loss_changes":[3.9643333E3,2.7520154E2,5.0200574E2,7.430054E1,3.8554834E2,4.7307443E2,3.736206E1,1.1671997E1,1.8245496E2,8.429651E1,0E0,7.890646E1,1.4944426E2,1.370519E2,0E0,5.5988617E0,0E0,1.0458573E2,4.2145996E1,2.7692806E1,0E0,4.3250656E1,0E0,1.3703459E1,3.602057E1,0E0,3.4377625E1,2.1414948E0,2.6622224E0,1.6512295E1,1.6160309E1,8.731331E0,0E0,2.3420887E0,9.553372E0,2.8335976E1,6.334526E0,8.519327E0,0E0,4.633209E0,1.4869227E0,1.3730202E0,0E0,0E0,0E0,0E0,0E0,0E0,0E0,0E0,0E0,0E0,0E0,0E0,0E0,0E0,0E0,0E0,0E0,0E0,0E0,0E0,0E0,0E0,0E0,0E0,0E0,0E0,0E0],"parents":[2147483647,0,0,1,1,2,2,3,3,4,4,5,5,6,6,7,7,8,8,9,9,11,11,12,12,13,13,15,15,17,17,18,18,19,19,21,21,23,23,24,24,26,26,27,27,28,28,29,29,30,30,31,31,33,33,34,34,35,35,36,36,37,37,39,39,40,40,41,41],"right_children":[2,4,6,8,10,12,14,16,18,20,-1,22,24,26,-1,28,-1,30,32,34,-1,36,-1,38,40,-1,42,44,46,48,50,52,-1,54,56,58,60,62,-1,64,66,68,-1,-1,-1,-1,-1,-1,-1,-1,-1,-1,-1,-1,-1,-1,-1,-1,-1,-1,-1,-1,-1,-1,-1,-1,-1,-1,-1],"split_conditions":[3.9361804E0,2E0,2E0,3.736007E0,3E0,3E0,3E0,1E0,3E0,1E0,9.819005E-2,2E0,1E0,1E0,9.982215E-2,1E0,-9.516908E-2,2E0,1E0,3.736007E0,-9.711191E-2,1E0,9.459459E-2,1E0,4.2634654E0,9.376499E-2,4.2116227E0,1E0,3E0,1E0,3.8868423E0,1E0,-9.4018206E-2,3.6304126E0,4E0,1E0,4.09116E0,4.1403193E0,-6.923077E-2,4.1403193E0,1E0,4.106377E0,8.095238E-2,-6.828194E-2,-9.52381E-2,-6.0000002E-2,-4E-3,-1.03448285E-2,-7.79661E-2,5.801105E-2,-5E-2,-2.248062E-2,-8.571429E-2,-7.5E-2,-2.5925925E-2,9.677419E-3,8.0000006E-2,8.412699E-2,-4.782609E-2,-8.139535E-2,7.692308E-3,2.3809524E-2,7.5E-2,-8.756757E-2,-4.5833334E-2,6.25E-2,7.692308E-3,-6.8E-2,-2.0000001E-2],"split_indices":[7,1,1,7,6,6,6,8,6,9,0,11,8,9,0,2,0,11,8,7,0,9,0,9,7,0,7,9,6,9,7,9,0,7,11,2,7,7,0,7,2,7,0,0,0,0,0,0,0,0,0,0,0,0,0,0,0,0,0,0,0,0,0,0,0,0,0,0,0],"split_type":[0,0,0,0,0,0,0,0,0,0,0,0,0,0,0,0,0,0,0,0,0,0,0,0,0,0,0,0,0,0,0,0,0,0,0,0,0,0,0,0,0,0,0,0,0,0,0,0,0,0,0,0,0,0,0,0,0,0,0,0,0,0,0,0,0,0,0,0,0],"sum_hessian":[2.02325E3,1.0225E3,1.00075E3,8.6625E2,1.5625E2,3.115E2,6.8925E2,5.485E2,3.1775E2,1.02E2,5.425E1,1.6E2,1.515E2,1.28E2,5.6125E2,8.375E1,4.6475E2,8.925E1,2.285E2,3.375E1,6.825E1,3.15E1,1.285E2,4.375E1,1.0775E2,1.0325E2,2.475E1,7.575E1,8E0,4.2E1,4.725E1,3.725E1,1.9125E2,1.275E1,2.1E1,1.95E1,1.2E1,4.15E1,2.25E0,1.025E2,5.25E0,2.05E1,4.25E0,5.575E1,2E1,2.75E0,5.25E0,1.35E1,2.85E1,4.425E1,3E0,3.125E1,6E0,7E0,5.75E0,1.45E1,6.5E0,1.475E1,4.75E0,9.75E0,2.25E0,3.05E1,1.1E1,9.15E1,1.1E1,3E0,2.25E0,1.775E1,2.75E0],"tree_param":{"num_deleted":"0","num_feature":"12","num_nodes":"69","size_leaf_vector":"1"}},{"base_weights":[7.389318E-3,1.6764361E0,-1.0513906E0,3.735563E-1,1.8710755E0,-1.6282003E0,4.05904E-1,-4.0665764E-1,9.490705E-1,2.7345675E-1,9.444543E-2,-9.126948E-2,-1.294614E0,1.1561918E0,-3.497789E-1,-7.58667E-2,-1.0447309E-1,1.0655828E0,-4.7514897E-2,-5.499659E-2,7.622229E-2,-5.267736E-1,-1.7328097E0,1.5129197E0,-1.2474624E0,-1.4547818E0,9.363839E-2,4.3307215E-2,-6.1420377E-2,6.426723E-1,1.3380368E0,-1.4847653E0,3.092411E-1,-8.9770615E-2,-1.4288881E0,-1.6840994E-2,1.7964379E0,-1.5388454E0,4.2850014E-2,-1.5756674E0,3.9112743E-2,-5.6886347E-3,3.6669236E-2,1.263378E-2,6.23869E-2,3.6129575E-2,7.359754E-2,-2.213641E-2,-7.6698884E-2,4.4882026E-2,-8.6469516E-2,-5.8544498E-2,-8.6807884E-2,2.9400129E-2,-5.1914066E-2,9.127607E-2,4.5838836E-3,-8.651204E-2,-2.2647617E-2,-8.3318494E-2,-4.9770083E-2],"categories":[],"categories_nodes":[],"categories_segments":[],"categories_sizes":[],"default_left":[0,0,0,0,0,0,0,0,0,0,0,0,0,0,0,0,0,0,0,0,0,0,0,0,0,0,0,0,0,0,0,0,0,0,0,0,0,0,0,0,0,0,0,0,0,0,0,0,0,0,0,0,0,0,0,0,0,0,0,0,0],"id":1,"left_children":[1,3,5,7,9,11,13,15,17,19,-1,-1,21,23,25,-1,27,29,-1,-1,-1,31,33,35,37,39,-1,41,-1,43,45,47,49,-1,51,53,55,57,-1,59,-1,-1,-1,-1,-1,-1,-1,-1,-1,-1,-1,-1,-1,-1,-1,-1,-1,-1,-1,-1,-1],"loss_changes":[3.5878577E3,1.9914185E2,1.0448857E3,4.693844E1,1.901001E1,5.6193848E1,2.0058717E2,1.4847656E1,1.4282677E1,1.6684523E1,0E0,0E0,1.11519165E2,1.5399815E2,4.3661108E2,0E0,6.0694666E0,5.704361E0,0E0,0E0,0E0,9.884747E1,1.473999E0,6.7223755E1,1.5712906E1,3.329541E1,0E0,3.6582246E0,0E0,5.40611E0,1.715805E0,2.2654266E0,8.123459E1,0E0,1.2301865E0,1.618822E1,6.3133545E0,3.57592E0,0E0,4.2790527E0,0E0,0E0,0E0,0E0,0E0,0E0,0E0,0E0,0E0,0E0,0E0,0E0,0E0,0E0,0E0,0E0,0E0,0E0,0E0,0E0,0E0],"parents":[2147483647,0,0,1,1,2,2,3,3,4,4,5,5,6,6,7,7,8,8,9,9,12,12,13,13,14,14,16,16,17,17,21,21,22,22,23,23,24,24,25,25,27,27,29,29,30,30,31,31,32,32,34,34,35,35,36,36,37,37,39,39],"right_children":[2,4,6,8,10,12,14,16,18,20,-1,-1,22,24,26,-1,28,30,-1,-1,-1,32,34,36,38,40,-1,42,-1,44,46,48,50,-1,52,54,56,58,-1,60,-1,-1,-1,-1,-1,-1,-1,-1,-1,-1,-1,-1,-1,-1,-1,-1,-1,-1,-1,-1,-1],"split_conditions":[1E0,2E0,3.9361804E0,3.8239348E0,3.625E0,3.736007E0,3E0,3.4713545E0,1E0,3E0,9.444543E-2,-9.126948E-2,3E0,1E0,2E0,-7.58667E-2,1E0,3.988555E0,-4.7514897E-2,-5.499659E-2,7.622229E-2,2E0,3E0,2E0,3E0,4.2634654E0,9.363839E-2,1E0,-6.1420377E-2,1E0,3E0,3.7483287E0,1E0,-8.9770615E-2,5E0,1E0,7E0,4.1008167E0,4.2850014E-2,4.108695E0,3.9112743E-2,-5.6886347E-3,3.6669236E-2,1.263378E-2,6.23869E-2,3.6129575E-2,7.359754E-2,-2.213641E-2,-7.6698884E-2,4.4882026E-2,-8.6469516E-2,-5.8544498E-2,-8.6807884E-2,2.9400129E-2,-5.1914066E-2,9.127607E-2,4.5838836E-3,-8.651204E-2,-2.2647617E-2,-8.3318494E-2,-4.9770083E-2],"split_indices":[10,1,7,7,7,7,6,7,8,6,0,0,6,5,1,0,8,7,0,0,0,11,11,11,1,7,0,2,0,2,6,7,5,0,11,2,11,7,0,7,0,0,0,0,0,0,0,0,0,0,0,0,0,0,0,0,0,0,0,0,0],"split_type":[0,0,0,0,0,0,0,0,0,0,0,0,0,0,0,0,0,0,0,0,0,0,0,0,0,0,0,0,0,0,0,0,0,0,0,0,0,0,0,0,0,0,0,0,0,0,0,0,0,0,0,0,0,0,0,0,0,0,0,0,0],"sum_hessian":[2.0283062E3,7.870413E2,1.2412649E3,1.0267479E2,6.843665E2,8.8919617E2,3.5206866E2,4.371058E1,5.896421E1,7.735106E0,6.766314E2,5.5603894E2,3.331572E2,1.7639902E2,1.7566965E2,8.488812E0,3.5221764E1,5.5969856E1,2.9943564E0,3.7447317E0,3.990374E0,1.21847946E2,2.1130927E2,1.5392543E2,2.2473595E1,1.17564514E2,5.8105133E1,3.197854E1,3.2432244E0,2.3245852E1,3.2724003E1,5.6420044E1,6.54279E1,1.7114818E2,4.0161083E1,2.421433E1,1.2971109E2,1.9976437E1,2.4971583E0,1.11817726E2,5.7467914E0,2.672936E1,5.2491794E0,1.4997058E1,8.248793E0,6.990917E0,2.5733086E1,2.9951913E0,5.342485E1,5.120776E1,1.42201395E1,2.4445837E1,1.5715245E1,1.5475116E1,8.739215E0,1.27465675E2,2.2454221E0,1.6478601E1,3.4978342E0,9.5083336E1,1.6734388E1],"tree_param":{"num_deleted":"0","num_feature":"12","num_nodes":"61","size_leaf_vector":"1"}},{"base_weights":[4.1283183E-3,1.6066446E0,-9.995409E-1,3.6873347E-1,8.952795E-2,-1.2704352E0,2.8795347E-1,5.053614E-1,-5.908493E-2,-1.3356241E0,1.4978539E0,9.303649E-1,-1.4983206E0,3.3322024E-1,9.393199E-1,-1.570662E0,-9.3679446E-1,8.750063E-2,-3.9952393E-3,1.5725706E0,-1.0596294E0,-8.377763E-2,3.0227932E-1,2.2107815E-2,-3.4306075E-2,5.8089204E-2,-3.445185E-2,-1.6463848E0,-1.0281876E0,-6.7431234E-2,-1.5458586E0,9.027058E-2,8.2944536E-1,-1.308481E0,-2.2080302E-1,6.749376E-2,-4.9975436E-2,-6.90976E-2,-8.713518E-2,8.684096E-2,-8.099253E-2,1.4272923E-2,-8.734351E-2,-8.123648E-2,7.653605E-2,-5.080008E-2,8.682322E-2,-3.5697725E-2,-7.4499376E-2,-7.016606E-2,7.2234124E-2],"categories":[],"categories_nodes":[],"categories_segments":[],"categories_sizes":[],"default_left":[0,0,0,0,0,0,0,0,0,0,0,0,0,0,0,0,0,0,0,0,0,0,0,0,0,0,0,0,0,0,0,0,0,0,0,0,0,0,0,0,0,0,0,0,0,0,0,0,0,0,0],"id":2,"left_children":[1,3,5,7,-1,9,11,13,-1,15,17,19,21,23,25,27,29,-1,-1,31,33,-1,35,-1,-1,-1,-1,37,39,41,43,-1,45,47,49,-1,-1,-1,-1,-1,-1,-1,-1,-1,-1,-1,-1,-1,-1,-1,-1],"loss_changes":[3.2133135E3,1.745055E2,4.288191E2,2.1945677E1,0E0,1.8518591E2,2.4737317E2,6.6581154E0,0E0,9.154419E1,9.618626E0,2.039384E2,1.8722885E1,7.8947997E0,1.0202421E1,2.3892822E1,1.9602774E2,0E0,0E0,1.9276672E1,7.8965874E0,0E0,9.480268E0,0E0,0E0,0E0,0E0,1.1470215E1,1.3198328E2,9.155621E1,5.53291E1,0E0,5.2805733E1,2.1776886E0,2.2066021E1,0E0,0E0,0E0,0E0,0E0,0E0,0E0,0E0,0E0,0E0,0E0,0E0,0E0,0E0,0E0,0E0],"parents":[2147483647,0,0,1,1,2,2,3,3,5,5,6,6,7,7,9,9,10,10,11,11,12,12,13,13,14,14,15,15,16,16,19,19,20,20,22,22,27,27,28,28,29,29,30,30,32,32,33,33,34,34],"right_children":[2,4,6,8,-1,10,12,14,-1,16,18,20,22,24,26,28,30,-1,-1,32,34,-1,36,-1,-1,-1,-1,38,40,42,44,-1,46,48,50,-1,-1,-1,-1,-1,-1,-1,-1,-1,-1,-1,-1,-1,-1,-1,-1],"split_conditions":[1E0,2E0,4E0,1E0,8.952795E-2,3E0,5E0,1E0,-5.908493E-2,2E0,2E0,1E0,2E0,4E0,3E0,2E0,3E0,8.750063E-2,-3.9952393E-3,3E0,2E0,-8.377763E-2,1E0,2.2107815E-2,-3.4306075E-2,5.8089204E-2,-3.445185E-2,1E0,1E0,1E0,2E0,9.027058E-2,2E0,3E0,3E0,6.749376E-2,-4.9975436E-2,-6.90976E-2,-8.713518E-2,8.684096E-2,-8.099253E-2,1.4272923E-2,-8.734351E-2,-8.123648E-2,7.653605E-2,-5.080008E-2,8.682322E-2,-3.5697725E-2,-7.4499376E-2,-7.016606E-2,7.2234124E-2],"split_indices":[10,1,11,8,0,1,11,2,0,11,5,9,1,6,2,1,6,0,0,6,1,0,5,0,0,0,0,9,5,5,1,0,1,6,6,0,0,0,0,0,0,0,0,0,0,0,0,0,0,0,0],"split_type":[0,0,0,0,0,0,0,0,0,0,0,0,0,0,0,0,0,0,0,0,0,0,0,0,0,0,0,0,0,0,0,0,0,0,0,0,0,0,0,0,0,0,0,0,0,0,0,0,0,0,0],"sum_hessian":[1.9958384E3,7.6838684E2,1.2274517E3,9.9780136E1,6.686067E2,1.0140949E3,2.1335666E2,9.2318825E1,7.4613137E0,9.9126965E2,2.2825306E1,1.5727412E2,5.608254E1,6.736469E1,2.4954132E1,6.218584E2,3.6941122E2,1.9585896E1,3.2394109E0,1.19060875E2,3.821325E1,5.112025E1,4.962288E0,6.1372143E1,5.9925485E0,2.2206797E1,2.7473352E0,5.4390137E2,7.795704E1,1.5264302E2,2.1676822E2,8.9567505E1,2.9493368E1,2.9038584E1,9.174666E0,2.7291243E0,2.2331638E0,1.4931647E2,3.945849E2,1.3399926E1,6.455711E1,1.2682427E2,2.581874E1,2.1181017E2,4.958053E0,9.679342E0,1.9814026E1,7.9457335E0,2.109285E1,5.4573097E0,3.7173564E0],"tree_param":{"num_deleted":"0","num_feature":"12","num_nodes":"51","size_leaf_vector":"1"}},{"base_weights":[-1.3846494E-2,-1.2322845E0,1.2345161E0,7.342211E-1,-1.5193806E0,1.6997069E0,3.8818774E-1,-1.0232428E0,1.4639592E0,-1.6905916E0,-1.2207332E0,-2.7463296E-2,1.7138505E0,-7.892825E-2,1.4082687E0,-6.507926E-2,-3.5370663E-1,7.5701785E-1,8.561527E-2,-8.768414E-2,-7.778866E-2,-1.3311518E0,-6.352781E-1,1.1822128E0,8.737465E-2,8.158031E-1,-9.786345E-1,1.0313265E0,8.735779E-2,-4.5892363E-3,-3.8774323E-2,-3.418339E-1,5.9271347E-2,-1.5371612E0,-1.1737139E0,1.9544458E-1,-1.5328962E0,1.3110803E0,-2.8345024E-2,-8.0145255E-2,1.0904969E0,-1.1690964E0,1.1149768E0,8.0483384E-2,4.6150106E-1,1.0345916E-2,-2.9616684E-2,1.7235419E-2,-7.950754E-2,-2.7493149E-2,-6.903386E-2,4.265183E-2,-5.458504E-2,-8.142131E-2,-2.2269456E-2,3.0123914E-2,7.387786E-2,6.1265733E-2,-7.434854E-2,4.7720294E-2,-6.156519E-2,-5.148783E-3,7.993858E-2,-6.7121066E-2,4.1158028E-2],"categories":[],"categories_nodes":[],"categories_segments":[],"categories_sizes":[],"default_left":[0,0,0,0,0,0,0,0,0,0,0,0,0,0,0,0,0,0,0,0,0,0,0,0,0,0,0,0,0,0,0,0,0,0,0,0,0,0,0,0,0,0,0,0,0,0,0,0,0,0,0,0,0,0,0,0,0,0,0,0,0,0,0,0,0],"id":3,"left_children":[1,3,5,7,9,11,13,15,17,19,21,-1,23,25,27,-1,29,31,-1,-1,-1,33,35,37,-1,39,41,43,-1,-1,-1,45,-1,47,49,51,53,55,-1,-1,57,59,61,-1,63,-1,-1,-1,-1,-1,-1,-1,-1,-1,-1,-1,-1,-1,-1,-1,-1,-1,-1,-1,-1],"loss_changes":[3.042999E3,5.727051E2,3.8838477E2,1.67774E2,4.3125E1,2.1215088E1,1.6773973E2,6.7383156E0,1.4859909E1,2.027588E0,2.0205017E1,0E0,9.266968E0,1.9580492E2,1.2319672E1,0E0,1.3336167E0,1.2511104E1,0E0,0E0,0E0,7.05188E0,4.0255226E1,9.940102E0,0E0,8.280791E1,4.964898E1,1.7308949E1,0E0,0E0,0E0,1.2208402E0,0E0,1.2020905E1,1.977002E1,2.5236612E1,1.9621086E0,3.6283264E0,0E0,0E0,4.0099976E1,1.5919891E1,6.423424E0,0E0,2.0020458E1,0E0,0E0,0E0,0E0,0E0,0E0,0E0,0E0,0E0,0E0,0E0,0E0,0E0,0E0,0E0,0E0,0E0,0E0,0E0,0E0],"parents":[2147483647,0,0,1,1,2,2,3,3,4,4,5,5,6,6,7,7,8,8,9,9,10,10,12,12,13,13,14,14,16,16,17,17,21,21,22,22,23,23,25,25,26,26,27,27,31,31,33,33,34,34,35,35,36,36,37,37,40,40,41,41,42,42,44,44],"right_children":[2,4,6,8,10,12,14,16,18,20,22,-1,24,26,28,-1,30,32,-1,-1,-1,34,36,38,-1,40,42,44,-1,-1,-1,46,-1,48,50,52,54,56,-1,-1,58,60,62,-1,64,-1,-1,-1,-1,-1,-1,-1,-1,-1,-1,-1,-1,-1,-1,-1,-1,-1,-1,-1,-1],"split_conditions":[3.9361804E0,1E0,1E0,2.3E1,3.736007E0,2.3E1,4.1403193E0,2.1E1,2E0,2E1,1E0,-2.7463296E-2,2E0,2.3E1,4.5E1,-6.507926E-2,3.7600174E0,2.5E1,8.561527E-2,-8.768414E-2,-7.778866E-2,2.2E1,1E0,3E0,8.737465E-2,2.1E1,3.7E1,4.155639E0,8.735779E-2,-4.5892363E-3,-3.8774323E-2,3.6601298E0,5.9271347E-2,3.7483287E0,2.3E1,2.2E1,2.8E1,3.988555E0,-2.8345024E-2,-8.0145255E-2,4.0715814E0,3.93626E0,2E0,8.0483384E-2,2.6E1,1.0345916E-2,-2.9616684E-2,1.7235419E-2,-7.950754E-2,-2.7493149E-2,-6.903386E-2,4.265183E-2,-5.458504E-2,-8.142131E-2,-2.2269456E-2,3.0123914E-2,7.387786E-2,6.1265733E-2,-7.434854E-2,4.7720294E-2,-6.156519E-2,-5.148783E-3,7.993858E-2,-6.7121066E-2,4.1158028E-2],"split_indices":[7,10,10,0,7,0,7,0,1,0,2,0,1,0,0,0,7,0,0,0,0,0,9,2,0,0,0,7,0,0,0,7,0,7,0,0,0,7,0,0,7,7,1,0,0,0,0,0,0,0,0,0,0,0,0,0,0,0,0,0,0,0,0,0,0],"split_type":[0,0,0,0,0,0,0,0,0,0,0,0,0,0,0,0,0,0,0,0,0,0,0,0,0,0,0,0,0,0,0,0,0,0,0,0,0,0,0,0,0,0,0,0,0,0,0,0,0,0,0,0,0,0,0,0,0,0,0,0,0,0,0,0,0],"sum_hessian":[1.9985875E3,1.01142267E3,9.8716486E2,1.2865108E2,8.8277155E2,6.363706E2,3.5079422E2,3.762786E1,9.102322E1,5.5813715E2,3.2463443E2,3.7405992E0,6.3263E2,2.4124556E2,1.0954867E2,2.5911726E1,1.1716136E1,2.4715727E1,6.630749E1,3.7203015E2,1.86107E2,2.7205103E2,5.258341E1,3.9801647E1,5.9282837E2,1.21003944E2,1.2024161E2,5.3776577E1,5.5772087E1,7.97891E0,3.7372262E0,6.989648E0,1.7726078E1,1.140507E2,1.5800032E2,2.7715595E1,2.4867815E1,3.7303696E1,2.4979496E0,1.1847776E1,1.09156166E2,1.1061979E2,9.621817E0,2.578321E1,2.7993366E1,2.2452078E0,4.74444E0,2.972705E0,1.11077995E2,4.0270245E1,1.1773008E2,1.8567087E1,9.148507E0,2.2402514E1,2.465301E0,7.975462E0,2.9328234E1,1.0422895E2,4.927222E0,2.7401502E0,1.0787964E2,2.959197E0,6.66262E0,4.2221003E0,2.3771267E1],"tree_param":{"num_deleted":"0","num_feature":"12","num_nodes":"65","size_leaf_vector":"1"}},{"base_weights":[8.279769E-5,-9.012683E-1,1.2637737E0,-1.9125597E-1,-1.344695E0,1.3939005E-1,8.446954E-2,-1.219849E0,7.352602E-1,-3.8942215E-1,-1.5699804E0,1.1549288E0,-1.3900299E0,-4.7837365E-1,-7.819279E-2,2.9904893E-1,1.2768418E0,-1.4700602E-1,-8.18702E-2,-7.967844E-2,-1.3124086E0,9.2946184E-1,7.913416E-2,7.201188E-2,-1.5184243E0,-3.9612633E-1,-8.1670773E-1,-1.1271969E0,6.006356E-1,1.5773333E0,-3.6227338E-2,-4.1532362E-1,3.7384924E-2,-6.7481734E-2,-1.8893367E-2,4.7343618E-1,7.8168295E-2,-8.004726E-2,9.027533E-3,-2.7845392E-2,-1.084034E-2,-2.1555007E-2,-7.039009E-2,-6.432116E-2,-5.117923E-3,4.353868E-2,-5.0583392E-2,8.504971E-2,-6.922342E-2,-1.5668388E-2,-5.4350544E-2,4.7626954E-2,-1.7095676E-2],"categories":[],"categories_nodes":[],"categories_segments":[],"categories_sizes":[],"default_left":[0,0,0,0,0,0,0,0,0,0,0,0,0,0,0,0,0,0,0,0,0,0,0,0,0,0,0,0,0,0,0,0,0,0,0,0,0,0,0,0,0,0,0,0,0,0,0,0,0,0,0,0,0],"id":4,"left_children":[1,3,5,7,9,11,-1,13,15,17,19,21,23,25,-1,27,29,31,-1,-1,33,35,-1,-1,37,39,41,43,45,47,-1,49,-1,-1,-1,51,-1,-1,-1,-1,-1,-1,-1,-1,-1,-1,-1,-1,-1,-1,-1,-1,-1],"loss_changes":[2.2483037E3,3.6247205E2,3.9302612E2,4.24111E2,1.5197827E2,3.537742E2,0E0,5.3027405E1,5.4960182E1,4.10952E1,1.3922119E0,1.1723328E1,3.523065E1,1.5758E0,0E0,5.7049465E1,6.3809326E1,2.8040098E1,0E0,0E0,1.3607788E0,2.585775E1,0E0,0E0,1.2552811E1,1.5182781E0,2.2207346E0,3.6578999E0,4.8282925E1,3.565274E1,0E0,5.7887383E0,0E0,0E0,0E0,2.1790142E1,0E0,0E0,0E0,0E0,0E0,0E0,0E0,0E0,0E0,0E0,0E0,0E0,0E0,0E0,0E0,0E0,0E0],"parents":[2147483647,0,0,1,1,2,2,3,3,4,4,5,5,7,7,8,8,9,9,10,10,11,11,12,12,13,13,15,15,16,16,17,17,20,20,21,21,24,24,25,25,26,26,27,27,28,28,29,29,31,31,35,35],"right_children":[2,4,6,8,10,12,-1,14,16,18,20,22,24,26,-1,28,30,32,-1,-1,34,36,-1,-1,38,40,42,44,46,48,-1,50,-1,-1,-1,52,-1,-1,-1,-1,-1,-1,-1,-1,-1,-1,-1,-1,-1,-1,-1,-1,-1],"split_conditions":[2E0,3E0,3E0,2E0,1E0,1E0,8.446954E-2,1E0,4E0,1E0,1E0,4E0,1E0,1E0,-7.819279E-2,1E0,1E0,1E0,-8.18702E-2,-7.967844E-2,2E0,1E0,7.913416E-2,7.201188E-2,3E0,1E0,1E0,3E0,3E0,5E0,-3.6227338E-2,4E0,3.7384924E-2,-6.7481734E-2,-1.8893367E-2,1E0,7.8168295E-2,-8.004726E-2,9.027533E-3,-2.7845392E-2,-1.084034E-2,-2.1555007E-2,-7.039009E-2,-6.432116E-2,-5.117923E-3,4.353868E-2,-5.0583392E-2,8.504971E-2,-6.922342E-2,-1.5668388E-2,-5.4350544E-2,4.7626954E-2,-1.7095676E-2],"split_indices":[1,6,6,11,8,9,0,9,11,9,2,11,5,2,0,9,9,2,0,0,4,2,0,0,1,8,8,11,11,11,0,6,0,0,0,8,0,0,0,0,0,0,0,0,0,0,0,0,0,0,0,0,0],"split_type":[0,0,0,0,0,0,0,0,0,0,0,0,0,0,0,0,0,0,0,0,0,0,0,0,0,0,0,0,0,0,0,0,0,0,0,0,0,0,0,0,0,0,0,0,0,0,0,0,0,0,0,0,0],"sum_hessian":[1.9718773E3,1.151112E3,8.207653E2,4.4308234E2,7.0802966E2,2.2573975E2,5.950256E2,2.0982442E2,2.3325793E2,1.3563367E2,5.72396E2,1.3580785E2,8.993189E1,6.7254364E1,1.4257005E2,1.3005702E2,1.0320091E2,1.14508575E2,2.1125097E1,5.196223E2,5.2773678E1,9.10099E1,4.479794E1,3.459301E0,8.6472595E1,5.5848656E1,1.1405708E1,2.2223133E1,1.07833885E2,8.99131E1,1.3287811E1,8.85028E1,2.6005772E1,5.032489E1,2.4487882E0,5.3947414E1,3.7062492E1,8.252211E1,3.9504824E0,2.833619E1,2.7512465E1,7.9492445E0,3.4564638E0,1.9013771E1,3.2093635E0,9.2753204E1,1.5080682E1,8.671814E1,3.1949615E0,7.811258E1,1.0390225E1,3.3874413E1,2.0073E1],"tree_param":{"num_deleted":"0","num_feature":"12","num_nodes":"53","size_leaf_vector":"1"}},{"base_weights":[-5.0373055E-4,-1.1349264E0,1.160425E0,6.8860376E-1,-1.4046255E0,1.5863957E0,3.9576828E-1,-9.3513674E-1,1.3995782E0,-1.5820558E0,-1.0993456E0,-2.4755616E-2,1.6040051E0,1.0492889E0,-2.7530277E-1,-6.1842836E-2,-1.1814098E-2,8.3932793E-1,7.982244E-2,-8.24182E-2,-1.4422263E0,-4.376321E-1,-1.484875E0,1.1912682E0,8.153226E-2,1.3858907E0,-1.1283804E0,-1.3516335E0,1.4543523E0,6.0990825E-4,1.1999809E0,-7.902119E-2,-1.2263323E0,-1.2971706E0,2.972275E-1,-7.590953E-2,8.177789E-3,4.381965E-1,1.3520917E0,2.142851E-1,1.6012908E0,-7.762449E-2,6.207682E-2,-7.761098E-2,-7.579657E-1,4.022596E-1,8.0729954E-2,6.655533E-2,1.4239593E-2,-3.101532E-2,-7.367572E-2,-9.771924E-3,-6.749429E-2,4.066842E-2,-7.471648E-2,4.3326456E-2,-2.8204608E-3,3.8666632E-2,7.375973E-2,5.822405E-2,-2.759619E-2,8.0936216E-2,2.0997858E-2,-5.942988E-2,4.926615E-3,-2.6862755E-2,5.096016E-2],"categories":[],"categories_nodes":[],"categories_segments":[],"categories_sizes":[],"default_left":[0,0,0,0,0,0,0,0,0,0,0,0,0,0,0,0,0,0,0,0,0,0,0,0,0,0,0,0,0,0,0,0,0,0,0,0,0,0,0,0,0,0,0,0,0,0,0,0,0,0,0,0,0,0,0,0,0,0,0,0,0,0,0,0,0,0,0],"id":5,"left_children":[1,3,5,7,9,11,13,15,17,19,21,-1,23,25,27,-1,-1,29,-1,-1,31,33,35,37,-1,39,41,43,45,-1,47,-1,49,51,53,-1,-1,55,57,59,61,-1,-1,-1,63,65,-1,-1,-1,-1,-1,-1,-1,-1,-1,-1,-1,-1,-1,-1,-1,-1,-1,-1,-1,-1,-1],"loss_changes":[2.5789893E3,4.8806677E2,3.1461206E2,1.494024E2,4.501416E1,2.3564697E1,1.5272736E2,8.071308E0,8.544601E0,2.6629639E0,8.112488E1,0E0,4.833496E0,1.3079706E2,3.2270407E2,0E0,0E0,7.565773E0,0E0,0E0,3.5175781E0,7.581806E1,1.1348694E1,4.382263E0,0E0,3.830667E1,2.6205128E1,1.1531509E1,1.0573364E1,0E0,1.7432404E0,0E0,1.0445251E1,2.9437485E0,6.1500557E1,0E0,0E0,1.8936814E0,1.2365417E0,1.8799244E1,1.9812927E0,0E0,0E0,0E0,1.0778421E1,6.4195724E0,0E0,0E0,0E0,0E0,0E0,0E0,0E0,0E0,0E0,0E0,0E0,0E0,0E0,0E0,0E0,0E0,0E0,0E0,0E0,0E0,0E0],"parents":[2147483647,0,0,1,1,2,2,3,3,4,4,5,5,6,6,7,7,8,8,9,9,10,10,12,12,13,13,14,14,17,17,20,20,21,21,22,22,23,23,25,25,26,26,27,27,28,28,30,30,32,32,33,33,34,34,37,37,38,38,39,39,40,40,44,44,45,45],"right_children":[2,4,6,8,10,12,14,16,18,20,22,-1,24,26,28,-1,-1,30,-1,-1,32,34,36,38,-1,40,42,44,46,-1,48,-1,50,52,54,-1,-1,56,58,60,62,-1,-1,-1,64,66,-1,-1,-1,-1,-1,-1,-1,-1,-1,-1,-1,-1,-1,-1,-1,-1,-1,-1,-1,-1,-1],"split_conditions":[3.9361804E0,1E0,1E0,2.3E1,3.736007E0,2.3E1,3E0,2.1E1,2E0,2E1,3E0,-2.4755616E-2,2E0,1E0,3.5E1,-6.1842836E-2,-1.1814098E-2,2.5E1,7.982244E-2,-8.24182E-2,2E0,2E0,3.3E1,3.988555E0,8.153226E-2,2E0,3.4E1,2.8E1,2E0,6.0990825E-4,4E0,-7.902119E-2,3E0,3.7483287E0,1E0,-7.590953E-2,8.177789E-3,3.958229E0,3E0,1E0,7E0,-7.762449E-2,6.207682E-2,-7.761098E-2,4.09116E0,4.1E1,8.0729954E-2,6.655533E-2,1.4239593E-2,-3.101532E-2,-7.367572E-2,-9.771924E-3,-6.749429E-2,4.066842E-2,-7.471648E-2,4.3326456E-2,-2.8204608E-3,3.8666632E-2,7.375973E-2,5.822405E-2,-2.759619E-2,8.0936216E-2,2.0997858E-2,-5.942988E-2,4.926615E-3,-2.6862755E-2,5.096016E-2],"split_indices":[7,10,10,0,7,0,6,0,1,0,6,0,1,5,0,0,0,0,0,0,11,11,0,7,0,11,0,0,1,0,6,0,6,7,5,0,0,7,6,9,11,0,0,0,7,0,0,0,0,0,0,0,0,0,0,0,0,0,0,0,0,0,0,0,0,0,0],"split_type":[0,0,0,0,0,0,0,0,0,0,0,0,0,0,0,0,0,0,0,0,0,0,0,0,0,0,0,0,0,0,0,0,0,0,0,0,0,0,0,0,0,0,0,0,0,0,0,0,0,0,0,0,0,0,0,0,0,0,0,0,0,0,0,0,0,0,0],"sum_hessian":[1.9562543E3,9.8943353E2,9.6682074E2,1.27282E2,8.6215155E2,6.202311E2,3.465897E2,3.8664288E1,8.8617714E1,5.426046E2,3.1954694E2,4.975575E0,6.152555E2,1.7530542E2,1.7128426E2,2.6467506E1,1.2196779E1,2.4411459E1,6.420625E1,3.6074734E2,1.8185725E2,1.1842324E2,2.0112369E2,4.0075718E1,5.7517975E2,1.5215105E2,2.3154371E1,1.0571711E2,6.5567154E1,7.7260885E0,1.668537E1,1.07027E2,7.483025E1,5.4228706E1,6.4194534E1,1.9721683E2,3.906859E0,7.7078185E0,3.23679E1,2.393864E1,1.282124E2,1.9932297E1,3.222074E0,7.7811775E1,2.7905334E1,9.130641E0,5.6436512E1,1.4196828E1,2.488543E0,2.2695742E1,5.213451E1,2.6911786E0,5.1537525E1,5.0260635E1,1.3933902E1,3.727668E0,3.9801502E0,6.954386E0,2.5413515E1,1.0454252E1,1.3484389E1,1.2598297E2,2.229435E0,1.83111E1,9.594234E0,3.670371E0,5.4602704E0],"tree_param":{"num_deleted":"0","num_feature":"12","num_nodes":"67","size_leaf_vector":"1"}},{"base_weights":[-7.6855593E-3,-1.104583E0,1.1234622E0,6.4041567E-1,-1.3658755E0,1.5379912E0,3.6139384E-1,-9.279501E-1,1.3577334E0,-7.947024E-2,-1.1649991E0,-2.5939861E-2,1.5540528E0,-6.8098955E-2,1.2912456E0,-6.2961645E-2,-2.422218E-1,8.3718807E-1,7.723474E-2,-1.4481475E0,-8.318217E-1,1.1465861E0,7.9036206E-2,1.4076589E0,-4.8428762E-1,9.489225E-1,7.948835E-2,2.164452E-3,-3.2686934E-2,3.111619E-4,5.6849904E-2,-1.4781185E0,-2.437055E-1,-9.851896E-1,2.5267534E-2,1.2732676E0,-2.8555557E-2,7.856239E-2,-4.140492E-2,-1.1647888E0,3.0776535E-3,-2.1456483E-1,1.2538248E0,-6.2328536E-2,-7.6684885E-2,8.15504E-3,-3.3636082E-2,-5.6649655E-2,-3.0729279E-2,4.446953E-2,-6.5088175E-2,3.5321556E-2,7.426039E-2,-6.381265E-2,3.5359904E-2,3.3801164E-2,-2.8390532E-2,-3.700712E-2,4.8892707E-2,6.72883E-2,1.4999974E-2],"categories":[],"categories_nodes":[],"categories_segments":[],"categories_sizes":[],"default_left":[0,0,0,0,0,0,0,0,0,0,0,0,0,0,0,0,0,0,0,0,0,0,0,0,0,0,0,0,0,0,0,0,0,0,0,0,0,0,0,0,0,0,0,0,0,0,0,0,0,0,0,0,0,0,0,0,0,0,0,0,0],"id":6,"left_children":[1,3,5,7,9,11,13,15,17,-1,19,-1,21,23,25,-1,27,29,-1,31,33,35,-1,37,39,41,-1,-1,-1,-1,-1,43,45,47,49,51,-1,-1,-1,53,55,57,59,-1,-1,-1,-1,-1,-1,-1,-1,-1,-1,-1,-1,-1,-1,-1,-1,-1,-1],"loss_changes":[2.3737942E3,4.4374194E2,2.9698755E2,1.4433841E2,3.609546E1,2.094934E1,1.3313498E2,8.896896E0,7.239212E0,0E0,4.1140076E1,0E0,4.765381E0,1.41232E2,9.253113E0,0E0,1.7240565E0,6.308666E0,0E0,8.350159E0,2.74402E1,9.610943E0,0E0,1.980613E1,5.9449585E1,1.8551666E1,0E0,0E0,0E0,0E0,0E0,1.1155396E0,1.3411828E0,8.995331E0,3.8575787E1,3.5557785E0,0E0,0E0,0E0,1.651078E1,4.0891174E1,7.96547E0,3.1901703E0,0E0,0E0,0E0,0E0,0E0,0E0,0E0,0E0,0E0,0E0,0E0,0E0,0E0,0E0,0E0,0E0,0E0,0E0],"parents":[2147483647,0,0,1,1,2,2,3,3,4,4,5,5,6,6,7,7,8,8,10,10,12,12,13,13,14,14,16,16,17,17,19,19,20,20,21,21,23,23,24,24,25,25,31,31,32,32,33,33,34,34,35,35,39,39,40,40,41,41,42,42],"right_children":[2,4,6,8,10,12,14,16,18,-1,20,-1,22,24,26,-1,28,30,-1,32,34,36,-1,38,40,42,-1,-1,-1,-1,-1,44,46,48,50,52,-1,-1,-1,54,56,58,60,-1,-1,-1,-1,-1,-1,-1,-1,-1,-1,-1,-1,-1,-1,-1,-1,-1,-1],"split_conditions":[3.9361804E0,1E0,1E0,2.3E1,2E1,2.3E1,4.1403193E0,2.1E1,2E0,-7.947024E-2,2E0,-2.5939861E-2,2E0,3.9395723E0,4.5E1,-6.2961645E-2,3.7600174E0,2.5E1,7.723474E-2,3.2E1,1E0,3E0,7.9036206E-2,2.4E1,4.0153193E0,2E0,7.948835E-2,2.164452E-3,-3.2686934E-2,3.111619E-4,5.6849904E-2,1E0,1E0,3.845351E0,2.2E1,2.8E1,-2.8555557E-2,7.856239E-2,-4.140492E-2,3.4E1,2.3E1,4.2634654E0,1E0,-6.2328536E-2,-7.6684885E-2,8.15504E-3,-3.3636082E-2,-5.6649655E-2,-3.0729279E-2,4.446953E-2,-6.5088175E-2,3.5321556E-2,7.426039E-2,-6.381265E-2,3.5359904E-2,3.3801164E-2,-2.8390532E-2,-3.700712E-2,4.8892707E-2,6.72883E-2,1.4999974E-2],"split_indices":[7,10,10,0,0,0,7,0,1,0,11,0,1,7,0,0,7,0,0,0,2,2,0,0,7,11,0,0,0,0,0,9,9,7,0,0,0,0,0,0,0,7,2,0,0,0,0,0,0,0,0,0,0,0,0,0,0,0,0,0,0],"split_type":[0,0,0,0,0,0,0,0,0,0,0,0,0,0,0,0,0,0,0,0,0,0,0,0,0,0,0,0,0,0,0,0,0,0,0,0,0,0,0,0,0,0,0,0,0,0,0,0,0,0,0,0,0,0,0,0,0,0,0,0,0],"sum_hessian":[1.9111881E3,9.702957E2,9.408924E2,1.26179016E2,8.441167E2,6.0874554E2,3.3214685E2,3.9506702E1,8.667231E1,3.9625906E2,4.4785764E2,4.474368E0,6.042712E2,2.2783707E2,1.04309784E2,2.6073812E1,1.3432888E1,2.4351025E1,6.232129E1,2.4029678E2,2.0756085E2,3.982602E1,5.644452E2,4.959534E1,1.7824171E2,5.053668E1,5.3773106E1,8.4589E0,4.9739876E0,6.726993E0,1.7624031E1,2.3424077E2,6.0560155E0,1.7593034E2,3.163052E1,3.7331524E1,2.4944952E0,4.6490856E1,3.1044831E0,7.380244E1,1.0443928E2,1.05551605E1,3.9981518E1,4.9877068E1,1.843637E2,3.4266174E0,2.6293983E0,1.243001E2,5.1630238E1,1.9356157E1,1.22743635E1,1.1338834E1,2.5992691E1,6.9955315E1,3.8471255E0,4.7850464E1,5.6588814E1,7.589334E0,2.965826E0,3.6091656E1,3.8898628E0],"tree_param":{"num_deleted":"0","num_feature":"12","num_nodes":"61","size_leaf_vector":"1"}},{"base_weights":[7.892911E-3,-1.0493072E0,1.099406E0,-1.2377859E0,9.3504705E-2,3.42595E-1,1.4507681E0,-7.640763E-2,-9.475182E-1,1.2599773E0,-8.6685485E-1,1.2823468E0,-6.463379E-1,9.474296E-1,7.634224E-2,-3.6130884E-1,-1.3025676E0,7.5340235E-1,7.3373996E-2,-1.0766623E0,9.748344E-1,2.6772973E-1,7.5719796E-2,5.508453E-1,-1.1596743E0,7.0219114E-2,-9.8725396E-1,-1.0823778E0,3.387791E-1,-1.386782E0,6.8982445E-2,1.7370634E-1,1.0366385E0,-6.7782655E-2,-7.7262646E-1,1.1955104E-3,6.5653466E-2,9.7170955E-1,-8.8993955E-1,-4.2078224E-1,6.556833E-2,-1.2996196E0,8.4529907E-1,-6.934943E-2,5.469901E-2,-1.1683231E-2,-6.804284E-2,3.7951972E-2,-3.245915E-2,-4.313798E-2,-7.357041E-2,-3.0470926E-2,2.8960994E-2,6.384574E-2,1.6008569E-2,-4.688808E-2,-4.4081644E-3,7.240841E-2,1.9673212E-2,-7.020472E-2,3.0152872E-2,-4.771366E-2,7.814904E-3,-7.445859E-2,-4.5423508E-2,5.3883106E-3,6.3600674E-2],"categories":[],"categories_nodes":[],"categories_segments":[],"categories_sizes":[],"default_left":[0,0,0,0,0,0,0,0,0,0,0,0,0,0,0,0,0,0,0,0,0,0,0,0,0,0,0,0,0,0,0,0,0,0,0,0,0,0,0,0,0,0,0,0,0,0,0,0,0,0,0,0,0,0,0,0,0,0,0,0,0,0,0,0,0,0,0],"id":7,"left_children":[1,3,5,7,9,11,13,-1,15,17,19,21,23,25,-1,27,29,31,-1,33,35,37,-1,39,41,-1,43,45,47,49,-1,51,53,-1,55,-1,-1,57,59,61,-1,63,65,-1,-1,-1,-1,-1,-1,-1,-1,-1,-1,-1,-1,-1,-1,-1,-1,-1,-1,-1,-1,-1,-1,-1,-1],"loss_changes":[2.1779045E3,2.066261E2,2.46432E2,6.7924805E1,1.5418945E2,2.756713E2,2.2825562E1,0E0,8.5747284E1,5.4239807E0,3.024107E1,3.537532E1,8.9603485E1,7.7292786E1,0E0,7.994491E1,6.010132E1,3.121131E0,0E0,4.745697E0,2.622446E0,2.4908552E1,0E0,3.3155376E1,2.9617447E1,0E0,1.5653748E1,1.809227E1,3.4018173E1,9.828613E0,0E0,2.8301911E0,1.8816795E0,0E0,3.8740654E0,0E0,0E0,4.6164474E0,9.811358E0,6.3463097E0,0E0,5.7205963E0,2.1406536E0,0E0,0E0,0E0,0E0,0E0,0E0,0E0,0E0,0E0,0E0,0E0,0E0,0E0,0E0,0E0,0E0,0E0,0E0,0E0,0E0,0E0,0E0,0E0,0E0],"parents":[2147483647,0,0,1,1,2,2,3,3,4,4,5,5,6,6,8,8,9,9,10,10,11,11,12,12,13,13,15,15,16,16,17,17,19,19,20,20,21,21,23,23,24,24,26,26,27,27,28,28,29,29,31,31,32,32,34,34,37,37,38,38,39,39,41,41,42,42],"right_children":[2,4,6,8,10,12,14,-1,16,18,20,22,24,26,-1,28,30,32,-1,34,36,38,-1,40,42,-1,44,46,48,50,-1,52,54,-1,56,-1,-1,58,60,62,-1,64,66,-1,-1,-1,-1,-1,-1,-1,-1,-1,-1,-1,-1,-1,-1,-1,-1,-1,-1,-1,-1,-1,-1,-1,-1],"split_conditions":[3.9361804E0,2.6E1,2E0,2E1,1E0,3E0,3.1E1,-7.640763E-2,3E0,2E0,3.6E1,2E0,1E0,1E0,7.634224E-2,2E0,2E0,2.7E1,7.3373996E-2,2E0,1E0,1E0,7.5719796E-2,2.8E1,4.2634654E0,7.0219114E-2,3E0,1E0,2E0,1E0,6.8982445E-2,3.7950885E0,3.879664E0,-6.7782655E-2,3E1,1.1955104E-3,6.5653466E-2,2.4E1,3E1,2.4E1,6.556833E-2,2.7E1,1E0,-6.934943E-2,5.469901E-2,-1.1683231E-2,-6.804284E-2,3.7951972E-2,-3.245915E-2,-4.313798E-2,-7.357041E-2,-3.0470926E-2,2.8960994E-2,6.384574E-2,1.6008569E-2,-4.688808E-2,-4.4081644E-3,7.240841E-2,1.9673212E-2,-7.020472E-2,3.0152872E-2,-4.771366E-2,7.814904E-3,-7.445859E-2,-4.5423508E-2,5.3883106E-3,6.3600674E-2],"split_indices":[7,0,1,0,11,6,0,0,6,1,0,11,11,9,0,11,1,0,0,11,5,9,0,0,7,0,6,9,1,11,0,7,7,0,0,0,0,0,0,0,0,0,9,0,0,0,0,0,0,0,0,0,0,0,0,0,0,0,0,0,0,0,0,0,0,0,0],"split_type":[0,0,0,0,0,0,0,0,0,0,0,0,0,0,0,0,0,0,0,0,0,0,0,0,0,0,0,0,0,0,0,0,0,0,0,0,0,0,0,0,0,0,0,0,0,0,0,0,0,0,0,0,0,0,0,0,0,0,0,0,0,0,0,0,0,0,0],"sum_hessian":[1.8853511E3,9.5774884E2,9.2760223E2,8.220833E2,1.3566551E2,2.9473572E2,6.328665E2,4.088397E2,4.1324365E2,6.1118153E1,7.454736E1,1.5097357E2,1.4376215E2,8.486115E1,5.480054E2,1.5663942E2,2.5660422E2,1.9105871E1,4.201228E1,6.729629E1,7.2510786E0,2.8502457E1,1.22471115E2,4.3121883E1,1.0064026E2,6.886907E1,1.5992075E1,7.6894455E1,7.974497E1,2.4926105E2,7.3431716E0,6.8005533E0,1.2305318E1,3.3289845E1,3.400644E1,2.1833713E0,5.067707E0,1.7824186E1,1.0678271E1,1.912933E1,2.3992552E1,9.440283E1,6.2374277E0,1.3695254E1,2.2968209E0,1.9451555E1,5.74429E1,5.6108982E1,2.3635988E1,3.62136E1,2.1304744E2,2.1485183E0,4.652035E0,8.629177E0,3.6761405E0,2.7098518E1,6.907921E0,8.947372E0,8.876814E0,7.9872036E0,2.6910682E0,9.600435E0,9.528895E0,6.169706E1,3.2705772E1,2.7451904E0,3.4922373E0],"tree_param":{"num_deleted":"0","num_feature":"12","num_nodes":"67","size_leaf_vector":"1"}},{"base_weights":[-5.3041475E-4,-1.0192184E0,1.0571879E0,6.166005E-1,-1.2654192E0,1.4524934E0,3.5746855E-1,-8.348669E-1,1.2812141E0,-1.4376433E0,-9.763273E-1,-2.9388774E-2,1.4683629E0,9.519876E-1,-2.638627E-1,-5.592976E-2,-1.2151463E-2,1.3336923E0,-1.843203E-2,-7.530881E-2,-1.2989959E0,-3.468668E-1,-1.3595881E0,1.164837E0,7.48309E-2,1.25856E0,-1.0079074E0,-1.2246053E0,1.3195693E0,9.3750423E-1,7.412914E-2,-1.0951277E0,-6.991437E-2,1.1556719E-1,-7.3930226E-2,-1.3870435E0,-4.113702E-3,1.2443897E0,-1.31845E-2,7.008638E-2,6.622794E-1,-1.443193E0,5.9407707E-2,-7.0692055E-2,-6.8919235E-1,4.1866326E-1,7.211112E-2,1.050162E-2,6.134313E-2,-4.317539E-2,-7.467433E-2,-5.9676927E-2,1.653032E-2,-7.030547E-2,-3.894181E-2,2.9462516E-2,6.997266E-2,-2.4655348E-2,6.571348E-2,-7.69024E-2,-2.1343766E-2,-4.6386518E-2,1.0151459E-3,6.6036955E-3,4.4857174E-2],"categories":[],"categories_nodes":[],"categories_segments":[],"categories_sizes":[],"default_left":[0,0,0,0,0,0,0,0,0,0,0,0,0,0,0,0,0,0,0,0,0,0,0,0,0,0,0,0,0,0,0,0,0,0,0,0,0,0,0,0,0,0,0,0,0,0,0,0,0,0,0,0,0,0,0,0,0,0,0,0,0,0,0,0,0],"id":8,"left_children":[1,3,5,7,9,11,13,15,17,19,21,-1,23,25,27,-1,-1,29,-1,-1,31,33,35,37,-1,39,41,43,45,47,-1,49,-1,51,-1,53,-1,55,-1,-1,57,59,-1,-1,61,63,-1,-1,-1,-1,-1,-1,-1,-1,-1,-1,-1,-1,-1,-1,-1,-1,-1,-1,-1],"loss_changes":[2.0042593E3,3.823949E2,2.519035E2,1.2129371E2,3.9618042E1,1.9733398E1,1.2243526E2,6.402725E0,7.927246E0,2.9294434E0,7.4486786E1,0E0,3.218628E0,1.02961685E2,2.4885387E2,0E0,0E0,3.5325775E0,0E0,0E0,2.05896E0,6.241348E1,6.6465454E0,6.440468E0,0E0,1.1603714E1,2.412963E1,9.326462E0,6.230896E0,5.1130753E0,0E0,4.4958115E0,0E0,2.4423834E1,0E0,1.0925903E0,0E0,4.3688507E0,0E0,0E0,2.3486824E1,1.2735481E0,0E0,0E0,4.8423357E0,1.0910945E0,0E0,0E0,0E0,0E0,0E0,0E0,0E0,0E0,0E0,0E0,0E0,0E0,0E0,0E0,0E0,0E0,0E0,0E0,0E0],"parents":[2147483647,0,0,1,1,2,2,3,3,4,4,5,5,6,6,7,7,8,8,9,9,10,10,12,12,13,13,14,14,17,17,20,20,21,21,22,22,23,23,25,25,26,26,27,27,28,28,29,29,31,31,33,33,35,35,37,37,40,40,41,41,44,44,45,45],"right_children":[2,4,6,8,10,12,14,16,18,20,22,-1,24,26,28,-1,-1,30,-1,-1,32,34,36,38,-1,40,42,44,46,48,-1,50,-1,52,-1,54,-1,56,-1,-1,58,60,-1,-1,62,64,-1,-1,-1,-1,-1,-1,-1,-1,-1,-1,-1,-1,-1,-1,-1,-1,-1,-1,-1],"split_conditions":[3.9361804E0,1E0,1E0,2.3E1,3.736007E0,2.3E1,3E0,2.1E1,5E0,2E1,3E0,-2.9388774E-2,1E0,1E0,3.5E1,-5.592976E-2,-1.2151463E-2,1E0,-1.843203E-2,-7.530881E-2,3E0,1E0,3.3E1,3E0,7.48309E-2,2.4E1,3.4E1,2.8E1,4.1E1,2.5E1,7.412914E-2,1E0,-6.991437E-2,2E1,-7.3930226E-2,3E1,-4.113702E-3,2.8E1,-1.31845E-2,7.008638E-2,4.0860486E0,1E0,5.9407707E-2,-7.0692055E-2,4.1403193E0,4.237441E0,7.211112E-2,1.050162E-2,6.134313E-2,-4.317539E-2,-7.467433E-2,-5.9676927E-2,1.653032E-2,-7.030547E-2,-3.894181E-2,2.9462516E-2,6.997266E-2,-2.4655348E-2,6.571348E-2,-7.69024E-2,-2.1343766E-2,-4.6386518E-2,1.0151459E-3,6.6036955E-3,4.4857174E-2],"split_indices":[7,10,10,0,7,0,6,0,6,0,6,0,5,5,0,0,0,5,0,0,6,5,0,2,0,0,0,0,0,0,0,5,0,0,0,0,0,0,0,0,7,2,0,0,7,7,0,0,0,0,0,0,0,0,0,0,0,0,0,0,0,0,0,0,0],"split_type":[0,0,0,0,0,0,0,0,0,0,0,0,0,0,0,0,0,0,0,0,0,0,0,0,0,0,0,0,0,0,0,0,0,0,0,0,0,0,0,0,0,0,0,0,0,0,0,0,0,0,0,0,0,0,0,0,0,0,0,0,0,0,0,0,0],"sum_hessian":[1.8581273E3,9.465459E2,9.115814E2,1.236278E2,8.229181E2,5.818118E2,3.297696E2,3.874826E1,8.487954E1,5.1320654E2,3.0971155E2,4.2123265E0,5.775995E2,1.6824892E2,1.6152068E2,2.5590214E1,1.3158048E1,8.244866E1,2.4308798E0,3.3684332E2,1.7636322E2,1.17930214E2,1.9178134E2,5.27853E1,5.248142E2,1.4580026E2,2.2448652E1,1.0066755E2,6.085312E1,2.4514288E1,5.7934372E1,6.1702766E1,1.14660446E2,8.4358696E1,3.357152E1,1.8766173E2,4.1196136E0,5.0122925E1,2.6623745E0,1.16482025E2,2.9318243E1,1.9021242E1,3.4274101E0,7.316687E1,2.7500685E1,7.82088E0,5.3032238E1,7.4671307E0,1.7047157E1,4.1019978E1,2.0682789E1,1.12600355E1,7.3098656E1,1.8068575E2,6.9759793E0,1.0511628E1,3.9611298E1,1.06641245E1,1.8654118E1,1.6927967E1,2.0932748E0,2.0350943E1,7.1497416E0,5.689274E0,2.131606E0],"tree_param":{"num_deleted":"0","num_feature":"12","num_nodes":"65","size_leaf_vector":"1"}},{"base_weights":[-2.4153008E-3,-9.949591E-1,1.0147401E0,6.462972E-1,-1.2446523E0,1.4118065E0,3.2725224E-1,-7.503769E-1,1.2686741E0,-1.4054508E0,-9.746503E-1,-2.0364258E-2,1.4285063E0,9.033188E-1,-2.6264852E-1,-1.0490685E0,-1.6706063E-1,1.3218465E0,-1.881806E-2,-7.323384E-2,-6.4036384E-2,-3.7946728E-1,-1.3214095E0,9.6587706E-1,7.3017195E-2,1.2076895E0,-9.774806E-1,-1.0953597E0,7.293264E-2,-1.5656816E-2,-5.7300832E-2,6.2342496E-3,-2.9470315E-2,9.5819277E-1,7.1657814E-2,4.868631E-2,-7.2825216E-2,-1.3538668E0,1.3123803E-2,3.1901222E-1,1.0932143E0,7.00666E-2,6.684233E-1,-7.301037E-2,5.9883606E-2,-1.2137756E0,7.807455E-1,1.0875487E-2,6.0780562E-2,-6.279544E-2,1.4389666E-2,-6.902805E-2,-4.338241E-2,3.4647334E-2,-6.1550913E-3,2.4985341E-2,6.1264414E-2,-1.9590894E-2,5.577265E-2,-7.0722245E-2,-4.087628E-2,3.9263736E-3,5.9694927E-2],"categories":[],"categories_nodes":[],"categories_segments":[],"categories_sizes":[],"default_left":[0,0,0,0,0,0,0,0,0,0,0,0,0,0,0,0,0,0,0,0,0,0,0,0,0,0,0,0,0,0,0,0,0,0,0,0,0,0,0,0,0,0,0,0,0,0,0,0,0,0,0,0,0,0,0,0,0,0,0,0,0,0,0],"id":9,"left_children":[1,3,5,7,9,11,13,15,17,19,21,-1,23,25,27,29,31,33,-1,-1,-1,35,37,39,-1,41,43,45,-1,-1,-1,-1,-1,47,-1,49,-1,51,-1,53,55,-1,57,-1,-1,59,61,-1,-1,-1,-1,-1,-1,-1,-1,-1,-1,-1,-1,-1,-1,-1,-1],"loss_changes":[1.8359457E3,3.7799573E2,2.4470953E2,1.07170364E2,3.3328613E1,1.7867554E1,1.1241879E2,6.4969482E0,7.923645E0,1.8074951E0,6.1738464E1,0E0,6.897583E0,9.692038E1,2.3648817E2,1.4345951E0,1.8180038E0,1.9647064E0,0E0,0E0,0E0,5.1912437E1,1.0130737E1,2.8860855E0,0E0,1.4141724E1,2.6789158E1,2.5611176E1,0E0,0E0,0E0,0E0,0E0,3.9956074E0,0E0,2.575641E1,0E0,1.2227478E0,0E0,1.3866057E0,1.9275055E0,0E0,1.9425175E1,0E0,0E0,7.178177E0,1.9950423E0,0E0,0E0,0E0,0E0,0E0,0E0,0E0,0E0,0E0,0E0,0E0,0E0,0E0,0E0,0E0,0E0],"parents":[2147483647,0,0,1,1,2,2,3,3,4,4,5,5,6,6,7,7,8,8,9,9,10,10,12,12,13,13,14,14,15,15,16,16,17,17,21,21,22,22,23,23,25,25,26,26,27,27,33,33,35,35,37,37,39,39,40,40,42,42,45,45,46,46],"right_children":[2,4,6,8,10,12,14,16,18,20,22,-1,24,26,28,30,32,34,-1,-1,-1,36,38,40,-1,42,44,46,-1,-1,-1,-1,-1,48,-1,50,-1,52,-1,54,56,-1,58,-1,-1,60,62,-1,-1,-1,-1,-1,-1,-1,-1,-1,-1,-1,-1,-1,-1,-1,-1],"split_conditions":[3.9361804E0,1E0,1E0,2.3E1,3.736007E0,2.3E1,3E0,2.1E1,5E0,2E1,3E0,-2.0364258E-2,2E0,1E0,2E0,1.6E1,3.7600174E0,2E0,-1.881806E-2,-7.323384E-2,-6.4036384E-2,1E0,3.3E1,3.988555E0,7.3017195E-2,2.3E1,3.4E1,4.2634654E0,7.293264E-2,-1.5656816E-2,-5.7300832E-2,6.2342496E-3,-2.9470315E-2,2.5E1,7.1657814E-2,2E1,-7.2825216E-2,2.9E1,1.3123803E-2,3.958229E0,3E0,7.00666E-2,4.00675E0,-7.301037E-2,5.9883606E-2,2.7E1,1E0,1.0875487E-2,6.0780562E-2,-6.279544E-2,1.4389666E-2,-6.902805E-2,-4.338241E-2,3.4647334E-2,-6.1550913E-3,2.4985341E-2,6.1264414E-2,-1.9590894E-2,5.577265E-2,-7.0722245E-2,-4.087628E-2,3.9263736E-3,5.9694927E-2],"split_indices":[7,10,10,0,7,0,6,0,6,0,6,0,1,5,1,0,7,1,0,0,0,5,0,7,0,0,0,7,0,0,0,0,0,0,0,0,0,0,0,7,6,0,7,0,0,0,9,0,0,0,0,0,0,0,0,0,0,0,0,0,0,0,0],"split_type":[0,0,0,0,0,0,0,0,0,0,0,0,0,0,0,0,0,0,0,0,0,0,0,0,0,0,0,0,0,0,0,0,0,0,0,0,0,0,0,0,0,0,0,0,0,0,0,0,0,0,0,0,0,0,0,0,0,0,0,0,0,0,0],"sum_hessian":[1.8165398E3,9.19404E2,8.9713574E2,1.2119433E2,7.9820966E2,5.680174E2,3.2911838E2,3.7295025E1,8.38993E1,4.9763815E2,3.0057153E2,4.954356E0,5.6306305E2,1.6624287E2,1.628755E2,2.413702E1,1.3158003E1,8.1462654E1,2.4366474E0,3.3012955E2,1.675086E2,1.1142103E2,1.891505E2,3.8272045E1,5.2479095E2,1.4339507E2,2.2847809E1,1.10016594E2,5.285891E1,3.3019438E0,2.0835077E1,8.199073E0,4.9589305E0,2.1342892E1,6.0119762E1,8.041036E1,3.1010664E1,1.8549454E2,3.655963E0,6.871338E0,3.140071E1,1.04332306E2,3.9062767E1,1.8967157E1,3.880652E0,1.0381692E2,6.1996803E0,5.980335E0,1.5362556E1,1.1796239E1,6.861412E1,1.7409692E2,1.1397611E1,3.4153392E0,3.4559984E0,6.586439E0,2.481427E1,1.162195E1,2.7440815E1,6.721054E1,3.660638E1,2.737293E0,3.4623873E0],"tree_param":{"num_deleted":"0","num_feature":"12","num_nodes":"63","size_leaf_vector":"1"}},{"base_weights":[-1.1992235E-3,-9.601934E-1,9.993684E-1,5.9030503E-1,-1.1985316E0,1.3856725E0,3.215774E-1,-7.9087245E-1,1.2100792E0,-7.1605556E-2,-9.963075E-1,-1.629529E-2,1.4010217E0,-5.686945E-2,1.1714406E0,-1.0295727E0,-2.7556732E-1,8.010493E-1,6.981063E-2,-1.2924734E0,-6.598282E-1,1.1339293E0,7.135469E-2,1.3112144E0,-4.3577075E-1,8.3564216E-1,7.14448E-2,-1.8882455E-2,-5.58439E-2,-1.3180437E-3,-3.168041E-2,7.0228213E-3,5.1957555E-2,-1.3219327E0,-1.4421389E-1,-8.936876E-1,-1.9853905E-1,6.663002E-1,6.1906166E-2,7.071141E-2,-2.670537E-2,-1.0240784E0,-7.5211516E-3,6.780139E-2,2.2332583E-1,-5.369556E-2,-6.940339E-2,1.6945692E-2,-4.025639E-2,-5.9337E-2,-3.8419332E-2,6.31484E-2,-4.3843303E-2,8.047871E-3,4.371194E-2,-5.6152888E-2,3.196555E-2,2.9066538E-2,-2.5393834E-2,-2.7683858E-2,4.8128095E-2],"categories":[],"categories_nodes":[],"categories_segments":[],"categories_sizes":[],"default_left":[0,0,0,0,0,0,0,0,0,0,0,0,0,0,0,0,0,0,0,0,0,0,0,0,0,0,0,0,0,0,0,0,0,0,0,0,0,0,0,0,0,0,0,0,0,0,0,0,0,0,0,0,0,0,0,0,0,0,0,0,0],"id":10,"left_children":[1,3,5,7,9,11,13,15,17,-1,19,-1,21,23,25,27,29,31,-1,33,35,37,-1,39,41,43,-1,-1,-1,-1,-1,-1,-1,45,47,49,51,53,-1,-1,-1,55,57,-1,59,-1,-1,-1,-1,-1,-1,-1,-1,-1,-1,-1,-1,-1,-1,-1,-1],"loss_changes":[1.6937351E3,3.3377722E2,2.2574023E2,1.0432654E2,3.548987E1,1.4904419E1,1.0135106E2,4.3913727E0,5.257675E0,0E0,4.1218445E1,0E0,2.1785889E0,1.1401118E2,7.19812E0,1.0358334E0,1.178733E0,4.342697E0,0E0,7.369446E0,2.136335E1,1.7748566E0,0E0,9.825348E0,4.335831E1,1.3887821E1,0E0,0E0,0E0,0E0,0E0,0E0,0E0,2.081604E0,2.4163368E0,3.9431534E0,6.897834E1,1.1084552E0,0E0,0E0,0E0,1.2655304E1,2.9941881E1,0E0,1.2972718E1,0E0,0E0,0E0,0E0,0E0,0E0,0E0,0E0,0E0,0E0,0E0,0E0,0E0,0E0,0E0,0E0],"parents":[2147483647,0,0,1,1,2,2,3,3,4,4,5,5,6,6,7,7,8,8,10,10,12,12,13,13,14,14,15,15,16,16,17,17,19,19,20,20,21,21,23,23,24,24,25,25,33,33,34,34,35,35,36,36,37,37,41,41,42,42,44,44],"right_children":[2,4,6,8,10,12,14,16,18,-1,20,-1,22,24,26,28,30,32,-1,34,36,38,-1,40,42,44,-1,-1,-1,-1,-1,-1,-1,46,48,50,52,54,-1,-1,-1,56,58,-1,60,-1,-1,-1,-1,-1,-1,-1,-1,-1,-1,-1,-1,-1,-1,-1,-1],"split_conditions":[3.9361804E0,1E0,1E0,2.3E1,2E1,2.3E1,4.1403193E0,2.1E1,1E0,-7.1605556E-2,2E0,-1.629529E-2,1E0,3.9395723E0,4.2833815E0,1.6E1,3.7600174E0,2.5E1,6.981063E-2,3.2E1,3.8442328E0,2.8E1,7.135469E-2,2.4E1,4.0153193E0,4.155639E0,7.14448E-2,-1.8882455E-2,-5.58439E-2,-1.3180437E-3,-3.168041E-2,7.0228213E-3,5.1957555E-2,1E0,3.8936608E0,3.6464393E0,3.8492239E0,3.988555E0,6.1906166E-2,7.071141E-2,-2.670537E-2,3.4E1,2.3E1,6.780139E-2,3.4E1,-5.369556E-2,-6.940339E-2,1.6945692E-2,-4.025639E-2,-5.9337E-2,-3.8419332E-2,6.31484E-2,-4.3843303E-2,8.047871E-3,4.371194E-2,-5.6152888E-2,3.196555E-2,2.9066538E-2,-2.5393834E-2,-2.7683858E-2,4.8128095E-2],"split_indices":[7,10,10,0,0,0,7,0,5,0,11,0,5,7,7,0,7,0,0,0,7,0,0,0,7,7,0,0,0,0,0,0,0,9,7,7,7,7,0,0,0,0,0,0,0,0,0,0,0,0,0,0,0,0,0,0,0,0,0,0,0],"split_type":[0,0,0,0,0,0,0,0,0,0,0,0,0,0,0,0,0,0,0,0,0,0,0,0,0,0,0,0,0,0,0,0,0,0,0,0,0,0,0,0,0,0,0,0,0,0,0,0,0,0,0,0,0,0,0,0,0,0,0,0,0],"sum_hessian":[1.7631559E3,9.003018E2,8.62854E2,1.1975623E2,7.805456E2,5.489423E2,3.139117E2,3.700775E1,8.274848E1,3.5937103E2,4.2117456E2,4.6992764E0,5.4424304E2,2.1783995E2,9.6071754E1,2.4609922E1,1.2397827E1,2.7537722E1,5.5210762E1,2.224952E2,1.9867937E2,5.2357857E1,4.918852E2,4.6713345E1,1.711266E2,4.3534973E1,5.2536785E1,3.5354822E0,2.1074442E1,7.9429417E0,4.4548855E0,7.7171254E0,1.9820595E1,2.1678229E2,5.7128997E0,1.3121832E2,6.746104E1,1.0887761E1,4.1470097E1,4.446475E1,2.2485983E0,7.1505135E1,9.962146E1,2.2877562E1,2.065741E1,4.9265167E1,1.6751712E2,3.5818057E0,2.1310942E0,3.6763992E1,9.445434E1,2.111192E1,4.634912E1,3.6912258E0,7.196535E0,6.7795815E1,3.7093232E0,4.5689342E1,5.3932117E1,1.0193815E1,1.0463594E1],"tree_param":{"num_deleted":"0","num_feature":"12","num_nodes":"61","size_leaf_vector":"1"}},{"base_weights":[-1.7064887E-3,-9.347466E-1,9.738255E-1,-1.1040639E0,8.199053E-2,4.3969008E-1,1.3657085E0,-6.892099E-2,-8.3502626E-1,1.0888191E0,-7.93608E-1,8.51779E-1,-3.3155984E-1,1.1671377E0,7.003022E-2,-9.535297E-1,-9.3900256E-2,6.8779707E-1,6.496855E-2,-9.884916E-1,8.6695534E-1,5.3023994E-1,6.523126E-2,-1.2049781E0,3.6073345E-1,8.498099E-1,6.9416225E-2,-4.4705236E-1,-1.0541213E0,5.233646E-1,-6.616661E-2,3.3100817E-1,4.926838E-2,-1.0383974E0,8.166128E-3,1.6277147E-3,5.923084E-2,-1.9071462E-2,1.1351078E0,-6.2434226E-2,-1.2204095E-3,1.0044072E0,-6.3320094E-1,1.0253078E0,-4.0482793E-2,-4.6545856E-2,6.5722647E-3,-6.35121E-2,-3.7657637E-2,6.0371798E-2,-4.956147E-2,-2.0541763E-2,2.759744E-2,-6.1539907E-2,-4.059119E-2,1.4183625E-2,-4.548359E-2,6.682098E-2,-6.584746E-2,6.11574E-2,-6.1309386E-2,-4.8497345E-2,4.6931457E-2,-2.0845472E-3,5.5438966E-2],"categories":[],"categories_nodes":[],"categories_segments":[],"categories_sizes":[],"default_left":[0,0,0,0,0,0,0,0,0,0,0,0,0,0,0,0,0,0,0,0,0,0,0,0,0,0,0,0,0,0,0,0,0,0,0,0,0,0,0,0,0,0,0,0,0,0,0,0,0,0,0,0,0,0,0,0,0,0,0,0,0,0,0,0,0],"id":11,"left_children":[1,3,5,7,9,11,13,-1,15,17,19,21,23,25,-1,27,29,31,-1,33,35,37,-1,39,41,43,-1,45,47,49,-1,51,-1,53,-1,-1,-1,55,57,-1,-1,59,61,63,-1,-1,-1,-1,-1,-1,-1,-1,-1,-1,-1,-1,-1,-1,-1,-1,-1,-1,-1,-1,-1],"loss_changes":[1.5850299E3,1.5331854E2,1.775946E2,5.5173706E1,1.1370211E2,1.152525E2,1.7645264E0,0E0,3.397043E1,4.168892E0,2.3198708E1,3.367871E1,7.7041504E1,4.3877945E0,0E0,1.6557465E1,4.210549E1,2.090989E0,0E0,3.7480774E0,2.0246396E0,4.644559E1,0E0,2.8718948E0,4.6344048E1,1.1069595E1,0E0,1.6111185E1,1.713385E1,3.9580734E1,0E0,2.1705048E0,0E0,1.6078491E0,0E0,0E0,0E0,2.0266003E1,3.4593407E1,0E0,0E0,2.284613E1,1.6098972E1,2.9174347E0,0E0,0E0,0E0,0E0,0E0,0E0,0E0,0E0,0E0,0E0,0E0,0E0,0E0,0E0,0E0,0E0,0E0,0E0,0E0,0E0,0E0],"parents":[2147483647,0,0,1,1,2,2,3,3,4,4,5,5,6,6,8,8,9,9,10,10,11,11,12,12,13,13,15,15,16,16,17,17,19,19,20,20,21,21,23,23,24,24,25,25,27,27,28,28,29,29,31,31,33,33,37,37,38,38,41,41,42,42,43,43],"right_children":[2,4,6,8,10,12,14,-1,16,18,20,22,24,26,-1,28,30,32,-1,34,36,38,-1,40,42,44,-1,46,48,50,-1,52,-1,54,-1,-1,-1,56,58,-1,-1,60,62,64,-1,-1,-1,-1,-1,-1,-1,-1,-1,-1,-1,-1,-1,-1,-1,-1,-1,-1,-1,-1,-1],"split_conditions":[3.9361804E0,2.6E1,3.4E1,2E1,1E0,1E0,1E0,-6.892099E-2,4E0,1E0,3.6E1,1E0,2E0,4.5E1,7.003022E-2,1E0,5E0,2.8E1,6.496855E-2,2E0,1E0,4E0,6.523126E-2,4.189238E0,2.3E1,3E0,6.9416225E-2,2.3E1,2E0,1E0,-6.616661E-2,3.75E0,4.926838E-2,2E0,8.166128E-3,1.6277147E-3,5.923084E-2,2E0,5E0,-6.2434226E-2,-1.2204095E-3,3E0,4.1403193E0,3.9952378E0,-4.0482793E-2,-4.6545856E-2,6.5722647E-3,-6.35121E-2,-3.7657637E-2,6.0371798E-2,-4.956147E-2,-2.0541763E-2,2.759744E-2,-6.1539907E-2,-4.059119E-2,1.4183625E-2,-4.548359E-2,6.682098E-2,-6.584746E-2,6.11574E-2,-6.1309386E-2,-4.8497345E-2,4.6931457E-2,-2.0845472E-3,5.5438966E-2],"split_indices":[7,0,0,0,8,9,5,0,11,5,0,5,11,0,0,8,11,0,0,4,5,11,0,7,0,2,0,0,11,9,0,7,0,11,0,0,0,11,11,0,0,11,7,7,0,0,0,0,0,0,0,0,0,0,0,0,0,0,0,0,0,0,0,0,0],"split_type":[0,0,0,0,0,0,0,0,0,0,0,0,0,0,0,0,0,0,0,0,0,0,0,0,0,0,0,0,0,0,0,0,0,0,0,0,0,0,0,0,0,0,0,0,0,0,0,0,0,0,0,0,0,0,0,0,0,0,0,0,0,0,0,0,0],"sum_hessian":[1.7393883E3,8.8907806E2,8.503102E2,7.620826E2,1.2699554E2,3.6074194E2,4.895682E2,3.7527045E2,3.868121E2,5.8957867E1,6.803767E1,2.3504822E2,1.2569373E2,7.832346E1,4.1124475E2,3.332414E2,5.3570717E1,2.1766844E1,3.719102E1,6.125367E1,6.7839994E0,1.3872139E2,9.632683E1,5.5249157E1,7.044458E1,3.4158985E1,4.4164482E1,5.6120354E1,2.7712103E2,3.6046856E1,1.7523859E1,1.0859094E1,1.090775E1,5.8804264E1,2.4494057E0,2.1745613E0,4.609438E0,7.320692E1,6.5514465E1,5.3221138E1,2.0280209E0,4.274943E1,2.7695147E1,3.123758E1,2.921405E0,3.0227983E1,2.589237E1,1.5942209E2,1.1769896E2,2.497129E1,1.1075565E1,2.2947204E0,8.564373E0,2.9403406E1,2.9400858E1,5.5143375E1,1.8063541E1,6.096433E1,4.55014E0,3.9342957E1,3.4064755E0,2.3124018E1,4.571128E0,2.302737E0,2.8934841E1],"tree_param":{"num_deleted":"0","num_feature":"12","num_nodes":"65","size_leaf_vector":"1"}},{"base_weights":[-2.7442148E-3,-6.518923E-1,1.2100921E0,-1.2844944E0,-1.925131E-1,2.1027577E-1,1.3438383E0,-6.740149E-2,-1.0215744E0,4.1513953E-1,-7.222958E-1,-3.6452985E-1,6.7840874E-1,1.1082077E0,6.8921976E-2,-5.125764E-1,-1.2717316E0,-6.2771386E-1,9.206045E-1,-1.0243641E0,6.822779E-2,2.9695202E-2,-7.501783E-1,8.452824E-1,-5.2838117E-2,8.1552655E-2,6.777241E-2,-5.153032E-2,1.6226524E-1,-6.953607E-2,-6.7868227E-1,1.1584426E-1,-8.667931E-1,1.1013488E0,-2.9227695E-1,-6.924643E-2,-1.2571323E0,-4.5632524E-3,-8.996499E-1,5.755428E-1,6.296668E-2,5.5343445E-2,-4.000745E-2,2.7376665E-2,-5.5276424E-2,1.8321414E-2,-6.317274E-2,-2.2818962E-2,1.7360007E-2,-2.9171202E-2,-6.430799E-2,6.304911E-2,2.8126026E-2,7.715071E-3,-4.648408E-2,-1.9507017E-2,4.882815E-2,-6.602259E-2,-4.5485463E-2,-5.134061E-2,-9.423565E-3,5.016135E-2,1.3984399E-2],"categories":[],"categories_nodes":[],"categories_segments":[],"categories_sizes":[],"default_left":[0,0,0,0,0,0,0,0,0,0,0,0,0,0,0,0,0,0,0,0,0,0,0,0,0,0,0,0,0,0,0,0,0,0,0,0,0,0,0,0,0,0,0,0,0,0,0,0,0,0,0,0,0,0,0,0,0,0,0,0,0,0,0],"id":12,"left_children":[1,3,5,7,9,11,13,-1,15,17,19,21,23,25,-1,27,29,31,33,35,-1,-1,37,39,-1,41,-1,-1,43,-1,45,47,49,51,53,55,57,-1,59,61,-1,-1,-1,-1,-1,-1,-1,-1,-1,-1,-1,-1,-1,-1,-1,-1,-1,-1,-1,-1,-1,-1,-1],"loss_changes":[1.3338163E3,3.204365E2,7.869794E1,6.374817E0,2.0647772E2,1.9318182E1,2.7182617E0,0E0,1.1373657E1,1.581567E2,2.1731007E2,1.2444265E1,1.2304733E1,1.8109535E1,0E0,1.1632489E1,3.476982E0,1.7554977E1,4.4550446E1,6.655972E1,0E0,0E0,2.2412567E0,3.3526802E0,0E0,1.4441782E1,0E0,0E0,7.983957E0,0E0,8.054862E0,3.4378552E0,8.092812E0,1.4411819E1,7.8166027E0,2.0449564E1,4.099945E0,0E0,1.5351753E0,2.749659E0,0E0,0E0,0E0,0E0,0E0,0E0,0E0,0E0,0E0,0E0,0E0,0E0,0E0,0E0,0E0,0E0,0E0,0E0,0E0,0E0,0E0,0E0,0E0],"parents":[2147483647,0,0,1,1,2,2,3,3,4,4,5,5,6,6,8,8,9,9,10,10,11,11,12,12,13,13,15,15,16,16,17,17,18,18,19,19,22,22,23,23,25,25,28,28,30,30,31,31,32,32,33,33,34,34,35,35,36,36,38,38,39,39],"right_children":[2,4,6,8,10,12,14,-1,16,18,20,22,24,26,-1,28,30,32,34,36,-1,-1,38,40,-1,42,-1,-1,44,-1,46,48,50,52,54,56,58,-1,60,62,-1,-1,-1,-1,-1,-1,-1,-1,-1,-1,-1,-1,-1,-1,-1,-1,-1,-1,-1,-1,-1,-1,-1],"split_conditions":[3E1,2.1E1,2E0,2E1,3E0,3.4E1,3E0,-6.740149E-2,3E0,2E0,2E0,1E0,4E0,3.4E1,6.8921976E-2,2E0,3E0,1E0,2.4E1,1E0,6.822779E-2,2.9695202E-2,3E0,4.2E1,-5.2838117E-2,1E0,6.777241E-2,-5.153032E-2,2E0,-6.953607E-2,4E0,2.3E1,1E0,2E0,2E0,2.7E1,2.7E1,-4.5632524E-3,4E0,1E0,6.296668E-2,5.5343445E-2,-4.000745E-2,2.7376665E-2,-5.5276424E-2,1.8321414E-2,-6.317274E-2,-2.2818962E-2,1.7360007E-2,-2.9171202E-2,-6.430799E-2,6.304911E-2,2.8126026E-2,7.715071E-3,-4.648408E-2,-1.9507017E-2,4.882815E-2,-6.602259E-2,-4.5485463E-2,-5.134061E-2,-9.423565E-3,5.016135E-2,1.3984399E-2],"split_indices":[0,0,1,0,6,0,6,0,6,11,1,8,2,0,0,11,11,8,0,8,0,0,6,0,0,8,0,0,1,0,11,0,5,1,1,0,0,0,11,8,0,0,0,0,0,0,0,0,0,0,0,0,0,0,0,0,0,0,0,0,0,0,0],"split_type":[0,0,0,0,0,0,0,0,0,0,0,0,0,0,0,0,0,0,0,0,0,0,0,0,0,0,0,0,0,0,0,0,0,0,0,0,0,0,0,0,0,0,0,0,0,0,0,0,0,0,0,0,0,0,0,0,0,0,0,0,0,0,0],"sum_hessian":[1.6921409E3,1.102507E3,5.8963385E2,4.630516E2,6.394553E2,6.987295E1,5.197609E2,3.696075E2,9.34441E1,2.979396E2,3.4151575E2,3.146248E1,3.841047E1,7.078045E1,4.4898047E2,3.179647E1,6.1647633E1,9.71866E1,2.00753E2,2.9877734E2,4.2738388E1,8.872374E0,2.2590107E1,3.550843E1,2.9020371E0,1.3995329E1,5.678512E1,1.7689932E1,1.4106537E1,5.0225357E1,1.1422273E1,2.3771267E1,7.341533E1,1.7479668E2,2.5956335E1,5.880016E1,2.3997719E2,4.474746E0,1.811536E1,2.29484E1,1.2560031E1,6.3526077E0,7.6427207E0,1.1254534E1,2.8520033E0,4.232068E0,7.190205E0,6.5638804E0,1.7207386E1,4.523853E1,2.8176802E1,1.3381299E2,4.0983696E1,1.5708541E1,1.0247794E1,4.5473972E1,1.3326186E1,2.0061372E2,3.9363476E1,1.4991066E1,3.1242948E0,8.405937E0,1.4542462E1],"tree_param":{"num_deleted":"0","num_feature":"12","num_nodes":"63","size_leaf_vector":"1"}},{"base_weights":[-6.6892626E-3,1.1674662E0,-7.05341E-1,-5.578234E-1,1.2910817E0,-1.1175963E0,2.923217E-1,-4.229359E-2,-1.1588275E-1,1.3033928E0,-2.3216008E-1,-1.2844478E0,-8.444141E-1,8.270902E-1,-2.6478997E-1,2.0768085E-1,-2.0585706E-2,1.1176738E0,6.638129E-2,-5.782125E-2,3.6767397E-2,-6.734492E-2,-1.15796E0,-2.8681338E-1,-1.198768E0,-2.1670353E-1,1.1574945E0,-1.0829289E0,1.137163E0,3.2346394E-2,-2.6392466E-3,6.632492E-2,8.321686E-1,-9.2061156E-1,-6.408606E-2,-1.0136178E0,3.2000834E-1,-1.2218254E0,1.841927E-3,-5.0947267E-1,6.8229355E-2,6.6358015E-2,4.2858097E-1,-6.4114235E-2,-5.4642284E-1,2.510457E-1,6.6267334E-2,2.193244E-2,5.254975E-2,-6.4072005E-2,-1.6636882E-2,-6.1096614E-3,-5.327661E-2,3.4425046E-2,-2.9709617E-2,-6.404941E-2,-4.783344E-2,3.8193837E-2,-5.90118E-2,-2.621445E-2,6.474537E-2,-4.482533E-2,-8.18486E-3,-7.402803E-4,4.201665E-2],"categories":[],"categories_nodes":[],"categories_segments":[],"categories_sizes":[],"default_left":[0,0,0,0,0,0,0,0,0,0,0,0,0,0,0,0,0,0,0,0,0,0,0,0,0,0,0,0,0,0,0,0,0,0,0,0,0,0,0,0,0,0,0,0,0,0,0,0,0,0,0,0,0,0,0,0,0,0,0,0,0,0,0,0,0],"id":13,"left_children":[1,3,5,7,9,11,13,-1,15,17,19,21,23,25,27,29,-1,31,-1,-1,-1,-1,33,35,37,39,41,43,45,-1,-1,-1,47,49,-1,51,53,55,-1,57,-1,-1,59,-1,61,63,-1,-1,-1,-1,-1,-1,-1,-1,-1,-1,-1,-1,-1,-1,-1,-1,-1,-1,-1],"loss_changes":[1.3628224E3,1.328977E2,4.2871045E2,5.2657194E0,1.1153259E1,3.251831E1,9.118779E1,0E0,1.7878648E0,1.1000977E0,5.757792E0,2.0405273E0,5.546608E1,5.4063873E1,1.7362859E2,1.0820106E0,0E0,3.2240448E0,0E0,0E0,0E0,0E0,3.4545593E0,4.9309464E1,4.9563293E0,1.8453594E1,1.4108292E1,9.505737E0,8.98494E0,0E0,0E0,0E0,2.4107285E0,1.1796528E1,0E0,2.2196655E0,2.1056171E1,1.4298096E0,0E0,2.9168144E1,0E0,0E0,2.0396048E1,0E0,3.5505905E0,1.7391142E0,0E0,0E0,0E0,0E0,0E0,0E0,0E0,0E0,0E0,0E0,0E0,0E0,0E0,0E0,0E0,0E0,0E0,0E0,0E0],"parents":[2147483647,0,0,1,1,2,2,3,3,4,4,5,5,6,6,8,8,9,9,10,10,11,11,12,12,13,13,14,14,15,15,17,17,22,22,23,23,24,24,25,25,26,26,27,27,28,28,32,32,33,33,35,35,36,36,37,37,39,39,42,42,44,44,45,45],"right_children":[2,4,6,8,10,12,14,-1,16,18,20,22,24,26,28,30,-1,32,-1,-1,-1,-1,34,36,38,40,42,44,46,-1,-1,-1,48,50,-1,52,54,56,-1,58,-1,-1,60,-1,62,64,-1,-1,-1,-1,-1,-1,-1,-1,-1,-1,-1,-1,-1,-1,-1,-1,-1,-1,-1],"split_conditions":[1E0,2.3E1,3.9361804E0,2.1E1,5E0,3.736007E0,3E0,-4.229359E-2,3.7600174E0,2.7E1,3.2E1,2E1,3E0,2E0,3.5E1,3E0,-2.0585706E-2,3E0,6.638129E-2,-5.782125E-2,3.6767397E-2,-6.734492E-2,3E0,2E0,3.3E1,3.6E1,2.3E1,2.8E1,4.4E1,3.2346394E-2,-2.6392466E-3,6.632492E-2,2.5E1,2E0,-6.408606E-2,3.7483287E0,2.3E1,3E0,1.841927E-3,1E0,6.8229355E-2,6.6358015E-2,4.134336E0,-6.4114235E-2,2E0,4.2634654E0,6.6267334E-2,2.193244E-2,5.254975E-2,-6.4072005E-2,-1.6636882E-2,-6.1096614E-3,-5.327661E-2,3.4425046E-2,-2.9709617E-2,-6.404941E-2,-4.783344E-2,3.8193837E-2,-5.90118E-2,-2.621445E-2,6.474537E-2,-4.482533E-2,-8.18486E-3,-7.402803E-4,4.201665E-2],"split_indices":[10,0,7,0,6,7,6,0,7,0,0,0,6,11,0,6,0,6,0,0,0,0,6,11,0,0,0,0,0,0,0,0,0,11,0,7,0,11,0,9,0,0,7,0,11,7,0,0,0,0,0,0,0,0,0,0,0,0,0,0,0,0,0,0,0],"split_type":[0,0,0,0,0,0,0,0,0,0,0,0,0,0,0,0,0,0,0,0,0,0,0,0,0,0,0,0,0,0,0,0,0,0,0,0,0,0,0,0,0,0,0,0,0,0,0,0,0,0,0,0,0,0,0,0,0,0,0,0,0,0,0,0,0],"sum_hessian":[1.6593151E3,6.1875806E2,1.040557E3,4.1134563E1,5.776235E2,7.3621655E2,3.0434045E2,2.4349827E1,1.6784737E1,5.731357E2,4.487847E0,4.5476062E2,2.8145596E2,1.5503683E2,1.4930363E2,8.158934E0,8.625803E0,7.1591034E1,5.0154462E2,2.195354E0,2.292493E0,2.979873E2,1.567733E2,1.10067085E2,1.7138887E2,3.7358906E1,1.17677925E2,9.442658E1,5.487705E1,2.4848208E0,5.6741123E0,3.924226E1,3.2348774E1,5.662215E1,1.00151146E2,4.9777298E1,6.0289787E1,1.6826016E2,3.1287107E0,3.209455E1,5.264355E0,9.479273E1,2.2885195E1,6.7831566E1,2.6595015E1,1.0021585E1,4.485546E1,1.2633773E1,1.9715002E1,3.435547E1,2.2266684E1,2.9239438E0,4.6853355E1,4.314567E1,1.7144115E1,1.3443372E2,3.3826435E1,1.1025459E1,2.1069092E1,1.1086261E1,1.1798933E1,1.3188712E1,1.3406302E1,7.577806E0,2.4437795E0],"tree_param":{"num_deleted":"0","num_feature":"12","num_nodes":"65","size_leaf_vector":"1"}},{"base_weights":[-2.2390622E-3,1.152615E0,-6.961411E-1,-6.255083E-1,1.2733395E0,-1.085588E0,2.5894845E-1,-4.1721042E-2,-2.635037E-1,8.9949685E-1,6.635555E-2,-1.2517972E0,-8.231435E-1,7.9398847E-1,-3.2022855E-1,1.783683E-2,-2.5067288E-2,9.7449386E-1,-4.1733924E-2,-6.591488E-2,-1.1187943E0,-2.8081954E-1,-1.1697304E0,1.0691894E0,-9.283239E-1,-1.1122509E0,1.111516E0,1.0468553E0,-4.7012538E-2,-6.2680386E-2,-9.137569E-1,-9.899758E-1,3.0917594E-1,-1.195517E0,-4.8757507E-3,5.7159275E-2,1.2794262E0,-1.2588899E0,5.6368053E-2,-6.4794E-2,-8.2620955E-1,3.3256242E-1,6.413891E-2,2.7584976E-2,6.62128E-2,-1.9911436E-2,-5.8048524E-2,2.6614987E-3,-5.2253257E-2,3.697972E-2,-6.386322E-2,-6.346106E-2,-4.40026E-2,3.0819712E-2,-4.1752327E-2,6.559458E-2,-1.8897884E-3,-6.7454286E-2,-1.8687407E-2,-5.030476E-2,-1.0416666E-2,3.7641512E-4,3.816256E-2],"categories":[],"categories_nodes":[],"categories_segments":[],"categories_sizes":[],"default_left":[0,0,0,0,0,0,0,0,0,0,0,0,0,0,0,0,0,0,0,0,0,0,0,0,0,0,0,0,0,0,0,0,0,0,0,0,0,0,0,0,0,0,0,0,0,0,0,0,0,0,0,0,0,0,0,0,0,0,0,0,0,0,0],"id":14,"left_children":[1,3,5,7,9,11,13,-1,15,17,-1,19,21,23,25,-1,-1,27,-1,-1,29,31,33,35,37,39,41,43,-1,-1,45,47,49,51,-1,53,55,57,-1,-1,59,61,-1,-1,-1,-1,-1,-1,-1,-1,-1,-1,-1,-1,-1,-1,-1,-1,-1,-1,-1,-1,-1],"loss_changes":[1.2910443E3,1.3060175E2,3.7461127E2,2.7383356E0,1.0195679E1,3.0161621E1,9.0835236E1,0E0,2.505951E0,1.0483105E1,0E0,2.3804321E0,5.2336365E1,7.314707E1,1.6121353E2,0E0,0E0,1.0922569E1,0E0,0E0,3.0533447E0,4.6564888E1,4.6010437E0,2.7952835E1,1.6034977E1,3.7264862E0,6.343239E0,8.828018E0,0E0,0E0,7.687248E0,2.9548645E0,4.2674797E1,2.7550354E0,0E0,1.2341749E1,4.711624E0,1.0127659E0,0E0,0E0,4.0658836E0,1.4636111E0,0E0,0E0,0E0,0E0,0E0,0E0,0E0,0E0,0E0,0E0,0E0,0E0,0E0,0E0,0E0,0E0,0E0,0E0,0E0,0E0,0E0],"parents":[2147483647,0,0,1,1,2,2,3,3,4,4,5,5,6,6,8,8,9,9,11,11,12,12,13,13,14,14,17,17,20,20,21,21,22,22,23,23,24,24,25,25,26,26,27,27,30,30,31,31,32,32,33,33,35,35,36,36,37,37,40,40,41,41],"right_children":[2,4,6,8,10,12,14,-1,16,18,-1,20,22,24,26,-1,-1,28,-1,-1,30,32,34,36,38,40,42,44,-1,-1,46,48,50,52,-1,54,56,58,-1,-1,60,62,-1,-1,-1,-1,-1,-1,-1,-1,-1,-1,-1,-1,-1,-1,-1,-1,-1,-1,-1,-1,-1],"split_conditions":[1E0,2.3E1,3.9361804E0,2.1E1,1E0,3.736007E0,3E0,-4.1721042E-2,3.6682959E0,5E0,6.635555E-2,2E1,3E0,1E0,3.5E1,1.783683E-2,-2.5067288E-2,4E0,-4.1733924E-2,-6.591488E-2,2E0,2E0,3.3E1,2E0,3.6E1,2.6E1,4.5E1,2.8E1,-4.7012538E-2,-6.2680386E-2,3E0,3.7483287E0,1E0,3E0,-4.8757507E-3,1E0,7E0,1E0,5.6368053E-2,-6.4794E-2,4.114718E0,4.237441E0,6.413891E-2,2.7584976E-2,6.62128E-2,-1.9911436E-2,-5.8048524E-2,2.6614987E-3,-5.2253257E-2,3.697972E-2,-6.386322E-2,-6.346106E-2,-4.40026E-2,3.0819712E-2,-4.1752327E-2,6.559458E-2,-1.8897884E-3,-6.7454286E-2,-1.8687407E-2,-5.030476E-2,-1.0416666E-2,3.7641512E-4,3.816256E-2],"split_indices":[10,0,7,0,5,7,6,0,7,6,0,0,6,5,0,0,0,2,0,0,11,11,0,11,0,0,0,0,0,0,6,7,5,11,0,2,11,2,0,0,7,7,0,0,0,0,0,0,0,0,0,0,0,0,0,0,0,0,0,0,0,0,0],"split_type":[0,0,0,0,0,0,0,0,0,0,0,0,0,0,0,0,0,0,0,0,0,0,0,0,0,0,0,0,0,0,0,0,0,0,0,0,0,0,0,0,0,0,0,0,0,0,0,0,0,0,0,0,0,0,0,0,0,0,0,0,0,0,0],"sum_hessian":[1.6090743E3,6.036931E2,1.0053812E3,3.811564E1,5.6557745E2,7.140741E2,2.9130713E2,2.3340729E1,1.4774912E1,7.3349266E1,4.9222818E2,4.3488583E2,2.7918826E2,1.5123048E2,1.4007664E2,3.9567308E0,1.0818181E1,7.072857E1,2.620699E0,2.839843E2,1.509015E2,1.09561485E2,1.6962677E2,1.3072215E2,2.0508322E1,9.033027E1,4.974638E1,6.8589714E1,2.1388574E0,8.7955894E1,6.2945602E1,4.9448265E1,6.011322E1,1.6553079E2,4.095978E0,2.2703714E1,1.0801844E2,1.8001226E1,2.5070953E0,5.2863377E1,3.7466896E1,9.496267E0,4.025011E1,2.5701591E1,4.2888123E1,2.1247618E1,4.1697987E1,2.481964E0,4.69663E1,4.7704323E1,1.2408897E1,1.3173038E2,3.3800423E1,1.414608E1,8.557634E0,1.0542413E2,2.5943134E0,1.586086E1,2.1403656E0,2.8531927E1,8.934968E0,5.991816E0,3.504451E0],"tree_param":{"num_deleted":"0","num_feature":"12","num_nodes":"63","size_leaf_vector":"1"}},{"base_weights":[2.095925E-3,1.1146557E0,-6.705584E-1,2.5006914E-1,1.2769262E0,-1.0594914E0,2.6239604E-1,-2.744719E-1,5.7051945E-1,-2.9455735E-3,6.4676486E-2,-1.2228444E0,-7.987012E-1,-7.1108E-2,1.0189058E0,-8.20923E-1,-1.0809502E-1,6.52559E-1,-4.655836E-2,-6.3909E-2,-1.083096E0,-1.1100426E0,-4.840658E-1,1.127413E0,-3.8387394E-1,6.745735E-1,6.37319E-2,-4.837495E-3,-5.321563E-2,4.1830926E-3,-4.1313615E-2,7.383998E-1,-3.1123266E-2,-6.0563244E-2,-8.7921274E-1,-1.1329061E0,-2.000163E-3,-6.3145244E-1,1.875115E-1,9.18134E-2,6.2841564E-2,-9.178364E-1,-2.9827992E-3,5.1668086E-3,6.0292233E-2,2.0052545E-2,-6.131518E-3,2.384287E-2,4.782499E-2,-3.3941433E-2,-6.442748E-2,-4.3365233E-2,-6.114381E-2,-4.8012014E-2,-2.3176242E-2,-5.742685E-2,3.8057607E-2,3.0511368E-2,-1.9333115E-2,-5.2188065E-2,-1.3957232E-2,-2.943912E-2,1.9951127E-2,-2.2163728E-2,4.7380965E-2],"categories":[],"categories_nodes":[],"categories_segments":[],"categories_sizes":[],"default_left":[0,0,0,0,0,0,0,0,0,0,0,0,0,0,0,0,0,0,0,0,0,0,0,0,0,0,0,0,0,0,0,0,0,0,0,0,0,0,0,0,0,0,0,0,0,0,0,0,0,0,0,0,0,0,0,0,0,0,0,0,0,0,0,0,0],"id":15,"left_children":[1,3,5,7,9,11,13,15,17,-1,-1,19,21,23,25,27,29,31,-1,-1,33,35,37,39,41,43,-1,-1,-1,45,-1,47,-1,-1,49,51,-1,53,55,57,-1,59,61,63,-1,-1,-1,-1,-1,-1,-1,-1,-1,-1,-1,-1,-1,-1,-1,-1,-1,-1,-1,-1,-1],"loss_changes":[1.169156E3,8.226666E1,3.535639E2,1.600169E1,1.106366E1,2.8305298E1,7.2549484E1,3.222828E0,7.8568172E0,0E0,0E0,1.8692627E0,2.5677414E1,7.551964E1,6.885475E0,1.3687477E0,2.347874E0,6.6305523E0,0E0,0E0,2.2249298E0,3.2265015E0,1.3468424E1,5.4746017E0,3.245691E1,1.4080433E1,0E0,0E0,0E0,1.3646756E0,0E0,2.5832539E0,0E0,0E0,3.4104996E0,2.0674286E0,0E0,5.6741066E0,2.0068153E1,1.6528224E0,0E0,5.052597E0,2.2407946E1,8.251752E0,0E0,0E0,0E0,0E0,0E0,0E0,0E0,0E0,0E0,0E0,0E0,0E0,0E0,0E0,0E0,0E0,0E0,0E0,0E0,0E0,0E0],"parents":[2147483647,0,0,1,1,2,2,3,3,4,4,5,5,6,6,7,7,8,8,11,11,12,12,13,13,14,14,15,15,16,16,17,17,20,20,21,21,22,22,23,23,24,24,25,25,29,29,31,31,34,34,35,35,37,37,38,38,39,39,41,41,42,42,43,43],"right_children":[2,4,6,8,10,12,14,16,18,-1,-1,20,22,24,26,28,30,32,-1,-1,34,36,38,40,42,44,-1,-1,-1,46,-1,48,-1,-1,50,52,-1,54,56,58,-1,60,62,64,-1,-1,-1,-1,-1,-1,-1,-1,-1,-1,-1,-1,-1,-1,-1,-1,-1,-1,-1,-1,-1],"split_conditions":[1E0,2E0,3.9361804E0,3.810081E0,3.625E0,3.736007E0,4.1403193E0,3.4713545E0,3E0,-2.9455735E-3,6.4676486E-2,3.641446E0,2E0,3.9395723E0,4.2634654E0,3.2389011E0,1E0,1E0,-4.655836E-2,-6.3909E-2,2E0,2E0,1E0,2E0,4.0153193E0,4E0,6.37319E-2,-4.837495E-3,-5.321563E-2,3.6069367E0,-4.1313615E-2,3.988555E0,-3.1123266E-2,-6.0563244E-2,3.7201755E0,1E0,-2.000163E-3,1E0,3E0,3.93626E0,6.2841564E-2,4E0,2E0,2E0,6.0292233E-2,2.0052545E-2,-6.131518E-3,2.384287E-2,4.782499E-2,-3.3941433E-2,-6.442748E-2,-4.3365233E-2,-6.114381E-2,-4.8012014E-2,-2.3176242E-2,-5.742685E-2,3.8057607E-2,3.0511368E-2,-1.9333115E-2,-5.2188065E-2,-1.3957232E-2,-2.943912E-2,1.9951127E-2,-2.2163728E-2,4.7380965E-2],"split_indices":[10,1,7,7,7,7,7,7,2,0,0,7,11,7,7,7,8,8,0,0,11,4,2,11,7,11,0,0,0,7,0,7,0,0,7,9,0,9,11,7,0,11,11,1,0,0,0,0,0,0,0,0,0,0,0,0,0,0,0,0,0,0,0,0,0],"split_type":[0,0,0,0,0,0,0,0,0,0,0,0,0,0,0,0,0,0,0,0,0,0,0,0,0,0,0,0,0,0,0,0,0,0,0,0,0,0,0,0,0,0,0,0,0,0,0,0,0,0,0,0,0,0,0,0,0,0,0,0,0,0,0,0,0],"sum_hessian":[1.5602749E3,5.876514E2,9.726235E2,9.326594E1,4.943855E2,6.863571E2,2.862664E2,3.542412E1,5.7841816E1,6.038184E0,4.8834732E2,4.197478E2,2.666093E2,1.9930821E2,8.695816E1,7.3498917E0,2.807423E1,5.5381676E1,2.4601405E0,2.9485052E2,1.2489727E2,1.3273549E2,1.3387381E2,4.070846E1,1.5859975E2,3.860972E1,4.8348446E1,2.200402E0,5.14949E0,2.5138338E1,2.935892E0,5.228263E1,3.0990446E0,7.3654366E1,5.12429E1,1.2990114E2,2.834346E0,1.0982991E2,2.4043905E1,4.7120714E0,3.599639E1,6.544467E1,9.315508E1,1.7530653E1,2.1079063E1,5.56377E0,1.9574568E1,2.5222534E1,2.7060095E1,3.6186676E1,1.5056225E1,3.5561043E1,9.4340096E1,3.5535767E1,7.429414E1,6.9213696E0,1.7122536E1,2.1294832E0,2.582588E0,5.4136806E1,1.1307864E1,3.7722088E1,5.5432995E1,1.2237445E1,5.2932096E0],"tree_param":{"num_deleted":"0","num_feature":"12","num_nodes":"65","size_leaf_vector":"1"}},{"base_weights":[2.8746515E-3,-8.1913155E-1,8.690046E-1,-9.7797215E-1,1.11408114E-1,3.8928205E-1,6.215332E-2,-6.256168E-2,-7.2697675E-1,9.951106E-1,-6.2426335E-1,7.596599E-1,-2.954334E-1,-2.4621564E-1,-1.0504848E0,2.2256456E-2,5.7070788E-2,-7.754525E-1,5.351743E-2,1.1766868E0,3.5289338E-1,-1.0806097E0,3.391624E-1,-8.152234E-1,2.7366248E-1,-3.676965E-1,-1.2022383E0,-9.235203E-1,-3.452436E-1,6.436683E-2,6.189827E-1,8.88219E-1,-7.9288214E-1,-5.8759313E-2,-3.33724E-1,8.678648E-1,-6.2426394E-1,-2.767594E-3,-5.5243637E-2,-4.53402E-2,2.4708992E-2,-2.6634097E-2,3.9817482E-2,-6.357732E-2,-4.43105E-2,-6.0135085E-2,-3.226038E-2,6.066751E-4,-2.6581822E-2,2.2602262E-2,5.473121E-2,-3.0215586E-2,5.43163E-2,-5.9228964E-2,-7.279469E-3,-4.4524908E-2,1.3881842E-2,5.7383683E-2,-1.3502468E-2,-5.1236153E-2,4.8479464E-2],"categories":[],"categories_nodes":[],"categories_segments":[],"categories_sizes":[],"default_left":[0,0,0,0,0,0,0,0,0,0,0,0,0,0,0,0,0,0,0,0,0,0,0,0,0,0,0,0,0,0,0,0,0,0,0,0,0,0,0,0,0,0,0,0,0,0,0,0,0,0,0,0,0,0,0,0,0,0,0,0,0],"id":16,"left_children":[1,3,5,7,9,11,-1,-1,13,15,17,19,21,23,25,-1,-1,27,-1,29,31,33,35,37,39,41,43,45,47,-1,49,51,53,-1,55,57,59,-1,-1,-1,-1,-1,-1,-1,-1,-1,-1,-1,-1,-1,-1,-1,-1,-1,-1,-1,-1,-1,-1,-1,-1],"loss_changes":[1.0842719E3,1.1560126E2,1.3258606E2,4.4875366E1,7.527251E1,8.298793E1,0E0,0E0,5.4228775E1,3.720459E0,1.7041958E1,3.5558525E1,5.7807648E1,4.2294983E1,2.1224945E1,0E0,0E0,3.4186783E0,0E0,5.6385956E0,6.7428E1,3.2644653E0,3.340356E1,1.49394455E1,1.998961E1,8.003522E0,2.6108093E0,2.569233E0,1.1135794E0,0E0,1.029005E0,2.2718517E1,8.7444E0,0E0,2.7031102E0,1.3706213E1,1.5955387E1,0E0,0E0,0E0,0E0,0E0,0E0,0E0,0E0,0E0,0E0,0E0,0E0,0E0,0E0,0E0,0E0,0E0,0E0,0E0,0E0,0E0,0E0,0E0,0E0],"parents":[2147483647,0,0,1,1,2,2,3,3,4,4,5,5,8,8,9,9,10,10,11,11,12,12,13,13,14,14,17,17,19,19,20,20,21,21,22,22,23,23,24,24,25,25,26,26,27,27,28,28,30,30,31,31,32,32,34,34,35,35,36,36],"right_children":[2,4,6,8,10,12,-1,-1,14,16,18,20,22,24,26,-1,-1,28,-1,30,32,34,36,38,40,42,44,46,48,-1,50,52,54,-1,56,58,60,-1,-1,-1,-1,-1,-1,-1,-1,-1,-1,-1,-1,-1,-1,-1,-1,-1,-1,-1,-1,-1,-1,-1,-1],"split_conditions":[3.9361804E0,2.6E1,3.4E1,2E1,1E0,1E0,6.215332E-2,-6.256168E-2,3E0,2.7E1,3.8E1,3E0,2E0,2E0,1E0,2.2256456E-2,5.7070788E-2,3E1,5.351743E-2,2.4E1,1E0,4.1287246E0,3E0,1E0,3.6464393E0,2.5E1,3E0,2E0,3.821928E0,6.436683E-2,4.1973257E0,2.4E1,2.7E1,-5.8759313E-2,2.9E1,2.3E1,4.108695E0,-2.767594E-3,-5.5243637E-2,-4.53402E-2,2.4708992E-2,-2.6634097E-2,3.9817482E-2,-6.357732E-2,-4.43105E-2,-6.0135085E-2,-3.226038E-2,6.066751E-4,-2.6581822E-2,2.2602262E-2,5.473121E-2,-3.0215586E-2,5.43163E-2,-5.9228964E-2,-7.279469E-3,-4.4524908E-2,1.3881842E-2,5.7383683E-2,-1.3502468E-2,-5.1236153E-2,4.8479464E-2],"split_indices":[7,0,0,0,8,9,0,0,6,0,0,6,11,11,8,0,0,0,0,0,8,7,6,9,7,0,11,11,7,0,7,0,0,0,0,0,7,0,0,0,0,0,0,0,0,0,0,0,0,0,0,0,0,0,0,0,0,0,0,0,0],"split_type":[0,0,0,0,0,0,0,0,0,0,0,0,0,0,0,0,0,0,0,0,0,0,0,0,0,0,0,0,0,0,0,0,0,0,0,0,0,0,0,0,0,0,0,0,0,0,0,0,0,0,0,0,0,0,0,0,0,0,0,0,0],"sum_hessian":[1.5209305E3,7.803699E2,7.405607E2,6.66542E2,1.1382789E2,3.253501E2,4.1521063E2,3.172084E2,3.4933356E2,5.155109E1,6.22768E1,2.1106882E2,1.1428127E2,1.412238E2,2.0810976E2,1.1681433E1,3.9869656E1,5.767369E1,4.603105E0,1.0328536E2,1.07783455E2,5.076618E1,6.3515095E1,6.715472E1,7.406909E1,3.8465214E1,1.6964455E2,4.2053265E1,1.5620429E1,8.50942E1,1.8191164E1,7.361437E1,3.4169086E1,4.4551292E1,6.2148886E0,4.1073986E1,2.2441109E1,1.8862244E1,4.829247E1,1.1168747E1,6.290034E1,3.4165215E1,4.3000007E0,1.36652E2,3.299255E1,1.9335758E1,2.2717505E1,5.674817E0,9.945612E0,1.4908921E1,3.2822425E0,8.38578E0,6.522859E1,2.0770287E1,1.33988E1,3.0136945E0,3.201194E0,3.296054E1,8.113448E0,1.8220297E1,4.220811E0],"tree_param":{"num_deleted":"0","num_feature":"12","num_nodes":"61","size_leaf_vector":"1"}},{"base_weights":[1.4606972E-3,1.0759603E0,-6.36356E-1,-5.3265977E-1,1.2013388E0,-1.0075756E0,2.4978969E-1,-7.7135015E-1,-1.920548E-1,7.9433954E-1,6.3286E-2,-6.29019E-2,-8.069339E-1,7.40856E-1,-2.5106192E-1,-6.9157467E-3,-4.3138396E-2,-5.363318E-2,-4.174099E-2,8.6266863E-1,-4.8176173E-2,-3.6048216E-1,-1.0966883E0,1.0208207E0,-8.776342E-1,-9.7863513E-1,1.0458539E0,1.5951125E-2,-1.9513233E-2,9.319175E-1,-4.685511E-2,5.9072576E-2,-6.636368E-2,-1.1385013E0,-1.996842E-1,1.04649104E-1,1.2171152E0,-6.335872E-2,5.5719472E-2,-5.898409E-2,-4.2460418E-1,1.7561054E-1,6.1643597E-2,5.106904E-2,-3.2441467E-2,-3.992262E-2,3.2959133E-2,-5.997913E-2,-4.2294245E-2,-2.250464E-2,2.586697E-2,4.6025343E-2,-2.5451347E-2,6.2232383E-2,-1.2976059E-3,-3.4316003E-2,1.4395622E-2,-5.920562E-3,3.2552127E-2],"categories":[],"categories_nodes":[],"categories_segments":[],"categories_sizes":[],"default_left":[0,0,0,0,0,0,0,0,0,0,0,0,0,0,0,0,0,0,0,0,0,0,0,0,0,0,0,0,0,0,0,0,0,0,0,0,0,0,0,0,0,0,0,0,0,0,0,0,0,0,0,0,0,0,0,0,0,0,0],"id":17,"left_children":[1,3,5,7,9,11,13,15,17,19,-1,-1,21,23,25,-1,-1,27,-1,29,-1,31,33,35,37,39,41,-1,-1,43,-1,45,-1,47,49,51,53,-1,-1,-1,55,57,-1,-1,-1,-1,-1,-1,-1,-1,-1,-1,-1,-1,-1,-1,-1,-1,-1],"loss_changes":[1.0211144E3,1.12573425E2,3.0781277E2,3.1706333E0,1.249353E1,3.2108215E1,6.827437E1,1.2504768E0,1.5702173E0,9.605076E0,0E0,0E0,4.73067E1,6.43495E1,1.3105151E2,0E0,0E0,2.132151E0,0E0,9.702385E0,0E0,5.9551315E1,8.141418E0,2.1426033E1,1.7854176E1,9.389412E0,7.9221535E0,0E0,0E0,1.0380692E1,0E0,5.363729E1,0E0,2.7919617E0,2.234893E0,1.1604131E1,3.4071045E0,0E0,0E0,0E0,4.8976254E0,1.4766059E0,0E0,0E0,0E0,0E0,0E0,0E0,0E0,0E0,0E0,0E0,0E0,0E0,0E0,0E0,0E0,0E0,0E0],"parents":[2147483647,0,0,1,1,2,2,3,3,4,4,5,5,6,6,7,7,8,8,9,9,12,12,13,13,14,14,17,17,19,19,21,21,22,22,23,23,24,24,25,25,26,26,29,29,31,31,33,33,34,34,35,35,36,36,40,40,41,41],"right_children":[2,4,6,8,10,12,14,16,18,20,-1,-1,22,24,26,-1,-1,28,-1,30,-1,32,34,36,38,40,42,-1,-1,44,-1,46,-1,48,50,52,54,-1,-1,-1,56,58,-1,-1,-1,-1,-1,-1,-1,-1,-1,-1,-1,-1,-1,-1,-1,-1,-1],"split_conditions":[1E0,2.3E1,3.9361804E0,2.1E1,1E0,2E1,3E0,1.6E1,4E0,1E0,6.3286E-2,-6.29019E-2,3E0,1E0,3.5E1,-6.9157467E-3,-4.3138396E-2,3.7600174E0,-4.174099E-2,4E0,-4.8176173E-2,1E0,3E1,2E0,3.6E1,2.8E1,4.4E1,1.5951125E-2,-1.9513233E-2,5E0,-4.685511E-2,2E0,-6.636368E-2,3E0,1E0,1E0,7E0,-6.335872E-2,5.5719472E-2,-5.898409E-2,4.120635E0,4.237441E0,6.1643597E-2,5.106904E-2,-3.2441467E-2,-3.992262E-2,3.2959133E-2,-5.997913E-2,-4.2294245E-2,-2.250464E-2,2.586697E-2,4.6025343E-2,-2.5451347E-2,6.2232383E-2,-1.2976059E-3,-3.4316003E-2,1.4395622E-2,-5.920562E-3,3.2552127E-2],"split_indices":[10,0,7,0,5,0,6,0,6,11,0,0,6,5,0,0,0,7,0,2,0,5,0,11,0,0,0,0,0,6,0,11,0,11,2,9,11,0,0,0,7,7,0,0,0,0,0,0,0,0,0,0,0,0,0,0,0,0,0],"split_type":[0,0,0,0,0,0,0,0,0,0,0,0,0,0,0,0,0,0,0,0,0,0,0,0,0,0,0,0,0,0,0,0,0,0,0,0,0,0,0,0,0,0,0,0,0,0,0,0,0,0,0,0,0,0,0,0,0,0,0],"sum_hessian":[1.487953E3,5.539883E2,9.339648E2,3.982178E1,5.141665E2,6.5812805E2,2.7583673E2,2.2670218E1,1.7151562E1,7.20467E1,4.4211978E2,2.9037772E2,3.677503E2,1.3903697E2,1.3679974E2,3.1778362E0,1.9492382E1,1.500387E1,2.1476927E0,6.984119E1,2.2055147E0,1.4562157E2,2.2212874E2,1.1884804E2,2.018894E1,8.779304E1,4.9006714E1,7.145743E0,7.8581266E0,6.771784E1,2.1233423E0,1.0220637E2,4.3415207E1,2.1197835E2,1.0150403E1,2.1241232E1,9.7606804E1,1.7191097E1,2.9978428E0,6.3588707E1,2.4204327E1,9.0117445E0,3.999497E1,6.442551E1,3.292335E0,4.194241E1,6.0263954E1,1.7280682E2,3.917152E1,7.799006E0,2.3513973E0,8.903885E0,1.2337347E1,9.549053E1,2.1162705E0,1.7729013E1,6.475313E0,6.0321913E0,2.9795535E0],"tree_param":{"num_deleted":"0","num_feature":"12","num_nodes":"59","size_leaf_vector":"1"}},{"base_weights":[-7.3312605E-3,-7.8808427E-1,8.278681E-1,-1.1486905E0,-4.1207242E-1,1.9682351E-1,1.1648215E0,-6.0610082E-2,-8.824801E-1,1.4007512E-1,-8.980416E-1,9.421778E-1,-5.368532E-1,7.911012E-1,6.277972E-2,-4.8812944E-1,-1.0978339E0,-2.518753E-1,9.305129E-1,-1.1823875E0,-5.294906E-1,4.4404127E-2,1.1834896E0,2.94471E-1,-9.148929E-1,5.5910528E-2,-3.6704552E-1,-4.1291054E-2,2.8723951E-2,-6.2066387E-2,-4.8274243E-1,6.446515E-1,-5.775783E-1,-4.6510103E-1,1.0716811E0,-6.0320765E-2,-9.15899E-3,1.7737312E-2,-1.0435749E0,6.747224E-1,-9.5590514E-1,6.2739566E-2,7.3816687E-1,-3.804207E-1,4.5421537E-2,-1.0103688E0,4.4731268E-1,-5.0913163E-2,6.12787E-2,5.857203E-2,-1.5867008E-2,2.5231203E-2,-5.6681376E-2,-4.7878036E-3,7.126836E-2,2.3409715E-3,-5.2770127E-2,-4.4086765E-2,3.4112E-3,3.040107E-2,6.309113E-2,2.9454893E-2,-6.4364105E-2,-6.0682785E-2,-2.7459756E-2,5.58723E-2,-5.3638504E-3,-6.0799804E-2,4.3390724E-3,-4.154709E-2,5.2945938E-2,-3.670814E-2,8.0833834E-4,-5.9758123E-2,-3.4196924E-2,-5.437893E-3,4.342708E-2],"categories":[],"categories_nodes":[],"categories_segments":[],"categories_sizes":[],"default_left":[0,0,0,0,0,0,0,0,0,0,0,0,0,0,0,0,0,0,0,0,0,0,0,0,0,0,0,0,0,0,0,0,0,0,0,0,0,0,0,0,0,0,0,0,0,0,0,0,0,0,0,0,0,0,0,0,0,0,0,0,0,0,0,0,0,0,0,0,0,0,0,0,0,0,0,0,0],"id":18,"left_children":[1,3,5,7,9,11,13,-1,15,17,19,21,23,25,-1,27,29,31,33,35,37,39,41,43,45,-1,47,-1,49,-1,51,53,55,57,59,-1,-1,61,63,65,67,-1,69,71,-1,73,75,-1,-1,-1,-1,-1,-1,-1,-1,-1,-1,-1,-1,-1,-1,-1,-1,-1,-1,-1,-1,-1,-1,-1,-1,-1,-1,-1,-1,-1,-1],"loss_changes":[9.455839E2,1.0114917E2,1.4874591E2,5.3890686E0,9.8992874E1,1.3453041E2,1.4494141E1,0E0,6.025421E0,5.394026E1,1.9925293E1,2.636451E1,3.9285576E1,3.5233936E1,0E0,5.1009417E0,3.7406387E0,3.444099E1,1.1861713E1,2.4173126E0,2.455504E1,1.7587606E1,2.1240997E0,1.6739239E1,1.1582687E1,0E0,2.3025246E1,0E0,5.299796E0,0E0,7.601143E0,1.8381907E1,2.5740248E1,1.3923697E0,3.8772087E0,0E0,0E0,3.299285E1,3.1162605E0,6.029799E0,3.0346375E0,0E0,8.7753105E0,2.7547686E0,0E0,4.025505E0,1.5698217E0,0E0,0E0,0E0,0E0,0E0,0E0,0E0,0E0,0E0,0E0,0E0,0E0,0E0,0E0,0E0,0E0,0E0,0E0,0E0,0E0,0E0,0E0,0E0,0E0,0E0,0E0,0E0,0E0,0E0,0E0],"parents":[2147483647,0,0,1,1,2,2,3,3,4,4,5,5,6,6,8,8,9,9,10,10,11,11,12,12,13,13,15,15,16,16,17,17,18,18,19,19,20,20,21,21,22,22,23,23,24,24,26,26,28,28,30,30,31,31,32,32,33,33,34,34,37,37,38,38,39,39,40,40,42,42,43,43,45,45,46,46],"right_children":[2,4,6,8,10,12,14,-1,16,18,20,22,24,26,-1,28,30,32,34,36,38,40,42,44,46,-1,48,-1,50,-1,52,54,56,58,60,-1,-1,62,64,66,68,-1,70,72,-1,74,76,-1,-1,-1,-1,-1,-1,-1,-1,-1,-1,-1,-1,-1,-1,-1,-1,-1,-1,-1,-1,-1,-1,-1,-1,-1,-1,-1,-1,-1,-1],"split_conditions":[3.9361804E0,2.1E1,2E0,2E1,1E0,3E0,3E0,-6.0610082E-2,3E0,2E0,2E0,2E0,1E0,1E0,6.277972E-2,3.7254806E0,3E0,3E0,2.3E1,2E0,3E0,1E0,2.3E1,2.8E1,4.2634654E0,5.5910528E-2,3.4E1,-4.1291054E-2,3.7483287E0,-6.2066387E-2,4E0,3E0,1E0,3.7336607E0,3E0,-6.0320765E-2,-9.15899E-3,2E0,2.6E1,2.5E1,3E1,6.2739566E-2,4.0043445E0,2.4E1,4.5421537E-2,2.7E1,1E0,-5.0913163E-2,6.12787E-2,5.857203E-2,-1.5867008E-2,2.5231203E-2,-5.6681376E-2,-4.7878036E-3,7.126836E-2,2.3409715E-3,-5.2770127E-2,-4.4086765E-2,3.4112E-3,3.040107E-2,6.309113E-2,2.9454893E-2,-6.4364105E-2,-6.0682785E-2,-2.7459756E-2,5.58723E-2,-5.3638504E-3,-6.0799804E-2,4.3390724E-3,-4.154709E-2,5.2945938E-2,-3.670814E-2,8.0833834E-4,-5.9758123E-2,-3.4196924E-2,-5.437893E-3,4.342708E-2],"split_indices":[7,0,1,0,9,6,6,0,6,1,11,11,11,9,0,7,11,6,0,4,6,9,0,0,7,0,0,0,7,0,11,11,11,7,6,0,0,1,0,0,0,0,7,0,0,0,9,0,0,0,0,0,0,0,0,0,0,0,0,0,0,0,0,0,0,0,0,0,0,0,0,0,0,0,0,0,0],"split_type":[0,0,0,0,0,0,0,0,0,0,0,0,0,0,0,0,0,0,0,0,0,0,0,0,0,0,0,0,0,0,0,0,0,0,0,0,0,0,0,0,0,0,0,0,0,0,0,0,0,0,0,0,0,0,0,0,0,0,0,0,0,0,0,0,0,0,0,0,0,0,0,0,0,0,0,0,0],"sum_hessian":[1.4480939E3,7.4847144E2,6.9962244E2,3.8101352E2,3.674579E2,2.4408517E2,4.5553726E2,3.0475342E2,7.626011E1,1.7234969E2,1.951082E2,1.20938034E2,1.2314713E2,9.0921265E1,3.64616E2,2.808965E1,4.8170456E1,1.156729E2,5.6676792E1,1.0888929E2,8.62189E1,2.5871185E1,9.506686E1,3.8564137E1,8.458299E1,7.092387E1,1.99974E1,1.662787E1,1.146178E1,3.8233006E1,9.937451E0,3.056386E1,8.510903E1,4.995523E0,5.168127E1,1.0612984E2,2.759455E0,4.2230865E1,4.3988037E1,1.6070362E1,9.800823E0,8.0379395E1,1.4687455E1,1.8551685E1,2.0012451E1,7.928431E1,5.2986894E0,1.4449625E1,5.5477757E0,2.1098697E0,9.35191E0,4.037475E0,5.899976E0,1.6137182E1,1.4426677E1,3.7286644E1,4.7822388E1,2.437817E0,2.5577056E0,1.6250984E1,3.5430286E1,2.9753048E1,1.24778185E1,3.1646006E1,1.2342033E1,9.98721E0,6.083151E0,7.711123E0,2.0897005E0,2.2228298E0,1.2464624E1,9.355611E0,9.196075E0,4.892587E1,3.0358438E1,2.603534E0,2.6951556E0],"tree_param":{"num_deleted":"0","num_feature":"12","num_nodes":"77","size_leaf_vector":"1"}},{"base_weights":[-4.0187133E-3,1.040629E0,-6.187799E-1,-4.9961326E-1,1.1648949E0,-7.4458E-1,9.406372E-1,-7.785961E-1,-1.2719905E-1,1.1784378E0,-1.4051504E-2,-3.068272E-1,-1.1214972E0,3.1057847E-1,6.0988456E-2,-4.355445E-3,-4.4239927E-2,1.1562173E-2,-2.993649E-1,9.632177E-1,6.0443252E-2,-9.7263455E-1,2.9627174E-1,-1.1750519E0,-5.586062E-1,7.818353E-1,-1.5104421E-3,-2.692914E-2,2.8606495E-2,6.1424512E-2,6.409344E-1,-5.2388734E-1,-1.1155633E0,-6.0707193E-2,6.2978077E-1,-6.1216455E-2,-5.2218437E-2,1.9061262E-2,-6.276779E-1,4.402398E-3,5.225369E-2,1.6586693E-2,4.22469E-2,-5.7428576E-2,1.5338965E-2,-5.669729E-2,-3.1122107E-3,4.4872224E-2,-2.0502573E-2,-4.8370246E-2,-1.4350531E-2],"categories":[],"categories_nodes":[],"categories_segments":[],"categories_sizes":[],"default_left":[0,0,0,0,0,0,0,0,0,0,0,0,0,0,0,0,0,0,0,0,0,0,0,0,0,0,0,0,0,0,0,0,0,0,0,0,0,0,0,0,0,0,0,0,0,0,0,0,0,0,0],"id":19,"left_children":[1,3,5,7,9,11,13,15,17,19,-1,21,23,25,-1,-1,-1,-1,27,29,-1,31,33,35,37,39,-1,-1,-1,-1,41,43,45,-1,47,-1,-1,-1,49,-1,-1,-1,-1,-1,-1,-1,-1,-1,-1,-1,-1],"loss_changes":[9.004788E2,1.0000635E2,1.7386328E2,4.0028973E0,9.749695E0,1.3451788E2,1.1287376E1,1.5662022E0,1.1864657E0,1.9573364E0,0E0,1.5269139E2,1.2572144E1,3.5097318E0,0E0,0E0,0E0,0E0,2.9486637E0,4.681488E0,0E0,1.1000656E1,1.0146907E2,1.2958984E0,2.8378448E0,1.578496E0,0E0,0E0,0E0,0E0,1.6733446E0,2.3971981E1,2.5647888E0,0E0,4.6128777E1,0E0,0E0,0E0,4.0816956E0,0E0,0E0,0E0,0E0,0E0,0E0,0E0,0E0,0E0,0E0,0E0,0E0],"parents":[2147483647,0,0,1,1,2,2,3,3,4,4,5,5,6,6,7,7,8,8,9,9,11,11,12,12,13,13,18,18,19,19,21,21,22,22,23,23,24,24,25,25,30,30,31,31,32,32,34,34,38,38],"right_children":[2,4,6,8,10,12,14,16,18,20,-1,22,24,26,-1,-1,-1,-1,28,30,-1,32,34,36,38,40,-1,-1,-1,-1,42,44,46,-1,48,-1,-1,-1,50,-1,-1,-1,-1,-1,-1,-1,-1,-1,-1,-1,-1],"split_conditions":[1E0,2.3E1,3.4E1,2.1E1,5E0,3E0,4.4E1,1.6E1,3E0,2.7E1,-1.4051504E-2,2E0,2.8E1,3E0,6.0988456E-2,-4.355445E-3,-4.4239927E-2,1.1562173E-2,1E0,3E0,6.0443252E-2,1E0,2E1,2.3E1,1E0,1E0,-1.5104421E-3,-2.692914E-2,2.8606495E-2,6.1424512E-2,2.5E1,2.2E1,2E0,-6.0707193E-2,2.3E1,-6.1216455E-2,-5.2218437E-2,1.9061262E-2,2E0,4.402398E-3,5.225369E-2,1.6586693E-2,4.22469E-2,-5.7428576E-2,1.5338965E-2,-5.669729E-2,-3.1122107E-3,4.4872224E-2,-2.0502573E-2,-4.8370246E-2,-1.4350531E-2],"split_indices":[10,0,0,0,6,6,0,0,6,0,0,11,0,6,0,0,0,0,2,6,0,9,0,0,8,9,0,0,0,0,0,0,4,0,0,0,0,0,11,0,0,0,0,0,0,0,0,0,0,0,0],"split_type":[0,0,0,0,0,0,0,0,0,0,0,0,0,0,0,0,0,0,0,0,0,0,0,0,0,0,0,0,0,0,0,0,0,0,0,0,0,0,0,0,0,0,0,0,0,0,0,0,0,0,0],"sum_hessian":[1.4001562E3,5.184592E2,8.81697E2,3.848071E1,4.7997852E2,8.163626E2,6.5334435E1,2.1376486E1,1.7104221E1,4.7570792E2,4.270601E0,3.7853955E2,4.3782303E2,2.0707031E1,4.4627403E1,3.088352E0,1.8288136E1,5.4384465E0,1.1665775E1,6.296878E1,4.1273914E2,1.7962498E2,1.9891458E2,3.9879333E2,3.9029686E1,8.146903E0,1.2560127E1,9.453007E0,2.2127686E0,3.2996998E1,2.9971785E1,4.4518272E1,1.351067E2,3.5499916E1,1.6341466E2,2.8351758E2,1.1527575E2,2.3626587E0,3.6667027E1,2.6079383E0,5.538965E0,1.2957978E1,1.7013805E1,2.5191135E1,1.9327137E1,1.3271404E2,2.3926764E0,1.3007016E2,3.3344494E1,1.7437712E1,1.9229315E1],"tree_param":{"num_deleted":"0","num_feature":"12","num_nodes":"51","size_leaf_vector":"1"}},{"base_weights":[3.4281688E-3,1.0340282E0,-6.032201E-1,2.6918757E-1,1.192644E0,-9.570164E-1,2.3058808E-1,3.6446595E-1,-3.9951753E-2,-5.7723533E-2,6.038176E-2,-1.1329167E0,-6.930255E-1,7.0803005E-1,-2.608778E-1,-3.539085E-2,4.475049E-1,-4.640606E-2,4.4564616E-2,-5.9316248E-2,-9.953729E-1,-1.9889845E-1,-1.0379602E0,9.5678306E-1,-7.8676254E-1,-8.7009645E-1,6.1555948E-2,5.0541264E-1,-3.5151158E-2,-5.593754E-2,-1.0360671E0,1.722709E-1,-6.1059136E-2,-1.0858065E0,7.123591E-2,1.2952639E-1,1.1504995E0,-1.0311123E0,3.298944E-2,-9.664114E-1,2.4822846E-2,1.7700395E-2,3.7965115E-2,4.180349E-2,-4.445174E-2,-4.5766674E-2,-6.056081E-2,-2.8465588E-2,3.290312E-2,-5.795368E-2,-3.8345274E-2,-1.4493364E-2,2.6050339E-2,5.935007E-2,-4.735236E-3,-5.8408033E-2,-1.4662786E-2,-5.2886654E-2,-3.5774942E-2],"categories":[],"categories_nodes":[],"categories_segments":[],"categories_sizes":[],"default_left":[0,0,0,0,0,0,0,0,0,0,0,0,0,0,0,0,0,0,0,0,0,0,0,0,0,0,0,0,0,0,0,0,0,0,0,0,0,0,0,0,0,0,0,0,0,0,0,0,0,0,0,0,0,0,0,0,0,0,0],"id":20,"left_children":[1,3,5,7,9,11,13,15,-1,17,-1,19,21,23,25,-1,27,-1,-1,-1,29,31,33,35,37,39,-1,41,-1,43,45,47,-1,49,-1,51,53,55,-1,57,-1,-1,-1,-1,-1,-1,-1,-1,-1,-1,-1,-1,-1,-1,-1,-1,-1,-1,-1],"loss_changes":[8.540089E2,6.1079834E1,2.5386914E2,9.270631E0,7.921753E0,2.7256409E1,6.0478462E1,7.590267E0,0E0,5.714978E0,0E0,1.4697876E0,4.138949E1,4.9316795E1,1.1682541E2,0E0,5.447321E0,0E0,0E0,0E0,4.0377197E0,3.8747936E1,1.845372E1,1.7867332E1,7.460658E0,1.2458717E1,0E0,2.5506973E0,0E0,4.834355E0,1.0615616E0,2.753324E1,0E0,2.4129486E0,0E0,3.8382602E0,4.247032E0,1.35635E0,0E0,1.199089E0,0E0,0E0,0E0,0E0,0E0,0E0,0E0,0E0,0E0,0E0,0E0,0E0,0E0,0E0,0E0,0E0,0E0,0E0,0E0],"parents":[2147483647,0,0,1,1,2,2,3,3,4,4,5,5,6,6,7,7,9,9,11,11,12,12,13,13,14,14,16,16,20,20,21,21,22,22,23,23,24,24,25,25,27,27,29,29,30,30,31,31,33,33,35,35,36,36,37,37,39,39],"right_children":[2,4,6,8,10,12,14,16,-1,18,-1,20,22,24,26,-1,28,-1,-1,-1,30,32,34,36,38,40,-1,42,-1,44,46,48,-1,50,-1,52,54,56,-1,58,-1,-1,-1,-1,-1,-1,-1,-1,-1,-1,-1,-1,-1,-1,-1,-1,-1,-1,-1],"split_conditions":[1E0,2E0,3.9361804E0,1E0,3.625E0,3.736007E0,3E0,3.4713545E0,-3.9951753E-2,3E0,6.038176E-2,3.6464393E0,3E0,1E0,2E0,-3.539085E-2,5E0,-4.640606E-2,4.4564616E-2,-5.9316248E-2,3.6537566E0,1E0,2E0,2E0,3E0,4.2634654E0,6.1555948E-2,3.988555E0,-3.5151158E-2,3E0,3.7201755E0,2E0,-6.1059136E-2,3E0,7.123591E-2,4.0153193E0,7E0,4.1008167E0,3.298944E-2,4.0661087E0,2.4822846E-2,1.7700395E-2,3.7965115E-2,4.180349E-2,-4.445174E-2,-4.5766674E-2,-6.056081E-2,-2.8465588E-2,3.290312E-2,-5.795368E-2,-3.8345274E-2,-1.4493364E-2,2.6050339E-2,5.935007E-2,-4.735236E-3,-5.8408033E-2,-1.4662786E-2,-5.2886654E-2,-3.5774942E-2],"split_indices":[10,1,7,8,7,7,6,7,0,6,0,7,6,5,1,0,6,0,0,0,7,5,1,11,1,7,0,7,0,6,7,11,0,11,0,7,11,7,0,7,0,0,0,0,0,0,0,0,0,0,0,0,0,0,0,0,0,0,0],"split_type":[0,0,0,0,0,0,0,0,0,0,0,0,0,0,0,0,0,0,0,0,0,0,0,0,0,0,0,0,0,0,0,0,0,0,0,0,0,0,0,0,0,0,0,0,0,0,0,0,0,0,0,0,0,0,0,0,0,0,0],"sum_hessian":[1.3639541E3,5.0512378E2,8.588303E2,8.7224976E1,4.178988E2,6.028745E2,2.5595578E2,8.0687035E1,6.5379395E0,4.917222E0,4.1298157E2,3.5982645E2,2.430481E2,1.2960672E2,1.2634907E2,5.2586102E0,7.542843E1,2.5763338E0,2.3408885E0,2.536926E2,1.06133835E2,1.0056416E2,1.4248393E2,1.114242E2,1.818252E1,9.0011856E1,3.633721E1,7.234777E1,3.0806563E0,4.505182E0,1.01628654E2,7.4387245E1,2.617692E1,1.4031686E2,2.1670656E0,2.1457905E1,8.996629E1,1.5800679E1,2.38184E0,8.4359024E1,5.6528306E0,4.6820896E1,2.5526873E1,2.173945E0,2.331237E0,6.384507E1,3.7783585E1,2.9374231E1,4.5013016E1,1.1195968E2,2.835719E1,1.0484934E1,1.097297E1,8.744955E1,2.5167513E0,1.2833773E1,2.9669065E0,5.9491173E1,2.4867851E1],"tree_param":{"num_deleted":"0","num_feature":"12","num_nodes":"59","size_leaf_vector":"1"}},{"base_weights":[5.645984E-3,1.011725E0,-5.751966E-1,-3.9625183E-1,1.1318302E0,-9.291762E-1,2.5073767E-1,-7.663483E-1,-1.5392086E-1,6.953155E-1,6.0342487E-2,-1.1146295E0,-6.52984E-1,7.05973E-1,-2.1617788E-1,-6.2757074E-3,-4.6569463E-2,-3.8469143E-2,-4.248197E-2,7.625672E-1,-4.558922E-2,-5.9544988E-2,-9.733918E-1,-1.4560871E-1,-1.0142531E0,9.520089E-1,-8.1261593E-1,-9.045439E-1,1.0524428E0,5.1166487E-1,-2.813185E-1,8.321145E-1,-2.507617E-2,-5.6282252E-2,-7.567777E-1,2.1848676E-1,-5.973962E-2,-5.759826E-2,-7.5629056E-1,1.1753928E-1,1.1421934E0,-6.1059333E-2,5.313751E-2,-1.0320555E0,-1.9487163E-1,2.5468407E-2,5.9049066E-2,-2.5064715E-3,4.1082222E-2,-3.2555886E-2,-4.325542E-3,1.7492997E-2,4.6577327E-2,-1.5041763E-2,-5.1190455E-2,-2.7034257E-2,3.4717515E-2,4.256507E-3,-4.166806E-2,3.9663326E-2,-2.3605617E-2,5.85541E-2,-2.4736586E-3,-5.8313604E-2,-3.4959685E-2,-5.2563388E-2,7.963329E-3],"categories":[],"categories_nodes":[],"categories_segments":[],"categories_sizes":[],"default_left":[0,0,0,0,0,0,0,0,0,0,0,0,0,0,0,0,0,0,0,0,0,0,0,0,0,0,0,0,0,0,0,0,0,0,0,0,0,0,0,0,0,0,0,0,0,0,0,0,0,0,0,0,0,0,0,0,0,0,0,0,0,0,0,0,0,0,0],"id":21,"left_children":[1,3,5,7,9,11,13,15,17,19,-1,21,23,25,27,-1,-1,29,-1,31,-1,-1,33,35,37,39,41,43,45,47,49,51,-1,-1,53,55,-1,-1,57,59,61,-1,-1,63,65,-1,-1,-1,-1,-1,-1,-1,-1,-1,-1,-1,-1,-1,-1,-1,-1,-1,-1,-1,-1,-1,-1],"loss_changes":[7.722749E2,8.224594E1,2.4518723E2,3.3582168E0,1.3764404E1,2.9323212E1,5.3747334E1,1.4785843E0,1.9491837E0,8.018822E0,0E0,2.606659E0,4.3496475E1,4.856168E1,1.1032135E2,0E0,0E0,3.11115E0,0E0,6.1830025E0,0E0,0E0,3.3716278E0,3.8535797E1,4.063446E0,1.740728E1,1.5375258E1,7.1943054E0,2.5058746E0,1.2874433E0,1.1001441E0,2.6729355E0,0E0,0E0,6.4991264E0,2.7552324E1,0E0,0E0,3.394949E0,8.992886E0,3.1528015E0,0E0,0E0,2.2691727E0,4.3164415E0,0E0,0E0,0E0,0E0,0E0,0E0,0E0,0E0,0E0,0E0,0E0,0E0,0E0,0E0,0E0,0E0,0E0,0E0,0E0,0E0,0E0,0E0],"parents":[2147483647,0,0,1,1,2,2,3,3,4,4,5,5,6,6,7,7,8,8,9,9,11,11,12,12,13,13,14,14,17,17,19,19,22,22,23,23,24,24,25,25,26,26,27,27,28,28,29,29,30,30,31,31,34,34,35,35,38,38,39,39,40,40,43,43,44,44],"right_children":[2,4,6,8,10,12,14,16,18,20,-1,22,24,26,28,-1,-1,30,-1,32,-1,-1,34,36,38,40,42,44,46,48,50,52,-1,-1,54,56,-1,-1,58,60,62,-1,-1,64,66,-1,-1,-1,-1,-1,-1,-1,-1,-1,-1,-1,-1,-1,-1,-1,-1,-1,-1,-1,-1,-1,-1],"split_conditions":[1E0,2.3E1,3.9361804E0,1.9E1,1E0,3.736007E0,3E0,1.6E1,4E0,1E0,6.0342487E-2,2E1,3E0,1E0,3.5E1,-6.2757074E-3,-4.6569463E-2,3.6682959E0,-4.248197E-2,5E0,-4.558922E-2,-5.9544988E-2,2E0,1E0,2.4E1,2E0,3.4E1,4.1287246E0,4.5E1,3.5216405E0,3.7336607E0,2.5E1,-2.507617E-2,-5.6282252E-2,3E0,2E0,-5.973962E-2,-5.759826E-2,1E0,1E0,7E0,-6.1059333E-2,5.313751E-2,2.7E1,2.6E1,2.5468407E-2,5.9049066E-2,-2.5064715E-3,4.1082222E-2,-3.2555886E-2,-4.325542E-3,1.7492997E-2,4.6577327E-2,-1.5041763E-2,-5.1190455E-2,-2.7034257E-2,3.4717515E-2,4.256507E-3,-4.166806E-2,3.9663326E-2,-2.3605617E-2,5.85541E-2,-2.4736586E-3,-5.8313604E-2,-3.4959685E-2,-5.2563388E-2,7.963329E-3],"split_indices":[10,0,7,0,5,7,6,0,6,8,0,0,6,5,0,0,0,7,0,6,0,0,11,5,0,11,0,7,0,7,7,0,0,0,6,11,0,0,8,9,11,0,0,0,0,0,0,0,0,0,0,0,0,0,0,0,0,0,0,0,0,0,0,0,0,0,0],"split_type":[0,0,0,0,0,0,0,0,0,0,0,0,0,0,0,0,0,0,0,0,0,0,0,0,0,0,0,0,0,0,0,0,0,0,0,0,0,0,0,0,0,0,0,0,0,0,0,0,0,0,0,0,0,0,0,0,0,0,0,0,0,0,0,0,0,0,0],"sum_hessian":[1.3195475E3,4.827072E2,8.368402E2,3.775944E1,4.4494778E2,5.856968E2,2.5114342E2,1.4085365E1,2.3674074E1,6.676011E1,3.7818765E2,3.4859317E2,2.3710362E2,1.2690299E2,1.2424042E2,3.2451887E0,1.0840177E1,2.1209703E1,2.4643714E0,6.458303E1,2.1770809E0,2.2153142E2,1.2706175E2,9.919489E1,1.3790874E2,1.09530396E2,1.7372595E1,8.072515E1,4.351527E1,6.1564302E0,1.5053272E1,6.1539024E1,3.0440042E0,7.215151E1,5.4910244E1,7.422763E1,2.4967264E1,8.7651024E1,5.0257713E1,2.0630098E1,8.89003E1,1.4551258E1,2.8213363E0,6.804481E1,1.2680343E1,9.278098E0,3.423717E1,2.487133E0,3.6692975E0,4.385676E0,1.0667597E1,1.1291716E1,5.0247307E1,2.1066637E1,3.384361E1,2.8547684E1,4.5679947E1,4.208353E0,4.604936E1,9.452471E0,1.1177628E1,8.681304E1,2.0872571E0,4.6707596E1,2.133721E1,3.1337106E0,9.546632E0],"tree_param":{"num_deleted":"0","num_feature":"12","num_nodes":"67","size_leaf_vector":"1"}},{"base_weights":[-2.2539042E-3,9.798194E-1,-5.7418764E-1,-5.104022E-1,1.1071421E0,-9.186568E-1,2.310303E-1,-4.6201687E-2,-2.4943876E-1,1.1211814E0,-2.6005375E-1,-5.8772653E-2,-7.2256273E-1,6.9273955E-1,-2.2391213E-1,1.0280219E-2,-4.751499E-1,8.9124423E-1,5.81686E-2,-3.847574E-2,1.694646E-2,-3.2484314E-1,-1.0070506E0,-7.1907096E-2,9.586386E-1,-8.695247E-1,9.500756E-1,-6.257283E-2,-3.298703E-2,5.6364685E-2,6.695621E-1,-9.0087456E-1,1.6722582E-1,-1.0450145E0,-2.6388368E-1,-3.6922634E-1,6.195552E-2,5.714422E-2,2.609012E-1,-5.3813197E-2,-4.6951994E-1,2.8379712E-1,5.7062306E-2,-2.2847254E-2,2.4877915E-2,1.1734953E-2,4.2872872E-2,-2.376171E-2,-5.0140418E-2,2.193544E-2,-2.5622448E-2,-5.5053044E-2,-3.910486E-2,-8.1300794E-4,-3.876884E-2,3.1002507E-2,-4.88831E-2,-1.8290816E-2,5.3701606E-2,-3.3612654E-2,5.966031E-3,-7.191807E-3,3.085041E-2],"categories":[],"categories_nodes":[],"categories_segments":[],"categories_sizes":[],"default_left":[0,0,0,0,0,0,0,0,0,0,0,0,0,0,0,0,0,0,0,0,0,0,0,0,0,0,0,0,0,0,0,0,0,0,0,0,0,0,0,0,0,0,0,0,0,0,0,0,0,0,0,0,0,0,0,0,0,0,0,0,0,0,0],"id":22,"left_children":[1,3,5,7,9,11,13,-1,15,17,19,-1,21,23,25,-1,27,29,-1,-1,-1,31,33,35,37,39,41,43,-1,-1,45,47,49,51,53,55,-1,-1,57,-1,59,61,-1,-1,-1,-1,-1,-1,-1,-1,-1,-1,-1,-1,-1,-1,-1,-1,-1,-1,-1,-1,-1],"loss_changes":[7.178729E2,8.981506E1,2.2424487E2,3.840025E0,8.615601E0,2.7647003E1,5.1155663E1,0E0,2.6132069E0,3.1293945E0,1.8536427E0,0E0,3.6272003E1,2.461935E1,9.4092476E1,0E0,1.2285237E0,2.9530296E0,0E0,0E0,0E0,3.8803032E1,5.0312195E0,1.2964122E1,1.1228447E1,6.103306E0,5.2981033E0,1.6099E0,0E0,0E0,2.9856873E0,2.255928E0,1.3950516E1,1.7709808E0,1.3147359E0,1.6812366E1,0E0,0E0,1.059839E1,0E0,3.542571E0,1.680623E0,0E0,0E0,0E0,0E0,0E0,0E0,0E0,0E0,0E0,0E0,0E0,0E0,0E0,0E0,0E0,0E0,0E0,0E0,0E0,0E0,0E0],"parents":[2147483647,0,0,1,1,2,2,3,3,4,4,5,5,6,6,8,8,9,9,10,10,12,12,13,13,14,14,16,16,17,17,21,21,22,22,23,23,24,24,25,25,26,26,27,27,30,30,31,31,32,32,33,33,34,34,35,35,38,38,40,40,41,41],"right_children":[2,4,6,8,10,12,14,-1,16,18,20,-1,22,24,26,-1,28,30,-1,-1,-1,32,34,36,38,40,42,44,-1,-1,46,48,50,52,54,56,-1,-1,58,-1,60,62,-1,-1,-1,-1,-1,-1,-1,-1,-1,-1,-1,-1,-1,-1,-1,-1,-1,-1,-1,-1,-1],"split_conditions":[1E0,2.3E1,3.9361804E0,1.9E1,5E0,2E1,3E0,-4.6201687E-2,3E0,2.8E1,3.8868423E0,-5.8772653E-2,3E0,2E0,3.5E1,1.0280219E-2,3.6682959E0,3E0,5.81686E-2,-3.847574E-2,1.694646E-2,2E0,3E1,3.6E1,2.3E1,2.7E1,4.5E1,3.5724313E0,-3.298703E-2,5.6364685E-2,2.5E1,1E0,2.3E1,3E0,3.8936608E0,1E0,6.195552E-2,5.714422E-2,4.134336E0,-5.3813197E-2,4.1403193E0,2E0,5.7062306E-2,-2.2847254E-2,2.4877915E-2,1.1734953E-2,4.2872872E-2,-2.376171E-2,-5.0140418E-2,2.193544E-2,-2.5622448E-2,-5.5053044E-2,-3.910486E-2,-8.1300794E-4,-3.876884E-2,3.1002507E-2,-4.88831E-2,-1.8290816E-2,5.3701606E-2,-3.3612654E-2,5.966031E-3,-7.191807E-3,3.085041E-2],"split_indices":[10,0,7,0,6,0,6,0,6,0,7,0,6,11,0,0,7,6,0,0,0,11,0,0,0,0,0,7,0,0,0,9,0,11,7,9,0,0,7,0,7,11,0,0,0,0,0,0,0,0,0,0,0,0,0,0,0,0,0,0,0,0,0],"split_type":[0,0,0,0,0,0,0,0,0,0,0,0,0,0,0,0,0,0,0,0,0,0,0,0,0,0,0,0,0,0,0,0,0,0,0,0,0,0,0,0,0,0,0,0,0,0,0,0,0,0,0,0,0,0,0,0,0,0,0,0,0,0,0],"sum_hessian":[1.276078E3,4.6938278E2,8.066952E2,3.6709957E1,4.3267282E2,5.648946E2,2.4180061E2,1.3218133E1,2.3491825E1,4.2845312E2,4.2196875E0,2.4242764E2,3.2246692E2,1.1974838E2,1.2205222E2,7.818495E0,1.5673331E1,6.985746E1,3.5859567E2,2.126394E0,2.0932932E0,1.3536537E2,1.8710155E2,3.108545E1,8.866293E1,7.8914185E1,4.313804E1,5.2586794E0,1.0414651E1,3.185391E1,3.800355E1,6.1979465E1,7.338591E1,1.7762178E2,9.47977E0,2.592452E1,5.1609287E0,6.96366E1,1.9026342E1,5.091075E1,2.8003433E1,1.0171669E1,3.296637E1,3.1940548E0,2.0646248E0,1.2144815E1,2.5858736E1,1.3069197E1,4.891027E1,5.269317E1,2.069274E1,1.4378342E2,3.3838356E1,7.0826926E0,2.3970766E0,9.865223E0,1.6059296E1,1.1055484E1,7.970858E0,2.0725985E1,7.2774477E0,4.703574E0,5.4680943E0],"tree_param":{"num_deleted":"0","num_feature":"12","num_nodes":"63","size_leaf_vector":"1"}},{"base_weights":[1.2668465E-4,9.8475206E-1,-5.6714696E-1,2.2510612E-1,1.1540586E0,-9.077404E-1,2.2890398E-1,4.4975104E-3,6.84908E-1,-7.5518913E-3,5.8520764E-2,-1.0844966E0,-6.433188E-1,6.656258E-1,-2.2631174E-1,1.18597984E-1,-5.1562972E-2,4.3666102E-2,3.4561232E-1,-5.755874E-2,-9.201204E-1,-1.8287264E-1,-9.739627E-1,9.225771E-1,-7.6503456E-1,-8.0522335E-1,5.966633E-2,-5.0361324E-2,6.949227E-1,-3.4458123E-2,3.386203E-2,-6.3408405E-1,-5.3014394E-2,1.4398809E-1,-5.801651E-2,-5.127989E-2,7.0703514E-2,5.3609658E-2,4.5247692E-1,-9.882566E-1,3.0910244E-2,-9.039687E-1,6.1752766E-1,2.5896754E-3,-3.439782E-2,-7.211283E-3,4.6940256E-2,7.4882805E-3,-4.1544784E-2,1.4082789E-2,-5.6793183E-2,5.33296E-2,-1.3238169E-2,-5.758155E-2,3.0003842E-3,-5.030447E-2,-3.3384077E-2,4.6779476E-2,4.5379563E-4],"categories":[],"categories_nodes":[],"categories_segments":[],"categories_sizes":[],"default_left":[0,0,0,0,0,0,0,0,0,0,0,0,0,0,0,0,0,0,0,0,0,0,0,0,0,0,0,0,0,0,0,0,0,0,0,0,0,0,0,0,0,0,0,0,0,0,0,0,0,0,0,0,0,0,0,0,0,0,0],"id":23,"left_children":[1,3,5,7,9,11,13,15,17,-1,-1,19,21,23,25,27,-1,-1,29,-1,31,33,35,37,39,41,-1,43,45,-1,-1,47,-1,49,-1,-1,-1,-1,51,53,-1,55,57,-1,-1,-1,-1,-1,-1,-1,-1,-1,-1,-1,-1,-1,-1,-1,-1],"loss_changes":[6.912974E2,5.792581E1,2.1311288E2,8.486736E0,8.069031E0,2.5015533E1,4.7087532E1,6.925477E0,1.4325409E0,0E0,0E0,2.5388184E0,3.375325E1,4.5094852E1,9.658056E1,5.171609E0,0E0,0E0,4.3586745E0,0E0,3.3256683E0,3.0322075E1,1.7417343E1,6.746544E0,6.4565096E0,1.2253006E1,0E0,2.7532723E0,2.5966396E0,0E0,0E0,5.567463E0,0E0,1.2939156E1,0E0,0E0,0E0,0E0,1.197827E1,2.9267483E0,0E0,1.2163162E0,1.1520021E0,0E0,0E0,0E0,0E0,0E0,0E0,0E0,0E0,0E0,0E0,0E0,0E0,0E0,0E0,0E0,0E0],"parents":[2147483647,0,0,1,1,2,2,3,3,4,4,5,5,6,6,7,7,8,8,11,11,12,12,13,13,14,14,15,15,18,18,20,20,21,21,22,22,23,23,24,24,25,25,27,27,28,28,31,31,33,33,38,38,39,39,41,41,42,42],"right_children":[2,4,6,8,10,12,14,16,18,-1,-1,20,22,24,26,28,-1,-1,30,-1,32,34,36,38,40,42,-1,44,46,-1,-1,48,-1,50,-1,-1,-1,-1,52,54,-1,56,58,-1,-1,-1,-1,-1,-1,-1,-1,-1,-1,-1,-1,-1,-1,-1,-1],"split_conditions":[1E0,2E0,3.9361804E0,3.9790978E0,3.625E0,3.736007E0,3E0,1E0,1E0,-7.5518913E-3,5.8520764E-2,3.641446E0,3E0,1E0,2E0,1E0,-5.1562972E-2,4.3666102E-2,3E0,-5.755874E-2,3E0,1E0,2E0,1E0,3E0,4.2634654E0,5.966633E-2,4E0,3E0,-3.4458123E-2,3.386203E-2,3.6682959E0,-5.3014394E-2,3.8868423E0,-5.801651E-2,-5.127989E-2,7.0703514E-2,5.3609658E-2,3.9395723E0,1E0,3.0910244E-2,4.060262E0,1E0,2.5896754E-3,-3.439782E-2,-7.211283E-3,4.6940256E-2,7.4882805E-3,-4.1544784E-2,1.4082789E-2,-5.6793183E-2,5.33296E-2,-1.3238169E-2,-5.758155E-2,3.0003842E-3,-5.030447E-2,-3.3384077E-2,4.6779476E-2,4.5379563E-4],"split_indices":[10,1,7,7,7,7,6,8,2,0,0,7,6,5,1,2,0,0,6,0,6,5,1,2,1,7,0,6,6,0,0,7,0,7,0,0,0,0,7,2,0,7,2,0,0,0,0,0,0,0,0,0,0,0,0,0,0,0,0],"split_type":[0,0,0,0,0,0,0,0,0,0,0,0,0,0,0,0,0,0,0,0,0,0,0,0,0,0,0,0,0,0,0,0,0,0,0,0,0,0,0,0,0,0,0,0,0,0,0,0,0,0,0,0,0,0,0,0,0,0,0],"sum_hessian":[1.2356599E3,4.514081E2,7.8425183E2,8.2696075E1,3.6871204E2,5.4915393E2,2.3509795E2,5.6566013E1,2.613006E1,4.4619474E0,3.642501E2,3.272787E2,2.2187523E2,1.1975039E2,1.1534756E2,5.175059E1,4.815423E0,1.5788587E1,1.0341474E1,2.2856104E2,9.871765E1,9.338408E1,1.2849115E2,1.0181858E2,1.7931808E1,8.2242744E1,3.3104816E1,4.0724216E1,1.1026374E1,2.2482316E0,8.093242E0,3.4282295E1,6.4435356E1,7.062114E1,2.2762941E1,1.2633011E2,2.1610372E0,7.62653E1,2.5553284E1,1.5686008E1,2.2458003E0,7.724615E1,4.996599E0,3.589235E1,4.8318686E0,2.574992E0,8.451383E0,6.928181E0,2.7354115E1,6.446668E1,6.1544504E0,1.3503903E1,1.204938E1,1.3485633E1,2.2003758E0,5.1660965E1,2.5585178E1,2.9282372E0,2.0683618E0],"tree_param":{"num_deleted":"0","num_feature":"12","num_nodes":"59","size_leaf_vector":"1"}},{"base_weights":[-7.2600287E-3,-6.943821E-1,7.414469E-1,-1.0378495E0,-3.5706884E-1,1.5281123E-1,1.0841125E0,-5.582084E-2,-7.3000556E-1,1.5591538E-1,-8.169222E-1,8.319659E-1,-5.0113386E-1,7.096675E-1,5.891232E-2,-3.3159947E-1,-4.8776764E-2,-1.8345727E-1,8.725076E-1,-5.050749E-1,-5.3203356E-2,5.315242E-2,1.2743317E-1,-8.780237E-1,2.5912715E-2,5.1209956E-2,-2.8486228E-1,-1.6358547E-1,-5.2933045E-2,5.2922475E-1,-4.7886604E-1,-4.141855E-1,1.019797E0,-1.2506509E-1,-5.9616864E-2,5.4195035E-2,-7.87564E-1,-6.632391E-1,-5.5355877E-2,-3.3063218E-1,3.6967355E-1,-4.587504E-2,5.769331E-2,-2.215415E-2,1.2691173E-2,3.8632046E-2,-1.4646604E-2,-3.3714388E-2,7.295839E-4,-4.0729728E-2,4.193049E-3,2.9387651E-2,5.937999E-2,5.4847575E-3,-5.4188352E-2,-5.9455812E-2,3.639544E-2,-5.288563E-2,-2.10864E-2,5.0730216E-3,-4.290649E-2,3.0324576E-2,-3.0546997E-2],"categories":[],"categories_nodes":[],"categories_segments":[],"categories_sizes":[],"default_left":[0,0,0,0,0,0,0,0,0,0,0,0,0,0,0,0,0,0,0,0,0,0,0,0,0,0,0,0,0,0,0,0,0,0,0,0,0,0,0,0,0,0,0,0,0,0,0,0,0,0,0,0,0,0,0,0,0,0,0,0,0,0,0],"id":24,"left_children":[1,3,5,7,9,11,13,-1,15,17,19,21,23,25,-1,27,-1,29,31,33,-1,-1,35,37,39,-1,41,43,-1,45,47,49,51,53,-1,-1,55,57,-1,59,61,-1,-1,-1,-1,-1,-1,-1,-1,-1,-1,-1,-1,-1,-1,-1,-1,-1,-1,-1,-1,-1,-1],"loss_changes":[6.218354E2,7.265146E1,1.16510315E2,6.7255554E0,7.550003E1,9.546069E1,1.2045166E1,0E0,6.1600113E0,3.709407E1,1.2460091E1,1.7016457E1,2.1802958E1,2.4043552E1,0E0,3.099028E0,0E0,2.2125364E1,9.705509E0,1.9820917E1,0E0,0E0,2.4620167E1,2.4128876E0,5.844603E0,0E0,1.8376345E1,2.7889428E0,0E0,6.4138985E0,7.142971E0,1.2134768E0,2.5093727E0,1.1452293E1,0E0,0E0,9.664087E0,2.9364681E0,0E0,5.431007E0,6.000244E0,0E0,0E0,0E0,0E0,0E0,0E0,0E0,0E0,0E0,0E0,0E0,0E0,0E0,0E0,0E0,0E0,0E0,0E0,0E0,0E0,0E0,0E0],"parents":[2147483647,0,0,1,1,2,2,3,3,4,4,5,5,6,6,8,8,9,9,10,10,11,11,12,12,13,13,15,15,17,17,18,18,19,19,22,22,23,23,24,24,26,26,27,27,29,29,30,30,31,31,32,32,33,33,36,36,37,37,39,39,40,40],"right_children":[2,4,6,8,10,12,14,-1,16,18,20,22,24,26,-1,28,-1,30,32,34,-1,-1,36,38,40,-1,42,44,-1,46,48,50,52,54,-1,-1,56,58,-1,60,62,-1,-1,-1,-1,-1,-1,-1,-1,-1,-1,-1,-1,-1,-1,-1,-1,-1,-1,-1,-1,-1,-1],"split_conditions":[3.9361804E0,2.1E1,2E0,2E1,1E0,3E0,3E0,-5.582084E-2,3E0,2E0,3E0,1E0,2.8E1,1E0,5.891232E-2,2E0,-4.8776764E-2,3E0,2.3E1,1E0,-5.3203356E-2,5.315242E-2,3.9445488E0,1E0,4.079773E0,5.1209956E-2,3.4E1,3.7254806E0,-5.2933045E-2,2.4E1,2.6E1,3.7336607E0,3E0,1E0,-5.9616864E-2,5.4195035E-2,4.2545257E0,2.3E1,-5.5355877E-2,1E0,2E0,-4.587504E-2,5.769331E-2,-2.215415E-2,1.2691173E-2,3.8632046E-2,-1.4646604E-2,-3.3714388E-2,7.295839E-4,-4.0729728E-2,4.193049E-3,2.9387651E-2,5.937999E-2,5.4847575E-3,-5.4188352E-2,-5.9455812E-2,3.639544E-2,-5.288563E-2,-2.10864E-2,5.0730216E-3,-4.290649E-2,3.0324576E-2,-3.0546997E-2],"split_indices":[7,0,1,0,9,6,6,0,6,1,6,2,0,9,0,1,0,6,0,5,0,0,7,9,7,0,0,7,0,0,0,7,6,2,0,0,7,0,0,9,2,0,0,0,0,0,0,0,0,0,0,0,0,0,0,0,0,0,0,0,0,0,0],"split_type":[0,0,0,0,0,0,0,0,0,0,0,0,0,0,0,0,0,0,0,0,0,0,0,0,0,0,0,0,0,0,0,0,0,0,0,0,0,0,0,0,0,0,0,0,0,0,0,0,0,0,0,0,0,0,0,0,0,0,0,0,0,0,0],"sum_hessian":[1.2067302E3,6.292822E2,5.7744806E2,3.1076776E2,3.1851443E2,2.1299992E2,3.6444815E2,2.4548825E2,6.527951E1,1.5087192E2,1.6764252E2,1.04352455E2,1.0864747E2,7.4930176E1,2.8951797E2,2.578703E1,3.949248E1,1.0288863E2,4.798329E1,7.5464775E1,9.217774E1,7.819583E1,2.6156622E1,6.2959408E1,4.5688065E1,5.6903843E1,1.802633E1,