{"learner":{"attributes":{"best_iteration":"99","best_score":"0.2575245873611686"},"feature_names":["URL_length","Domain_length","No_of_dots","avg_token_length","token_count","largest_token","avg_domain_token_length","domain_token_count","largest_domain","avg_path_token","path_token_count","largest_path","sec_sen_word_cnt","IPaddress_presence","exe_in_url","hyphen_count_url"],"feature_types":["int","int","int","float","int","int","float","int","int","float","int","int","int","int","int","int"],"gradient_booster":{"model":{"gbtree_model_param":{"num_parallel_tree":"1","num_trees":"100"},"iteration_indptr":[0,1,2,3,4,5,6,7,8,9,10,11,12,13,14,15,16,17,18,19,20,21,22,23,24,25,26,27,28,29,30,31,32,33,34,35,36,37,38,39,40,41,42,43,44,45,46,47,48,49,50,51,52,53,54,55,56,57,58,59,60,61,62,63,64,65,66,67,68,69,70,71,72,73,74,75,76,77,78,79,80,81,82,83,84,85,86,87,88,89,90,91,92,93,94,95,96,97,98,99,100],"tree_info":[0,0,0,0,0,0,0,0,0,0,0,0,0,0,0,0,0,0,0,0,0,0,0,0,0,0,0,0,0,0,0,0,0,0,0,0,0,0,0,0,0,0,0,0,0,0,0,0,0,0,0,0,0,0,0,0,0,0,0,0,0,0,0,0,0,0,0,0,0,0,0,0,0,0,0,0,0,0,0,0,0,0,0,0,0,0,0,0,0,0,0,0,0,0,0,0,0,0,0,0],"trees":[{"base_weights":[-1.6038929E-3,-1.9086301E0,1.3100759E0,-1.9536784E-2,-1.7747573E0,-1.4665788E0,1.5173739E0,1.5555556E-2,-1.802321E-2,-1.8863049E0,1.9069767E-2,8.638394E-1,1.9986298E-2,-1.8946197E-2,-1.3333333E-3,-1.0839388E0,1.4489518E0,-1.5364806E-2,-4.44842E-3,-1.1128166E-2,1.725762E-2],"categories":[],"categories_nodes":[],"categories_segments":[],"categories_sizes":[],"default_left":[0,0,0,0,0,0,0,0,0,0,0,0,0,0,0,0,0,0,0,0,0],"id":0,"left_children":[1,3,5,-1,7,9,11,-1,-1,13,-1,15,-1,-1,-1,17,19,-1,-1,-1,-1],"loss_changes":[4.6017773E4,3.1341797E1,6.282742E3,0E0,1.884956E2,1.0894633E3,3.1837168E3,0E0,0E0,8.860596E0,0E0,4.9174023E3,0E0,0E0,0E0,2.8583337E2,2.3587803E3,0E0,0E0,0E0,0E0],"parents":[2147483647,0,0,1,1,2,2,4,4,5,5,6,6,9,9,11,11,15,15,16,16],"right_children":[2,4,6,-1,8,10,12,-1,-1,14,-1,16,-1,-1,-1,18,20,-1,-1,-1,-1],"split_conditions":[4E0,2.3E1,2.1E1,-1.9536784E-2,1.6E1,1E0,1E0,1.5555556E-2,-1.802321E-2,3E0,1.9069767E-2,2.6E1,1.9986298E-2,-1.8946197E-2,-1.3333333E-3,2.4E1,2E0,-1.5364806E-2,-4.44842E-3,-1.1128166E-2,1.725762E-2],"split_indices":[4,0,0,0,1,11,11,0,0,2,0,0,0,0,0,0,2,0,0,0,0],"split_type":[0,0,0,0,0,0,0,0,0,0,0,0,0,0,0,0,0,0,0,0,0],"sum_hessian":[1.838875E4,7.493E3,1.089575E4,5.56575E3,1.92725E3,7.5525E2,1.01405E4,1.4E1,1.91325E3,6.7325E2,8.2E1,4.30525E3,5.83525E3,6.6975E2,3.5E0,9.9375E2,3.3115E3,5.785E2,4.1525E2,3.2175E2,2.98975E3],"tree_param":{"num_deleted":"0","num_feature":"16","num_nodes":"21","size_leaf_vector":"1"}},{"base_weights":[1.5427212E-3,-9.428183E-1,1.9788917E-2,-1.8483057E0,1.0111815E0,-1.9093949E0,-1.6957374E0,-1.3038218E0,1.5814776E0,-1.911018E-2,7.7352E-3,-1.7698514E0,-1.4182919E0,-1.6597538E0,-5.6333905E-1,8.15165E-1,1.8289005E0,-1.772929E-2,-3.246728E-3,-1.4972225E-2,-9.919611E-3,-1.7525472E-2,9.363568E-3,1.2528325E-2,-1.296708E-2,1.4784844E-2,-7.6914774E-3,1.9504016E-2,1.6023232E-2],"categories":[],"categories_nodes":[],"categories_segments":[],"categories_sizes":[],"default_left":[0,0,0,0,0,0,0,0,0,0,0,0,0,0,0,0,0,0,0,0,0,0,0,0,0,0,0,0,0],"id":1,"left_children":[1,3,-1,5,7,9,11,13,15,-1,-1,17,19,21,23,25,27,-1,-1,-1,-1,-1,-1,-1,-1,-1,-1,-1,-1],"loss_changes":[3.432928E4,2.2021355E4,0E0,6.630469E1,5.21325E3,3.221875E1,4.0688965E1,2.02219E2,5.941362E2,0E0,0E0,6.2851562E0,1.2238525E1,1.3320813E2,3.5244922E2,8.2394653E2,5.3276367E1,0E0,0E0,0E0,0E0,0E0,0E0,0E0,0E0,0E0,0E0,0E0,0E0],"parents":[2147483647,0,0,1,1,3,3,4,4,5,5,6,6,7,7,8,8,11,11,12,12,13,13,14,14,15,15,16,16],"right_children":[2,4,-1,6,8,10,12,14,16,-1,-1,18,20,22,24,26,28,-1,-1,-1,-1,-1,-1,-1,-1,-1,-1,-1,-1],"split_conditions":[1E0,2E0,1.9788917E-2,1.6E1,1.7E1,1.3E1,3E0,1.5E1,2.2E1,-1.911018E-2,7.7352E-3,3.2E1,6.428571E0,3E0,8E0,1.1E1,1.5E1,-1.772929E-2,-3.246728E-3,-1.4972225E-2,-9.919611E-3,-1.7525472E-2,9.363568E-3,1.2528325E-2,-1.296708E-2,1.4784844E-2,-7.6914774E-3,1.9504016E-2,1.6023232E-2],"split_indices":[9,2,0,1,1,5,7,1,1,0,0,5,6,2,8,8,8,0,0,0,0,0,0,0,0,0,0,0,0],"split_type":[0,0,0,0,0,0,0,0,0,0,0,0,0,0,0,0,0,0,0,0,0,0,0,0,0,0,0,0,0],"sum_hessian":[1.8376143E4,1.2437985E4,5.9381577E3,8.499512E3,3.9384744E3,6.0364326E3,2.4630789E3,7.774453E2,3.161029E3,6.0339326E3,2.4999228E0,1.9268438E3,5.3623517E2,5.2170746E2,2.5573782E2,7.7570654E2,2.3853225E3,1.921844E3,4.999682E0,4.43988E2,9.224715E1,5.0495834E2,1.6749132E1,7.274735E1,1.8299048E2,5.46969E2,2.2873756E2,1.5328859E3,8.524365E2],"tree_param":{"num_deleted":"0","num_feature":"16","num_nodes":"29","size_leaf_vector":"1"}},{"base_weights":[9.894926E-4,-9.365798E-1,1.9597018E-2,-1.8338958E0,9.910768E-1,-1.8985054E-2,-1.6128597E0,-1.4103198E0,1.6310267E0,1.7872041E-2,-1.6688411E0,-1.6457778E0,-8.314313E-4,9.265221E-1,1.84462E0,-1.7671127E-2,-1.3442601E-2,-1.825534E-2,-1.18673E-2,1.869098E-2,-1.6498884E-2,1.7324898E-2,-8.111136E-3,1.943537E-2,1.56111885E-2],"categories":[],"categories_nodes":[],"categories_segments":[],"categories_sizes":[],"default_left":[0,0,0,0,0,0,0,0,0,0,0,0,0,0,0,0,0,0,0,0,0,0,0,0,0],"id":2,"left_children":[1,3,-1,5,7,-1,9,11,13,-1,15,17,19,21,23,-1,-1,-1,-1,-1,-1,-1,-1,-1,-1],"loss_changes":[3.380755E4,2.1542264E4,0E0,1.090957E2,6.090492E3,0E0,3.8280225E2,2.7704468E2,4.6361328E2,0E0,5.170752E1,5.035901E1,3.9314923E2,1.0355065E3,5.5026367E1,0E0,0E0,0E0,0E0,0E0,0E0,0E0,0E0,0E0,0E0],"parents":[2147483647,0,0,1,1,3,3,4,4,6,6,7,7,8,8,10,10,11,11,12,12,13,13,14,14],"right_children":[2,4,-1,6,8,-1,10,12,14,-1,16,18,20,22,24,-1,-1,-1,-1,-1,-1,-1,-1,-1,-1],"split_conditions":[1E0,2E0,1.9597018E-2,2.4E1,2.5E1,-1.8985054E-2,1.7E1,2.4E1,3E1,1.7872041E-2,1E0,2.2E1,1.7E1,1.1E1,1.6E1,-1.7671127E-2,-1.3442601E-2,-1.825534E-2,-1.18673E-2,1.869098E-2,-1.6498884E-2,1.7324898E-2,-8.111136E-3,1.943537E-2,1.56111885E-2],"split_indices":[9,2,0,0,0,0,1,0,0,0,15,0,1,5,8,0,0,0,0,0,0,0,0,0,0],"split_type":[0,0,0,0,0,0,0,0,0,0,0,0,0,0,0,0,0,0,0,0,0,0,0,0,0],"sum_hessian":[1.8401404E4,1.2446009E4,5.9553955E3,8.492828E3,3.953181E3,6.5483613E3,1.944467E3,8.3080176E2,3.1223792E3,2.9492981E1,1.914974E3,7.11306E2,1.1949576E2,7.313813E2,2.3909978E3,1.4562855E3,4.586885E2,5.0259164E2,2.0871437E2,5.574763E1,6.3748127E1,4.9964343E2,2.3173785E2,1.7551738E3,6.35824E2],"tree_param":{"num_deleted":"0","num_feature":"16","num_nodes":"25","size_leaf_vector":"1"}},{"base_weights":[-7.048596E-4,-1.8512014E0,1.2725985E0,-1.895595E-2,-1.7195961E0,-1.3994932E0,1.4728773E0,1.5732411E-2,-1.7468473E-2,-1.8308934E-2,1.8579682E-2,8.330898E-1,1.9410295E-2,-6.654497E-1,1.5594159E0,-1.4997151E-2,-7.623086E-4,9.5868725E-3,1.7694427E-2],"categories":[],"categories_nodes":[],"categories_segments":[],"categories_sizes":[],"default_left":[0,0,0,0,0,0,0,0,0,0,0,0,0,0,0,0,0,0,0],"id":3,"left_children":[1,3,5,-1,7,9,11,-1,-1,-1,-1,13,-1,15,17,-1,-1,-1,-1],"loss_changes":[4.338905E4,3.0814453E1,5.8460703E3,0E0,1.8475049E2,1.085345E3,3.0335938E3,0E0,0E0,0E0,0E0,4.679772E3,0E0,6.902841E2,3.5841943E2,0E0,0E0,0E0,0E0],"parents":[2147483647,0,0,1,1,2,2,4,4,5,5,6,6,11,11,13,13,14,14],"right_children":[2,4,6,-1,8,10,12,-1,-1,-1,-1,14,-1,16,18,-1,-1,-1,-1],"split_conditions":[4E0,2.3E1,2.1E1,-1.895595E-2,1.6E1,1E0,1E0,1.5732411E-2,-1.7468473E-2,-1.8308934E-2,1.8579682E-2,2.8E1,1.9410295E-2,2.4E1,3.2E1,-1.4997151E-2,-7.623086E-4,9.5868725E-3,1.7694427E-2],"split_indices":[4,0,0,0,1,9,9,0,0,0,0,0,0,0,0,0,0,0,0],"split_type":[0,0,0,0,0,0,0,0,0,0,0,0,0,0,0,0,0,0,0],"sum_hessian":[1.8406502E4,7.5020005E3,1.0904501E4,5.569624E3,1.9323766E3,7.586567E2,1.0145845E4,1.399822E1,1.9183783E3,6.714812E2,8.717551E1,4.291755E3,5.85409E3,1.4011888E3,2.890566E3,5.7743164E2,8.237572E2,7.545696E2,2.1359963E3],"tree_param":{"num_deleted":"0","num_feature":"16","num_nodes":"19","size_leaf_vector":"1"}},{"base_weights":[-1.8448242E-3,-1.8332314E0,1.2605792E0,-1.8779289E-2,-1.7007625E0,-1.406248E0,1.4632394E0,1.584336E-2,-1.7297905E-2,-1.8196679E0,1.839179E-2,8.3691865E-1,1.9229181E-2,-1.8291708E-2,1.3316212E-4,-1.0555423E0,1.3990787E0,-1.4927039E-2,-4.343608E-3,-1.0870249E-2,1.6645594E-2],"categories":[],"categories_nodes":[],"categories_segments":[],"categories_sizes":[],"default_left":[0,0,0,0,0,0,0,0,0,0,0,0,0,0,0,0,0,0,0,0,0],"id":4,"left_children":[1,3,5,-1,7,9,11,-1,-1,13,-1,15,-1,-1,-1,17,19,-1,-1,-1,-1],"loss_changes":[4.2410863E4,3.1544922E1,5.8769297E3,0E0,1.9508691E2,1.045101E3,2.8996191E3,0E0,0E0,1.2012695E1,0E0,4.5587656E3,0E0,0E0,0E0,2.641797E2,2.186041E3,0E0,0E0,0E0,0E0],"parents":[2147483647,0,0,1,1,2,2,4,4,5,5,6,6,9,9,11,11,15,15,16,16],"right_children":[2,4,6,-1,8,10,12,-1,-1,14,-1,16,-1,-1,-1,18,20,-1,-1,-1,-1],"split_conditions":[4E0,2.3E1,2.1E1,-1.8779289E-2,1.6E1,1E0,1E0,1.584336E-2,-1.7297905E-2,3E0,1.839179E-2,2.6E1,1.9229181E-2,-1.8291708E-2,1.3316212E-4,2.4E1,2E0,-1.4927039E-2,-4.343608E-3,-1.0870249E-2,1.6645594E-2],"split_indices":[4,0,0,0,1,10,10,0,0,2,0,0,0,0,0,0,2,0,0,0,0],"split_type":[0,0,0,0,0,0,0,0,0,0,0,0,0,0,0,0,0,0,0,0,0],"sum_hessian":[1.8335908E4,7.4811973E3,1.085471E4,5.5543516E3,1.9268457E3,7.649463E2,1.0089764E4,1.4999827E1,1.911846E3,6.8007227E2,8.4874016E1,4.2755405E3,5.8142236E3,6.76573E2,3.4992878E0,9.783851E2,3.2971553E3,5.709573E2,4.074278E2,3.1692462E2,2.9802307E3],"tree_param":{"num_deleted":"0","num_feature":"16","num_nodes":"21","size_leaf_vector":"1"}},{"base_weights":[3.4734835E-3,-9.0369624E-1,1.9053863E-2,-1.6049734E0,1.2874805E0,-1.826439E0,-8.9961386E-1,-1.401515E0,1.5993043E0,-1.861167E-2,-1.703574E0,-1.6543761E0,5.2132268E-2,1.6475542E-2,-1.6268382E0,1.0676291E0,1.7404019E0,1.5880076E-2,-1.7396713E-2,-1.6683463E-2,1.1086933E-2,5.856781E-3,-9.936424E-3,-1.6478961E-2,3.2624402E-3,1.3845255E-2,-1.2311621E-2,1.4872324E-2,1.792444E-2],"categories":[],"categories_nodes":[],"categories_segments":[],"categories_sizes":[],"default_left":[0,0,0,0,0,0,0,0,0,0,0,0,0,0,0,0,0,0,0,0,0,0,0,0,0,0,0,0,0],"id":5,"left_children":[1,3,-1,5,7,9,11,13,15,-1,17,19,21,-1,23,25,27,-1,-1,-1,-1,-1,-1,-1,-1,-1,-1,-1,-1],"loss_changes":[3.1715215E4,1.9132416E4,0E0,1.4665039E3,2.5409268E3,1.7919922E1,1.6246375E3,2.2776178E2,1.9569678E2,0E0,2.044707E2,5.6082764E1,5.62505E2,0E0,1.4332092E1,4.280467E2,1.7447266E1,0E0,0E0,0E0,0E0,0E0,0E0,0E0,0E0,0E0,0E0,0E0,0E0],"parents":[2147483647,0,0,1,1,3,3,4,4,5,5,6,6,7,7,8,8,10,10,11,11,12,12,14,14,15,15,16,16],"right_children":[2,4,-1,6,8,10,12,14,16,-1,18,20,22,-1,24,26,28,-1,-1,-1,-1,-1,-1,-1,-1,-1,-1,-1,-1],"split_conditions":[1E0,2.9E1,1.9053863E-2,3E0,3E0,2.3E1,2.4E1,1.02E1,3.2E1,-1.861167E-2,7.111111E0,1E0,1E1,1.6475542E-2,5E1,1.5E1,3.4E1,1.5880076E-2,-1.7396713E-2,-1.6683463E-2,1.1086933E-2,5.856781E-3,-9.936424E-3,-1.6478961E-2,3.2624402E-3,1.3845255E-2,-1.2311621E-2,1.4872324E-2,1.792444E-2],"split_indices":[9,0,0,7,7,0,0,6,0,0,6,13,5,0,0,5,0,0,0,0,0,0,0,0,0,0,0,0,0],"split_type":[0,0,0,0,0,0,0,0,0,0,0,0,0,0,0,0,0,0,0,0,0,0,0,0,0,0,0,0,0],"sum_hessian":[1.8373828E4,1.2441576E4,5.9322524E3,9.425919E3,3.0156567E3,7.16875E3,2.257169E3,3.1191312E2,2.7037437E3,5.544883E3,1.6238676E3,1.2572112E3,9.9995795E2,1.9726511E1,2.921866E2,5.742301E2,2.1295137E3,1.5749677E1,1.6081178E3,1.2524634E3,4.7477603E0,6.6330493E2,3.36653E2,2.8968823E2,2.4983637E0,5.0605896E2,6.817114E1,3.8327994E2,1.7462336E3],"tree_param":{"num_deleted":"0","num_feature":"16","num_nodes":"29","size_leaf_vector":"1"}},{"base_weights":[-2.7095824E-3,-1.8015349E0,1.2391707E0,-1.8449668E-2,-1.6726093E0,-1.3626604E0,1.436318E0,1.5752627E-2,-1.7025774E-2,-1.780068E-2,1.8088663E-2,8.218426E-1,1.8882273E-2,-1.032793E0,1.377151E0,-1.459332E-2,-4.4082315E-3,4.89029E-3,1.6434968E-2],"categories":[],"categories_nodes":[],"categories_segments":[],"categories_sizes":[],"default_left":[0,0,0,0,0,0,0,0,0,0,0,0,0,0,0,0,0,0,0],"id":6,"left_children":[1,3,5,-1,7,9,11,-1,-1,-1,-1,13,-1,15,17,-1,-1,-1,-1],"loss_changes":[4.102184E4,2.9654297E1,5.580088E3,0E0,1.9884131E2,1.0285312E3,2.798455E3,0E0,0E0,0E0,0E0,4.421117E3,0E0,2.474436E2,7.776499E2,0E0,0E0,0E0,0E0],"parents":[2147483647,0,0,1,1,2,2,4,4,5,5,6,6,11,11,13,13,14,14],"right_children":[2,4,6,-1,8,10,12,-1,-1,-1,-1,14,-1,16,18,-1,-1,-1,-1],"split_conditions":[4E0,2.3E1,2.1E1,-1.8449668E-2,1.6E1,1E0,1E0,1.5752627E-2,-1.7025774E-2,-1.780068E-2,1.8088663E-2,2.6E1,1.8882273E-2,2.4E1,3E1,-1.459332E-2,-4.4082315E-3,4.89029E-3,1.6434968E-2],"split_indices":[4,0,0,0,1,10,10,0,0,0,0,0,0,0,0,0,0,0,0],"split_type":[0,0,0,0,0,0,0,0,0,0,0,0,0,0,0,0,0,0,0],"sum_hessian":[1.8355121E4,7.495834E3,1.0859287E4,5.56715E3,1.928684E3,7.632133E2,1.0096074E4,1.5747556E1,1.9129364E3,6.759994E2,8.7213936E1,4.2832617E3,5.812812E3,9.861727E2,3.2970889E3,5.697694E2,4.1640335E2,7.632844E2,2.5338044E3],"tree_param":{"num_deleted":"0","num_feature":"16","num_nodes":"19","size_leaf_vector":"1"}},{"base_weights":[-2.0146407E-3,-1.7862351E0,1.2274976E0,-1.827451E-2,-1.6643152E0,-1.3612145E0,1.42112E0,1.5579334E-2,-1.6935468E-2,-1.7706157E0,1.7916529E-2,8.078942E-1,1.8716022E-2,-1.7833786E-2,7.3272125E-3,-1.0126992E0,1.358627E0,-1.622804E-2,-5.895229E-3,-1.0957204E-2,1.6197052E-2],"categories":[],"categories_nodes":[],"categories_segments":[],"categories_sizes":[],"default_left":[0,0,0,0,0,0,0,0,0,0,0,0,0,0,0,0,0,0,0,0,0],"id":7,"left_children":[1,3,5,-1,7,9,11,-1,-1,13,-1,15,-1,-1,-1,17,19,-1,-1,-1,-1],"loss_changes":[4.0262504E4,2.5458984E1,5.454051E3,0E0,1.9296191E2,9.913594E2,2.7872695E3,0E0,0E0,2.6731445E1,0E0,4.306253E3,0E0,0E0,0E0,2.5396191E2,2.1183677E3,0E0,0E0,0E0,0E0],"parents":[2147483647,0,0,1,1,2,2,4,4,5,5,6,6,9,9,11,11,15,15,16,16],"right_children":[2,4,6,-1,8,10,12,-1,-1,14,-1,16,-1,-1,-1,18,20,-1,-1,-1,-1],"split_conditions":[4E0,2.3E1,2.1E1,-1.827451E-2,7.111111E0,1E0,1E0,1.5579334E-2,-1.6935468E-2,1E0,1.7916529E-2,2.6E1,1.8716022E-2,-1.7833786E-2,7.3272125E-3,2E0,2E0,-1.622804E-2,-5.895229E-3,-1.0957204E-2,1.6197052E-2],"split_indices":[4,0,0,0,6,10,10,0,0,13,0,0,0,0,0,2,2,0,0,0,0],"split_type":[0,0,0,0,0,0,0,0,0,0,0,0,0,0,0,0,0,0,0,0,0],"sum_hessian":[1.8345521E4,7.483682E3,1.086184E4,5.5511265E3,1.9325557E3,7.541959E2,1.0107645E4,1.5493593E1,1.917062E3,6.6907043E2,8.512544E1,4.2853374E3,5.822307E3,6.6682117E2,2.2493064E0,9.9447644E2,3.2908608E3,4.026401E2,5.918363E2,3.1517465E2,2.9756863E3],"tree_param":{"num_deleted":"0","num_feature":"16","num_nodes":"21","size_leaf_vector":"1"}},{"base_weights":[-2.7852852E-3,-1.7704431E0,1.2146044E0,-1.812026E-2,-1.6479961E0,4.5236906E-1,1.8554926E-2,1.5300481E-2,-1.675505E-2,-1.2316356E0,1.2222056E0,-1.4337722E0,1.8943727E-2,-1.2862774E0,1.5395883E0,-1.522852E-2,-1.9857613E-3,-1.338541E-2,6.214872E-3,8.702137E-3,1.713952E-2],"categories":[],"categories_nodes":[],"categories_segments":[],"categories_sizes":[],"default_left":[0,0,0,0,0,0,0,0,0,0,0,0,0,0,0,0,0,0,0,0,0],"id":8,"left_children":[1,3,5,-1,7,9,-1,-1,-1,11,13,15,-1,17,19,-1,-1,-1,-1,-1,-1],"loss_changes":[3.9457473E4,2.613086E1,5.3008447E3,0E0,1.7984961E2,6.4423735E3,0E0,0E0,0E0,9.9632764E2,2.7221406E3,1.6021973E2,0E0,4.172223E1,3.4745898E2,0E0,0E0,0E0,0E0,0E0,0E0],"parents":[2147483647,0,0,1,1,2,2,4,4,5,5,9,9,10,10,11,11,13,13,14,14],"right_children":[2,4,6,-1,8,10,-1,-1,-1,12,14,16,-1,18,20,-1,-1,-1,-1,-1,-1],"split_conditions":[4E0,6.09375E0,1E0,-1.812026E-2,1.6E1,1.8E1,1.8554926E-2,1.5300481E-2,-1.675505E-2,4.8E0,2E0,5E0,1.8943727E-2,7.8333335E0,2.2E1,-1.522852E-2,-1.9857613E-3,-1.338541E-2,6.214872E-3,8.702137E-3,1.713952E-2],"split_indices":[4,3,9,0,1,1,0,0,0,3,2,4,0,3,1,0,0,0,0,0,0],"split_type":[0,0,0,0,0,0,0,0,0,0,0,0,0,0,0,0,0,0,0,0,0],"sum_hessian":[1.832787E4,7.4739E3,1.0853969E4,5.537997E3,1.9359031E3,4.9607563E3,5.8932124E3,1.4738339E1,1.9211648E3,1.5555712E3,3.4051853E3,1.4631266E3,9.244458E1,3.8107657E2,3.0241086E3,1.3638379E3,9.9288795E1,3.7207693E2,8.999628E0,6.299026E2,2.394206E3],"tree_param":{"num_deleted":"0","num_feature":"16","num_nodes":"21","size_leaf_vector":"1"}},{"base_weights":[2.2593178E-3,-1.7553594E0,1.205646E0,-1.7964987E-2,-1.6336405E0,4.4713354E-1,1.839758E-2,1.5293075E-2,-1.6621409E-2,-9.716766E-1,1.2616911E0,-1.5018432E0,6.5430075E-1,-1.1041998E0,1.5401329E0,-1.696343E-2,-9.249281E-3,-1.3540662E-2,1.1752397E-2,1.3230521E-2,-1.1801477E-2,1.3572459E-2,1.8208805E-2],"categories":[],"categories_nodes":[],"categories_segments":[],"categories_sizes":[],"default_left":[0,0,0,0,0,0,0,0,0,0,0,0,0,0,0,0,0,0,0,0,0,0,0],"id":9,"left_children":[1,3,5,-1,7,9,-1,-1,-1,11,13,15,17,19,21,-1,-1,-1,-1,-1,-1,-1,-1],"loss_changes":[3.865014E4,2.5447266E1,5.213881E3,0E0,1.832583E2,5.719017E3,0E0,0E0,0E0,1.5603804E3,2.0771172E3,1.4664331E2,4.7376648E2,6.767874E1,1.3457324E2,0E0,0E0,0E0,0E0,0E0,0E0,0E0,0E0],"parents":[2147483647,0,0,1,1,2,2,4,4,5,5,9,9,10,10,11,11,12,12,13,13,14,14],"right_children":[2,4,6,-1,8,10,-1,-1,-1,12,14,16,18,20,22,-1,-1,-1,-1,-1,-1,-1,-1],"split_conditions":[4E0,6.09375E0,1E0,-1.7964987E-2,7.111111E0,4.8E0,1.839758E-2,1.5293075E-2,-1.6621409E-2,5E0,2E0,4.3333335E0,2E0,3E0,5E0,-1.696343E-2,-9.249281E-3,-1.3540662E-2,1.1752397E-2,1.3230521E-2,-1.1801477E-2,1.3572459E-2,1.8208805E-2],"split_indices":[4,3,9,0,6,3,0,0,0,4,2,3,2,7,4,0,0,0,0,0,0,0,0],"split_type":[0,0,0,0,0,0,0,0,0,0,0,0,0,0,0,0,0,0,0,0,0,0,0],"sum_hessian":[1.8265473E4,7.422553E3,1.084292E4,5.506422E3,1.9161312E3,4.940277E3,5.9026436E3,1.52305E1,1.9009008E3,1.8015444E3,3.1387322E3,1.3587993E3,4.427451E2,3.2925177E2,2.8094805E3,1.0103955E3,3.4840384E2,8.987075E1,3.5287433E2,7.9967895E0,3.2125497E2,1.7153748E3,1.0941057E3],"tree_param":{"num_deleted":"0","num_feature":"16","num_nodes":"23","size_leaf_vector":"1"}},{"base_weights":[1.3762969E-3,-1.7401104E0,1.196383E0,-1.7816167E-2,-1.6177661E0,4.4707215E-1,1.8244304E-2,1.5179264E-2,-1.6459377E-2,-8.966806E-1,1.374913E0,-1.3034911E0,3.9815405E-1,8.215497E-1,1.6536069E0,-1.485888E-2,7.7056064E-4,9.239594E-3,-1.0755961E-2,1.0928371E-2,-8.136057E-3,1.0985183E-2,1.6684188E-2],"categories":[],"categories_nodes":[],"categories_segments":[],"categories_sizes":[],"default_left":[0,0,0,0,0,0,0,0,0,0,0,0,0,0,0,0,0,0,0,0,0,0,0],"id":10,"left_children":[1,3,5,-1,7,9,-1,-1,-1,11,13,15,17,19,21,-1,-1,-1,-1,-1,-1,-1,-1],"loss_changes":[3.7982418E4,2.6189453E1,5.0904863E3,0E0,1.800415E2,6.1650264E3,0E0,0E0,0E0,1.0663772E3,4.4554443E2,3.878374E2,3.8065857E2,4.4157397E2,8.626953E0,0E0,0E0,0E0,0E0,0E0,0E0,0E0,0E0],"parents":[2147483647,0,0,1,1,2,2,4,4,5,5,9,9,10,10,11,11,12,12,13,13,14,14],"right_children":[2,4,6,-1,8,10,-1,-1,-1,12,14,16,18,20,22,-1,-1,-1,-1,-1,-1,-1,-1],"split_conditions":[4E0,6.09375E0,1E0,-1.7816167E-2,1.6E1,2E1,1.8244304E-2,1.5179264E-2,-1.6459377E-2,4.8E0,2.5E1,5E0,1.1E1,1.4E1,4.428571E0,-1.485888E-2,7.7056064E-4,9.239594E-3,-1.0755961E-2,1.0928371E-2,-8.136057E-3,1.0985183E-2,1.6684188E-2],"split_indices":[4,3,10,0,1,1,0,0,0,3,1,4,8,8,3,0,0,0,0,0,0,0,0],"split_type":[0,0,0,0,0,0,0,0,0,0,0,0,0,0,0,0,0,0,0,0,0,0,0],"sum_hessian":[1.8243227E4,7.4233438E3,1.0819884E4,5.502366E3,1.9209775E3,4.9367695E3,5.8831143E3,1.5221284E1,1.9057562E3,2.0164966E3,2.920273E3,1.5343945E3,4.8210205E2,9.8342194E2,1.936851E3,1.3550598E3,1.7933473E2,3.5642776E2,1.25674286E2,8.446186E2,1.3880338E2,5.8153908E1,1.878697E3],"tree_param":{"num_deleted":"0","num_feature":"16","num_nodes":"23","size_leaf_vector":"1"}},{"base_weights":[6.3196365E-3,-1.7250386E0,1.1876879E0,-1.7671775E-2,-1.5998976E0,4.4602984E-1,1.8095205E-2,1.5015535E-2,-1.6275525E-2,-8.8305527E-1,1.3637451E0,-1.2966479E0,4.288932E-1,-1.2228717E0,1.6072041E0,-1.4784336E-2,5.52182E-4,9.555269E-3,-1.0845552E-2,-1.467484E-2,-5.900101E-3,1.2519894E-2,1.758795E-2],"categories":[],"categories_nodes":[],"categories_segments":[],"categories_sizes":[],"default_left":[0,0,0,0,0,0,0,0,0,0,0,0,0,0,0,0,0,0,0,0,0,0,0],"id":11,"left_children":[1,3,5,-1,7,9,-1,-1,-1,11,13,15,17,19,21,-1,-1,-1,-1,-1,-1,-1,-1],"loss_changes":[3.7390785E4,2.7789062E1,5.0081387E3,0E0,1.7359717E2,6.055803E3,0E0,0E0,0E0,1.10305E3,1.8568926E3,3.79636E2,3.9411322E2,3.599054E1,1.3579053E2,0E0,0E0,0E0,0E0,0E0,0E0,0E0,0E0],"parents":[2147483647,0,0,1,1,2,2,4,4,5,5,9,9,10,10,11,11,12,12,13,13,14,14],"right_children":[2,4,6,-1,8,10,-1,-1,-1,12,14,16,18,20,22,-1,-1,-1,-1,-1,-1,-1,-1],"split_conditions":[4E0,6.09375E0,1E0,-1.7671775E-2,1.6E1,2E1,1.8095205E-2,1.5015535E-2,-1.6275525E-2,4.8E0,2E0,5E0,1.1E1,6.09375E0,2.5E1,-1.4784336E-2,5.52182E-4,9.555269E-3,-1.0845552E-2,-1.467484E-2,-5.900101E-3,1.2519894E-2,1.758795E-2],"split_indices":[4,3,9,0,1,1,0,0,0,3,2,4,8,3,1,0,0,0,0,0,0,0,0],"split_type":[0,0,0,0,0,0,0,0,0,0,0,0,0,0,0,0,0,0,0,0,0,0,0],"sum_hessian":[1.8272674E4,7.4104385E3,1.0862235E4,5.5044404E3,1.9059982E3,4.956956E3,5.905279E3,1.4961037E1,1.8910371E3,2.0247518E3,2.9322043E3,1.5394772E3,4.852746E2,2.5086034E2,2.681344E3,1.3566709E3,1.8280635E2,3.6109808E2,1.2417649E2,1.7712363E2,7.37367E1,8.1309644E2,1.8682476E3],"tree_param":{"num_deleted":"0","num_feature":"16","num_nodes":"23","size_leaf_vector":"1"}},{"base_weights":[-1.5085533E-4,-1.7119647E0,1.1732963E0,-1.7534696E-2,-1.5893734E0,-1.318651E0,1.3608834E0,1.4906762E-2,-1.6167564E-2,-1.6994836E0,1.7162435E-2,7.7361786E-1,1.7949142E-2,-1.7119085E-2,7.260293E-3,-1.3504164E0,1.2094023E0,-1.3905624E-2,9.724153E-3,-8.732093E-3,1.5033882E-2],"categories":[],"categories_nodes":[],"categories_segments":[],"categories_sizes":[],"default_left":[0,0,0,0,0,0,0,0,0,0,0,0,0,0,0,0,0,0,0,0,0],"id":12,"left_children":[1,3,5,-1,7,9,11,-1,-1,13,-1,15,-1,-1,-1,17,19,-1,-1,-1,-1],"loss_changes":[3.6543195E4,2.6498047E1,5.052626E3,0E0,1.7108105E2,8.873469E2,2.5534883E3,0E0,0E0,2.5319336E1,0E0,3.962382E3,0E0,0E0,0E0,7.3431885E1,2.177712E3,0E0,0E0,0E0,0E0],"parents":[2147483647,0,0,1,1,2,2,4,4,5,5,6,6,9,9,11,11,15,15,16,16],"right_children":[2,4,6,-1,8,10,12,-1,-1,14,-1,16,-1,-1,-1,18,20,-1,-1,-1,-1],"split_conditions":[4E0,2.3E1,2.1E1,-1.7534696E-2,1.6E1,1E0,1E0,1.4906762E-2,-1.6167564E-2,1E0,1.7162435E-2,2E0,1.7949142E-2,-1.7119085E-2,7.260293E-3,7.8333335E0,2.5E1,-1.3905624E-2,9.724153E-3,-8.732093E-3,1.5033882E-2],"split_indices":[4,0,0,0,1,11,11,0,0,13,0,2,0,0,0,3,0,0,0,0,0],"split_type":[0,0,0,0,0,0,0,0,0,0,0,0,0,0,0,0,0,0,0,0,0],"sum_hessian":[1.8184252E4,7.394861E3,1.0789391E4,5.4847246E3,1.9101359E3,7.53648E2,1.0035742E4,1.4948751E1,1.8951871E3,6.711847E2,8.246331E1,4.2697236E3,5.766019E3,6.689349E2,2.2498431E0,7.2545E2,3.5442734E3,7.1470306E2,1.07469845E1,4.3745306E2,3.1068206E3],"tree_param":{"num_deleted":"0","num_feature":"16","num_nodes":"21","size_leaf_vector":"1"}},{"base_weights":[-6.12807E-4,-1.6976551E0,1.1639826E0,-1.7372867E-2,-1.6146567E-2,4.290574E-1,1.780839E-2,-8.765628E-1,1.337208E0,-1.4644963E0,-1.7731301E-1,6.9869757E-1,1.5784712E0,-1.5146367E-2,1.1682516E-2,3.070394E-3,-8.373216E-3,1.0818218E-2,-8.137978E-3,1.3652091E-2,1.6613217E-2],"categories":[],"categories_nodes":[],"categories_segments":[],"categories_sizes":[],"default_left":[0,0,0,0,0,0,0,0,0,0,0,0,0,0,0,0,0,0,0,0,0],"id":13,"left_children":[1,3,5,-1,-1,7,-1,9,11,13,15,17,19,-1,-1,-1,-1,-1,-1,-1,-1],"loss_changes":[3.6065293E4,1.3208984E1,4.9029385E3,0E0,0E0,5.8662773E3,0E0,8.3368665E2,4.449751E2,1.5260889E2,2.9895395E2,4.7124927E2,2.8279297E1,0E0,0E0,0E0,0E0,0E0,0E0,0E0,0E0],"parents":[2147483647,0,0,1,1,2,2,5,5,7,7,8,8,9,9,10,10,11,11,12,12],"right_children":[2,4,6,-1,-1,8,-1,10,12,14,16,18,20,-1,-1,-1,-1,-1,-1,-1,-1],"split_conditions":[4E0,1.5E1,1E0,-1.7372867E-2,-1.6146567E-2,2E1,1.780839E-2,1.6E1,2.4E1,6E0,1E0,1.3E1,2.7E1,-1.5146367E-2,1.1682516E-2,3.070394E-3,-8.373216E-3,1.0818218E-2,-8.137978E-3,1.3652091E-2,1.6613217E-2],"split_indices":[4,1,9,0,0,1,0,1,1,4,15,8,1,0,0,0,0,0,0,0,0],"split_type":[0,0,0,0,0,0,0,0,0,0,0,0,0,0,0,0,0,0,0,0,0],"sum_hessian":[1.8240273E4,7.4224653E3,1.0817808E4,4.969706E3,2.452759E3,4.9395693E3,5.8782383E3,2.0264064E3,2.913163E3,1.0984475E3,9.279588E2,8.031597E2,2.1100032E3,1.0795857E3,1.8861874E1,5.364327E2,3.9152612E2,6.4174164E2,1.6141805E2,6.09928E2,1.5000753E3],"tree_param":{"num_deleted":"0","num_feature":"16","num_nodes":"21","size_leaf_vector":"1"}},{"base_weights":[1.0473937E-3,-1.6827866E0,1.1574314E0,-1.7242027E-2,-1.5609237E0,4.2995703E-1,1.7670406E-2,-1.024303E0,-1.5837891E-2,-9.194707E-1,1.2105116E0,-1.438719E-2,-5.927078E-1,-1.4304353E0,6.2238675E-1,-1.0871013E0,1.4846911E0,-2.431283E-3,-1.1716219E-2,-1.6253822E-2,-8.522117E-3,-1.3481655E-2,1.1348617E-2,1.2687466E-2,-1.1548052E-2,1.709458E-2,1.2629539E-2],"categories":[],"categories_nodes":[],"categories_segments":[],"categories_sizes":[],"default_left":[0,0,0,0,0,0,0,0,0,0,0,0,0,0,0,0,0,0,0,0,0,0,0,0,0,0,0],"id":14,"left_children":[1,3,5,-1,7,9,-1,11,-1,13,15,-1,17,19,21,23,25,-1,-1,-1,-1,-1,-1,-1,-1,-1,-1],"loss_changes":[3.535217E4,2.6544922E1,4.7704004E3,0E0,1.7035156E1,5.1790405E3,0E0,1.2629044E1,0E0,1.4237078E3,1.9682319E3,0E0,9.127426E0,1.4721313E2,4.6203906E2,5.91828E1,1.3010791E2,0E0,0E0,0E0,0E0,0E0,0E0,0E0,0E0,0E0,0E0],"parents":[2147483647,0,0,1,1,2,2,4,4,5,5,7,7,9,9,10,10,12,12,13,13,14,14,15,15,16,16],"right_children":[2,4,6,-1,8,10,-1,12,-1,14,16,-1,18,20,22,24,26,-1,-1,-1,-1,-1,-1,-1,-1,-1,-1],"split_conditions":[4E0,6.09375E0,1E0,-1.7242027E-2,1.2E1,4.8E0,1.7670406E-2,1.1E1,-1.5837891E-2,5E0,2E0,-1.438719E-2,6.4E0,4.3333335E0,2E0,3E0,1.2E1,-2.431283E-3,-1.1716219E-2,-1.6253822E-2,-8.522117E-3,-1.3481655E-2,1.1348617E-2,1.2687466E-2,-1.1548052E-2,1.709458E-2,1.2629539E-2],"split_indices":[4,3,9,0,5,3,0,5,0,4,2,0,3,3,2,7,8,0,0,0,0,0,0,0,0,0,0],"split_type":[0,0,0,0,0,0,0,0,0,0,0,0,0,0,0,0,0,0,0,0,0,0,0,0,0,0,0],"sum_hessian":[1.8147773E4,7.3880557E3,1.0759718E4,5.4748037E3,1.913252E3,4.9087305E3,5.850988E3,8.567909E1,1.8275729E3,1.7985952E3,3.110135E3,3.8947685E1,4.6731407E1,1.351127E3,4.4746826E2,3.3030814E2,2.779827E3,3.2678352E1,1.4053055E1,1.0050369E3,3.4609E2,9.100726E1,3.56461E2,7.2451406E0,3.23063E2,1.367155E3,1.412672E3],"tree_param":{"num_deleted":"0","num_feature":"16","num_nodes":"27","size_leaf_vector":"1"}},{"base_weights":[-1.8745433E-5,-8.3283657E-1,1.7535876E-2,-1.4752867E0,1.1789353E0,-1.6746466E0,-8.1509584E-1,-1.2756014E0,1.4749562E0,-1.6772467E0,1.1340183E-2,5.415868E-1,-1.4253036E0,1.6165582E-2,-1.4841394E0,1.064294E0,1.6281667E0,-1.7101234E-2,-1.5338958E-2,1.7325586E-2,-5.0943205E-3,1.8452184E-2,-1.4718807E-2,-1.503561E-2,4.0201577E-3,1.3413178E-2,-8.798932E-3,1.6568413E-2,1.0440668E-2],"categories":[],"categories_nodes":[],"categories_segments":[],"categories_sizes":[],"default_left":[0,0,0,0,0,0,0,0,0,0,0,0,0,0,0,0,0,0,0,0,0,0,0,0,0,0,0,0,0],"id":15,"left_children":[1,3,-1,5,7,9,11,13,15,17,-1,19,21,-1,23,25,27,-1,-1,-1,-1,-1,-1,-1,-1,-1,-1,-1,-1],"loss_changes":[2.6455592E4,1.5880943E4,0E0,1.219998E3,2.1691816E3,5.980664E1,1.7973203E3,2.04E2,1.6022363E2,2.3169922E1,0E0,8.488102E2,2.3875659E2,0E0,1.3507629E1,3.997262E2,2.536084E1,0E0,0E0,0E0,0E0,0E0,0E0,0E0,0E0,0E0,0E0,0E0,0E0],"parents":[2147483647,0,0,1,1,3,3,4,4,5,5,6,6,7,7,8,8,9,9,11,11,12,12,14,14,15,15,16,16],"right_children":[2,4,-1,6,8,10,12,14,16,18,-1,20,22,-1,24,26,28,-1,-1,-1,-1,-1,-1,-1,-1,-1,-1,-1,-1],"split_conditions":[1E0,2.9E1,1.7535876E-2,2.4E1,3E0,1E0,1E1,2.2E1,3.3E1,2.2E1,1.1340183E-2,1E0,1.7E1,1.6165582E-2,4.8E1,1.5E1,4E0,-1.7101234E-2,-1.5338958E-2,1.7325586E-2,-5.0943205E-3,1.8452184E-2,-1.4718807E-2,-1.503561E-2,4.0201577E-3,1.3413178E-2,-8.798932E-3,1.6568413E-2,1.0440668E-2],"split_indices":[9,0,0,0,7,13,5,1,0,0,0,15,1,0,0,5,15,0,0,0,0,0,0,0,0,0,0,0,0],"split_type":[0,0,0,0,0,0,0,0,0,0,0,0,0,0,0,0,0,0,0,0,0,0,0,0,0,0,0,0,0],"sum_hessian":[1.8106877E4,1.2277962E4,5.828915E3,9.306909E3,2.9710525E3,7.1435913E3,2.163318E3,3.183265E2,2.652726E3,7.138594E3,4.997167E0,6.7128705E2,1.4920311E3,1.959272E1,2.987338E2,7.29412E2,1.9233141E3,5.7712666E3,1.3673275E3,3.1347552E2,3.5781152E2,1.8781475E1,1.4732496E3,2.9649222E2,2.241583E0,6.395273E2,8.9884735E1,1.8263103E3,9.700374E1],"tree_param":{"num_deleted":"0","num_feature":"16","num_nodes":"29","size_leaf_vector":"1"}},{"base_weights":[1.9602927E-3,-1.657561E0,1.139951E0,-1.6983693E-2,-1.5371584E0,-1.2900941E0,1.3216163E0,1.5204881E-2,-1.565842E-2,-1.6489077E0,1.6612291E-2,7.536046E-1,1.740405E-2,-1.6591473E-2,2.737958E-4,-1.3277423E0,1.1751052E0,1.3640127E-2,-1.3626956E-2,-5.3714965E-3,1.5126391E-2],"categories":[],"categories_nodes":[],"categories_segments":[],"categories_sizes":[],"default_left":[0,0,0,0,0,0,0,0,0,0,0,0,0,0,0,0,0,0,0,0,0],"id":16,"left_children":[1,3,5,-1,7,9,11,-1,-1,13,-1,15,-1,-1,-1,17,19,-1,-1,-1,-1],"loss_changes":[3.4123332E4,2.5673828E1,4.738625E3,0E0,1.7640137E2,8.026387E2,2.3675938E3,0E0,0E0,1.1657349E1,0E0,3.7262803E3,0E0,0E0,0E0,7.479968E1,2.0424604E3,0E0,0E0,0E0,0E0],"parents":[2147483647,0,0,1,1,2,2,4,4,5,5,6,6,9,9,11,11,15,15,16,16],"right_children":[2,4,6,-1,8,10,12,-1,-1,14,-1,16,-1,-1,-1,18,20,-1,-1,-1,-1],"split_conditions":[4E0,2.3E1,2.1E1,-1.6983693E-2,1.6E1,1E0,1E0,1.5204881E-2,-1.565842E-2,3E0,1.6612291E-2,2E0,1.740405E-2,-1.6591473E-2,2.737958E-4,1.4E1,2.6E1,1.3640127E-2,-1.3626956E-2,-5.3714965E-3,1.5126391E-2],"split_indices":[4,0,0,0,1,9,9,0,0,2,0,2,0,0,0,1,0,0,0,0,0],"split_type":[0,0,0,0,0,0,0,0,0,0,0,0,0,0,0,0,0,0,0,0,0],"sum_hessian":[1.8060824E4,7.34616E3,1.0714663E4,5.4474253E3,1.8987346E3,7.435928E2,9.97107E3,1.5712956E1,1.8830217E3,6.645624E2,7.9030426E1,4.2363804E3,5.7346904E3,6.605682E2,3.9942155E0,7.1199384E2,3.5243862E3,7.17726E0,7.048166E2,5.799628E2,2.9444236E3],"tree_param":{"num_deleted":"0","num_feature":"16","num_nodes":"21","size_leaf_vector":"1"}},{"base_weights":[-2.8761828E-3,-8.2089E-1,1.7276881E-2,-1.6167665E0,8.7844926E-1,-1.6722452E-2,-1.427547E0,-1.4282504E0,1.3884875E0,1.9036138E-2,-1.4840188E0,-1.6103896E0,-9.774291E-1,7.0048267E-1,1.6357229E0,-1.489912E-2,7.181633E-3,-1.6397668E-2,1.015386E-2,1.0829952E-2,-1.6076628E-2,1.3887322E-2,-9.259701E-3,1.7379815E-2,1.3485995E-2],"categories":[],"categories_nodes":[],"categories_segments":[],"categories_sizes":[],"default_left":[0,0,0,0,0,0,0,0,0,0,0,0,0,0,0,0,0,0,0,0,0,0,0,0,0],"id":17,"left_children":[1,3,-1,5,7,-1,9,11,13,-1,15,17,19,21,23,-1,-1,-1,-1,-1,-1,-1,-1,-1,-1],"loss_changes":[2.55458E4,1.6578117E4,0E0,7.807031E1,4.6092246E3,0E0,3.724253E2,5.2015747E1,5.4055615E2,0E0,2.8807129E1,4.519983E1,2.8553912E2,9.613511E2,5.975879E1,0E0,0E0,0E0,0E0,0E0,0E0,0E0,0E0,0E0,0E0],"parents":[2147483647,0,0,1,1,3,3,4,4,6,6,7,7,8,8,10,10,11,11,12,12,13,13,14,14],"right_children":[2,4,-1,6,8,-1,10,12,14,-1,16,18,20,22,24,-1,-1,-1,-1,-1,-1,-1,-1,-1,-1],"split_conditions":[1E0,2E0,1.7276881E-2,2.4E1,2.4E1,-1.6722452E-2,1.7E1,2.2E1,3E1,1.9036138E-2,5.5E1,1E0,8E0,1.1E1,1.6E1,-1.489912E-2,7.181633E-3,-1.6397668E-2,1.015386E-2,1.0829952E-2,-1.6076628E-2,1.3887322E-2,-9.259701E-3,1.7379815E-2,1.3485995E-2],"split_indices":[9,2,0,0,0,0,1,0,0,0,0,13,5,5,8,0,0,0,0,0,0,0,0,0,0],"split_type":[0,0,0,0,0,0,0,0,0,0,0,0,0,0,0,0,0,0,0,0,0,0,0,0,0],"sum_hessian":[1.8037586E4,1.2249514E4,5.788073E3,8.342529E3,3.9069846E3,6.426845E3,1.9156836E3,7.061496E2,3.200835E3,2.9753437E1,1.8859302E3,4.9562186E2,2.1052774E2,8.5021027E2,2.3506248E3,1.8821871E3,3.7430782E0,4.9162363E2,3.998256E0,4.86389E1,1.6188884E2,5.9782104E2,2.5238922E2,1.7184044E3,6.322203E2],"tree_param":{"num_deleted":"0","num_feature":"16","num_nodes":"25","size_leaf_vector":"1"}},{"base_weights":[-3.8937337E-3,-1.6331903E0,1.1188707E0,-1.6737565E-2,-1.5136371E0,-1.270686E0,1.2980508E0,1.5008643E-2,-1.5403144E-2,-1.628197E0,1.6381476E-2,7.339469E-1,1.715135E-2,-1.6384572E-2,9.030534E-4,-5.8874995E-1,1.3823609E0,-1.4528501E-2,-1.0261546E-3,-9.375541E-3,1.5716447E-2],"categories":[],"categories_nodes":[],"categories_segments":[],"categories_sizes":[],"default_left":[0,0,0,0,0,0,0,0,0,0,0,0,0,0,0,0,0,0,0,0,0],"id":18,"left_children":[1,3,5,-1,7,9,11,-1,-1,13,-1,15,-1,-1,-1,17,19,-1,-1,-1,-1],"loss_changes":[3.293445E4,2.5486328E1,4.5702363E3,0E0,1.6225879E2,7.8595386E2,2.3282676E3,0E0,0E0,1.2333374E1,0E0,3.6247886E3,0E0,0E0,0E0,5.84083E2,1.2506875E3,0E0,0E0,0E0,0E0],"parents":[2147483647,0,0,1,1,2,2,4,4,5,5,6,6,9,9,11,11,15,15,16,16],"right_children":[2,4,6,-1,8,10,12,-1,-1,14,-1,16,-1,-1,-1,18,20,-1,-1,-1,-1],"split_conditions":[4E0,2.3E1,2.1E1,-1.6737565E-2,1.6E1,1E0,1E0,1.5008643E-2,-1.5403144E-2,3E0,1.6381476E-2,2.8E1,1.715135E-2,-1.6384572E-2,9.030534E-4,2E0,2E0,-1.4528501E-2,-1.0261546E-3,-9.375541E-3,1.5716447E-2],"split_indices":[4,0,0,0,1,10,10,0,0,2,0,0,0,0,0,2,2,0,0,0,0],"split_type":[0,0,0,0,0,0,0,0,0,0,0,0,0,0,0,0,0,0,0,0,0],"sum_hessian":[1.79957E4,7.3410034E3,1.0654695E4,5.442329E3,1.8986743E3,7.415097E2,9.913186E3,1.4716293E1,1.883958E3,6.619176E2,7.9592094E1,4.218597E3,5.6945884E3,6.581743E2,3.7432787E0,1.3878654E3,2.830732E3,4.968191E2,8.9104626E2,2.1234601E2,2.618386E3],"tree_param":{"num_deleted":"0","num_feature":"16","num_nodes":"21","size_leaf_vector":"1"}},{"base_weights":[2.279546E-3,-1.6209304E0,1.1113482E0,-1.660924E-2,-1.5030849E0,-1.2521877E0,1.2879101E0,1.49012E-2,-1.5297976E-2,-1.612862E0,1.6279655E-2,7.2886914E-1,1.702959E-2,-1.6245697E-2,2.14718E-3,-1.2804451E0,1.1406242E0,1.3576742E-2,-1.3145376E-2,-5.3152787E-3,1.4730909E-2],"categories":[],"categories_nodes":[],"categories_segments":[],"categories_sizes":[],"default_left":[0,0,0,0,0,0,0,0,0,0,0,0,0,0,0,0,0,0,0,0,0],"id":19,"left_children":[1,3,5,-1,7,9,11,-1,-1,13,-1,15,-1,-1,-1,17,19,-1,-1,-1,-1],"loss_changes":[3.2267174E4,2.4302734E1,4.4500645E3,0E0,1.5988135E2,7.814824E2,2.294457E3,0E0,0E0,1.5551392E1,0E0,3.5051433E3,0E0,0E0,0E0,7.2005005E1,1.9557661E3,0E0,0E0,0E0,0E0],"parents":[2147483647,0,0,1,1,2,2,4,4,5,5,6,6,9,9,11,11,15,15,16,16],"right_children":[2,4,6,-1,8,10,12,-1,-1,14,-1,16,-1,-1,-1,18,20,-1,-1,-1,-1],"split_conditions":[4E0,2.3E1,2.1E1,-1.660924E-2,1.6E1,1E0,1E0,1.49012E-2,-1.5297976E-2,3E0,1.6279655E-2,2E0,1.702959E-2,-1.6245697E-2,2.14718E-3,1.4E1,2.6E1,1.3576742E-2,-1.3145376E-2,-5.3152787E-3,1.4730909E-2],"split_indices":[4,0,0,0,1,9,9,0,0,2,0,2,0,0,0,1,0,0,0,0,0],"split_type":[0,0,0,0,0,0,0,0,0,0,0,0,0,0,0,0,0,0,0,0,0],"sum_hessian":[1.7915703E4,7.271475E3,1.0644228E4,5.389907E3,1.8815681E3,7.38185E2,9.906042E3,1.4705076E1,1.866863E3,6.5759595E2,8.058905E1,4.225554E3,5.6804883E3,6.538516E2,3.744303E0,7.172113E2,3.5083428E3,7.169078E0,7.1004224E2,5.8146265E2,2.9268801E3],"tree_param":{"num_deleted":"0","num_feature":"16","num_nodes":"21","size_leaf_vector":"1"}},{"base_weights":[2.0333056E-3,-1.6095939E0,1.1063261E0,-1.6505884E-2,-1.4887305E0,-1.2451818E0,1.2803618E0,1.5043866E-2,-1.517469E-2,1.5077728E0,-1.5904166E0,7.5094146E-1,1.6277249E0,-6.857608E-3,1.613726E-2,-1.6007321E-2,1.5447332E-3,1.6915688E-2,-1.7157228E-1,1.1778374E0,1.6695986E0,-1.1556785E-2,4.2366055E-3,1.6858624E-2,-6.372106E-3,1.4799544E-2,1.6885411E-2],"categories":[],"categories_nodes":[],"categories_segments":[],"categories_sizes":[],"default_left":[0,0,0,0,0,0,0,0,0,0,0,0,0,0,0,0,0,0,0,0,0,0,0,0,0,0,0],"id":20,"left_children":[1,3,5,-1,7,9,11,-1,-1,13,15,17,19,-1,-1,-1,-1,-1,21,23,25,-1,-1,-1,-1,-1,-1],"loss_changes":[3.187416E4,2.625E1,4.355702E3,0E0,1.7128955E2,7.075592E2,1.8152295E3,0E0,0E0,2.3922638E1,1.2769653E1,3.4100984E3,1.0465234E2,0E0,0E0,0E0,0E0,0E0,1.1658801E3,4.857793E2,9.598633E0,0E0,0E0,0E0,0E0,0E0,0E0],"parents":[2147483647,0,0,1,1,2,2,4,4,5,5,6,6,9,9,10,10,11,11,12,12,18,18,19,19,20,20],"right_children":[2,4,6,-1,8,10,12,-1,-1,14,16,18,20,-1,-1,-1,-1,-1,22,24,26,-1,-1,-1,-1,-1,-1],"split_conditions":[4E0,2.3E1,2.1E1,-1.6505884E-2,1.6E1,8E0,3.1E1,1.5043866E-2,-1.517469E-2,1.5E1,3E0,1.4E1,2E0,-6.857608E-3,1.613726E-2,-1.6007321E-2,1.5447332E-3,1.6915688E-2,2.5E1,2.4E1,3.4E1,-1.1556785E-2,4.2366055E-3,1.6858624E-2,-6.372106E-3,1.4799544E-2,1.6885411E-2],"split_indices":[4,0,0,0,1,1,0,0,0,0,2,1,2,0,0,0,0,0,0,1,0,0,0,0,0,0,0],"split_type":[0,0,0,0,0,0,0,0,0,0,0,0,0,0,0,0,0,0,0,0,0,0,0,0,0,0,0],"sum_hessian":[1.7901764E4,7.278112E3,1.0623652E4,5.3969414E3,1.8811704E3,7.3038104E2,9.893271E3,1.5937021E1,1.8652334E3,7.988626E1,6.5049475E2,3.924516E3,5.9687554E3,2.6723194E0,7.721394E1,6.4700024E2,3.494481E0,1.9415297E3,1.9829866E3,5.1816406E2,5.4505913E3,7.45943E2,1.2370436E3,4.0507092E2,1.1309313E2,5.2373254E2,4.926859E3],"tree_param":{"num_deleted":"0","num_feature":"16","num_nodes":"27","size_leaf_vector":"1"}},{"base_weights":[-2.8900902E-3,-1.5980953E0,1.0933683E0,-1.6382447E-2,-1.4795544E0,4.039597E-1,1.6796848E-2,1.4740111E-2,-1.5063963E-2,-1.1965526E0,1.2121162E0,-1.4607294E0,-3.99797E-1,3.89868E-1,1.4667854E0,-1.4757387E-2,1.1491858E-2,1.9260643E-2,-8.158846E-3,8.388143E-3,-1.0929897E-2,1.1629947E-2,1.5972877E-2],"categories":[],"categories_nodes":[],"categories_segments":[],"categories_sizes":[],"default_left":[0,0,0,0,0,0,0,0,0,0,0,0,0,0,0,0,0,0,0,0,0,0,0],"id":21,"left_children":[1,3,5,-1,7,9,-1,-1,-1,11,13,15,17,19,21,-1,-1,-1,-1,-1,-1,-1,-1],"loss_changes":[3.1151703E4,2.4835938E1,4.2649424E3,0E0,1.5768945E2,6.289006E3,0E0,0E0,0E0,3.4114355E2,6.740371E2,5.4731934E1,4.0485464E2,5.157624E2,9.027832E1,0E0,0E0,0E0,0E0,0E0,0E0,0E0,0E0],"parents":[2147483647,0,0,1,1,2,2,4,4,5,5,9,9,10,10,11,11,12,12,13,13,14,14],"right_children":[2,4,6,-1,8,10,-1,-1,-1,12,14,16,18,20,22,-1,-1,-1,-1,-1,-1,-1,-1],"split_conditions":[4E0,2.3E1,1E0,-1.6382447E-2,1.6E1,2.6E1,1.6796848E-2,1.4740111E-2,-1.5063963E-2,2.4E1,3E1,1E0,1.7E1,1.2E1,3.4E1,-1.4757387E-2,1.1491858E-2,1.9260643E-2,-8.158846E-3,8.388143E-3,-1.0929897E-2,1.1629947E-2,1.5972877E-2],"split_indices":[4,0,11,0,1,0,0,0,0,0,0,13,1,5,0,0,0,0,0,0,0,0,0],"split_type":[0,0,0,0,0,0,0,0,0,0,0,0,0,0,0,0,0,0,0,0,0,0,0],"sum_hessian":[1.7805627E4,7.2516533E3,1.0553974E4,5.3786416E3,1.8730118E3,4.8536553E3,5.7003184E3,1.4926282E1,1.8580856E3,1.6278534E3,3.225802E3,1.2200074E3,4.078459E2,7.6523083E2,2.460571E3,1.2147598E3,5.24774E0,5.9687366E1,3.481585E2,5.887267E2,1.7650414E2,7.5130005E2,1.7092711E3],"tree_param":{"num_deleted":"0","num_feature":"16","num_nodes":"23","size_leaf_vector":"1"}},{"base_weights":[1.7003405E-3,-7.8729844E-1,1.6683532E-2,-1.3992726E0,1.1223906E0,-1.591722E0,-7.669759E-1,-1.2029959E0,1.3931236E0,-1.5937835E0,1.0092027E-2,5.423189E-1,-1.3606296E0,1.5610418E-2,-1.3978919E0,9.7212505E-1,1.5513566E0,-1.6249942E-2,-1.4583963E-2,1.6961068E-2,-5.1508984E-3,-6.575769E-3,-1.5501375E-2,-1.4208484E-2,5.561224E-3,1.2590134E-2,-9.816657E-3,1.5788792E-2,9.9730175E-3],"categories":[],"categories_nodes":[],"categories_segments":[],"categories_sizes":[],"default_left":[0,0,0,0,0,0,0,0,0,0,0,0,0,0,0,0,0,0,0,0,0,0,0,0,0,0,0,0,0],"id":22,"left_children":[1,3,-1,5,7,9,11,13,15,17,-1,19,21,-1,23,25,27,-1,-1,-1,-1,-1,-1,-1,-1,-1,-1,-1,-1],"loss_changes":[2.3391227E4,1.4115594E4,0E0,1.1078926E3,1.8526594E3,4.4003906E1,1.6675347E3,1.7460559E2,1.6904834E2,2.0111328E1,0E0,8.220822E2,1.9239307E2,0E0,1.6158203E1,4.1338538E2,2.2729004E1,0E0,0E0,0E0,0E0,0E0,0E0,0E0,0E0,0E0,0E0,0E0,0E0],"parents":[2147483647,0,0,1,1,3,3,4,4,5,5,6,6,7,7,8,8,9,9,11,11,12,12,14,14,15,15,16,16],"right_children":[2,4,-1,6,8,10,12,14,16,18,-1,20,22,-1,24,26,28,-1,-1,-1,-1,-1,-1,-1,-1,-1,-1,-1,-1],"split_conditions":[1E0,2.9E1,1.6683532E-2,2.4E1,3E0,1E0,1E1,1.02E1,3.3E1,2.2E1,1.0092027E-2,1E0,1.3E1,1.5610418E-2,5E1,1.5E1,4E0,-1.6249942E-2,-1.4583963E-2,1.6961068E-2,-5.1508984E-3,-6.575769E-3,-1.5501375E-2,-1.4208484E-2,5.561224E-3,1.2590134E-2,-9.816657E-3,1.5788792E-2,9.9730175E-3],"split_indices":[10,0,0,0,7,13,5,6,0,0,0,15,5,0,0,5,15,0,0,0,0,0,0,0,0,0,0,0,0],"split_type":[0,0,0,0,0,0,0,0,0,0,0,0,0,0,0,0,0,0,0,0,0,0,0,0,0,0,0,0,0],"sum_hessian":[1.7780184E4,1.2068857E4,5.7113257E3,9.140716E3,2.9281416E3,7.003133E3,2.137583E3,3.0392108E2,2.6242205E3,6.9991343E3,3.9985013E0,6.6695935E2,1.4706237E3,1.817155E1,2.8574954E2,7.246838E2,1.8995367E3,5.6521416E3,1.3469928E3,3.1778894E2,3.4917044E2,3.160382E2,1.1545854E3,2.8351016E2,2.239381E0,6.3313824E2,9.154556E1,1.8025942E3,9.6942505E1],"tree_param":{"num_deleted":"0","num_feature":"16","num_nodes":"29","size_leaf_vector":"1"}},{"base_weights":[-2.3383463E-3,-7.831442E-1,1.6572826E-2,-1.5496782E0,8.4291065E-1,-1.6027542E-2,-1.3698374E0,-1.3708366E0,1.3345275E0,-1.0466148E0,-1.4710184E0,-1.5552762E0,-9.2535406E-1,5.922188E-1,1.5442212E0,1.8810958E-2,-1.2028688E-2,-1.4780757E-2,5.953093E-3,-1.5825024E-2,9.654516E-3,1.1706391E-2,-1.5666025E-2,1.5376361E-2,-8.7836385E-3,1.668188E-2,1.2964223E-2],"categories":[],"categories_nodes":[],"categories_segments":[],"categories_sizes":[],"default_left":[0,0,0,0,0,0,0,0,0,0,0,0,0,0,0,0,0,0,0,0,0,0,0,0,0,0,0],"id":23,"left_children":[1,3,-1,5,7,-1,9,11,13,15,17,19,21,23,25,-1,-1,-1,-1,-1,-1,-1,-1,-1,-1,-1,-1],"loss_changes":[2.299375E4,1.5045899E4,0E0,6.951172E1,4.217587E3,0E0,5.5869385E1,5.2167236E1,4.894077E2,2.2224924E2,2.4440674E1,3.9924316E1,2.9804163E2,9.8447656E2,6.7145996E1,0E0,0E0,0E0,0E0,0E0,0E0,0E0,0E0,0E0,0E0,0E0,0E0],"parents":[2147483647,0,0,1,1,3,3,4,4,6,6,7,7,8,8,9,9,10,10,11,11,12,12,13,13,14,14],"right_children":[2,4,-1,6,8,-1,10,12,14,16,18,20,22,24,26,-1,-1,-1,-1,-1,-1,-1,-1,-1,-1,-1,-1],"split_conditions":[1E0,2E0,1.6572826E-2,2.4E1,2.4E1,-1.6027542E-2,7.8E0,2.2E1,2.9E1,1E0,5.4E1,1E0,8E0,1E1,1.5E1,1.8810958E-2,-1.2028688E-2,-1.4780757E-2,5.953093E-3,-1.5825024E-2,9.654516E-3,1.1706391E-2,-1.5666025E-2,1.5376361E-2,-8.7836385E-3,1.668188E-2,1.2964223E-2],"split_indices":[9,2,0,0,0,0,6,0,0,15,0,13,8,8,8,0,0,0,0,0,0,0,0,0,0,0,0],"split_type":[0,0,0,0,0,0,0,0,0,0,0,0,0,0,0,0,0,0,0,0,0,0,0,0,0,0,0],"sum_hessian":[1.7736254E4,1.2063039E4,5.6732144E3,8.198429E3,3.8646108E3,6.305772E3,1.8926562E3,7.009744E2,3.1636362E3,4.6204123E2,1.4306151E3,4.886838E2,2.1229059E2,7.0021063E2,2.4634258E3,2.1172894E1,4.4086835E2,1.4268804E3,3.7346563E0,4.8493484E2,3.7489443E0,4.8959312E1,1.6333128E2,4.260966E2,2.74114E2,1.6267039E3,8.3672186E2],"tree_param":{"num_deleted":"0","num_feature":"16","num_nodes":"27","size_leaf_vector":"1"}},{"base_weights":[2.4919072E-4,-1.5653774E0,1.0721645E0,-1.6059505E-2,-1.4459956E0,-1.2099593E0,1.2418135E0,1.4745938E-2,-1.4720198E0,-1.5603334E0,1.5742796E-2,7.015619E-1,1.6463593E-2,-1.609081E-2,-1.4272798E0,-1.569097E-2,2.834496E-4,-1.2516263E0,1.0978072E0,1.868288E-2,-1.4751699E-2,1.29299145E-2,-1.2888922E-2,-5.175387E-3,1.4234136E-2],"categories":[],"categories_nodes":[],"categories_segments":[],"categories_sizes":[],"default_left":[0,0,0,0,0,0,0,0,0,0,0,0,0,0,0,0,0,0,0,0,0,0,0,0,0],"id":24,"left_children":[1,3,5,-1,7,9,11,-1,13,15,-1,17,-1,-1,19,-1,-1,21,23,-1,-1,-1,-1,-1,-1],"loss_changes":[2.9660191E4,2.5501953E1,4.0676787E3,0E0,1.5021118E2,7.1994934E2,2.1300205E3,0E0,2.1435547E0,9.207642E0,0E0,3.2475566E3,0E0,0E0,2.3645337E2,0E0,0E0,7.38396E1,1.8357593E3,0E0,0E0,0E0,0E0,0E0,0E0],"parents":[2147483647,0,0,1,1,2,2,4,4,5,5,6,6,8,8,9,9,11,11,14,14,17,17,18,18],"right_children":[2,4,6,-1,8,10,12,-1,14,16,-1,18,-1,-1,20,-1,-1,22,24,-1,-1,-1,-1,-1,-1],"split_conditions":[4E0,2.3E1,2.1E1,-1.6059505E-2,7.111111E0,1E0,1E0,1.4745938E-2,2.4E1,3E0,1.5742796E-2,2E0,1.6463593E-2,-1.609081E-2,7.5555553E0,-1.569097E-2,2.834496E-4,3E0,2.6E1,1.868288E-2,-1.4751699E-2,1.29299145E-2,-1.2888922E-2,-5.175387E-3,1.4234136E-2],"split_indices":[4,0,0,0,6,9,9,0,0,2,0,2,0,0,6,0,0,7,0,0,0,0,0,0,0],"split_type":[0,0,0,0,0,0,0,0,0,0,0,0,0,0,0,0,0,0,0,0,0,0,0,0,0],"sum_hessian":[1.7665611E4,7.1786787E3,1.0486932E4,5.3206016E3,1.858077E3,7.2393994E2,9.762992E3,1.4443923E1,1.8436332E3,6.445827E2,7.9357216E1,4.1850254E3,5.577967E3,4.1928568E2,1.4243474E3,6.410956E2,3.4871373E0,7.043719E2,3.4806533E3,1.8223825E1,1.4061237E3,8.221238E0,6.9615063E2,5.8350507E2,2.8971484E3],"tree_param":{"num_deleted":"0","num_feature":"16","num_nodes":"25","size_leaf_vector":"1"}},{"base_weights":[-1.5992651E-3,-1.5559559E0,1.0619553E0,-1.594606E-2,-1.4425143E0,3.8737813E-1,1.635897E-2,1.47466585E-2,-1.4692691E-2,-7.037236E-1,1.2894717E0,-1.1164993E0,3.1558847E-1,-1.1130555E0,1.4854276E0,-1.3293733E-2,1.7461067E-3,-1.0190613E-2,8.031151E-3,-1.3975434E-2,-5.4069767E-3,1.6353324E-2,1.2547158E-2],"categories":[],"categories_nodes":[],"categories_segments":[],"categories_sizes":[],"default_left":[0,0,0,0,0,0,0,0,0,0,0,0,0,0,0,0,0,0,0,0,0,0,0],"id":25,"left_children":[1,3,5,-1,7,9,-1,-1,-1,11,13,15,17,19,21,-1,-1,-1,-1,-1,-1,-1,-1],"loss_changes":[2.915939E4,2.221875E1,4.052208E3,0E0,1.5406934E2,4.747425E3,0E0,0E0,0E0,9.202645E2,1.2493628E3,4.2838843E2,4.1488013E2,2.9763306E1,7.626172E1,0E0,0E0,0E0,0E0,0E0,0E0,0E0,0E0],"parents":[2147483647,0,0,1,1,2,2,4,4,5,5,9,9,10,10,11,11,12,12,13,13,14,14],"right_children":[2,4,6,-1,8,10,-1,-1,-1,12,14,16,18,20,22,-1,-1,-1,-1,-1,-1,-1,-1],"split_conditions":[4E0,6.09375E0,1E0,-1.594606E-2,1.6E1,2.1E1,1.635897E-2,1.47466585E-2,-1.4692691E-2,4.8E0,2E0,5E0,2E0,6.2222223E0,1.4E1,-1.3293733E-2,1.7461067E-3,-1.0190613E-2,8.031151E-3,-1.3975434E-2,-5.4069767E-3,1.6353324E-2,1.2547158E-2],"split_indices":[4,3,10,0,1,1,0,0,0,3,2,4,2,3,8,0,0,0,0,0,0,0,0],"split_type":[0,0,0,0,0,0,0,0,0,0,0,0,0,0,0,0,0,0,0,0,0,0,0],"sum_hessian":[1.763076E4,7.1619336E3,1.0468826E4,5.302959E3,1.8589746E3,4.8155786E3,5.653247E3,1.4927255E1,1.8440474E3,2.1798647E3,2.635714E3,1.5512832E3,6.285815E2,1.9735178E2,2.4383623E3,1.3316127E3,2.1967062E2,1.6701132E2,4.6157016E2,1.27975266E2,6.93765E1,1.4632583E3,9.7510394E2],"tree_param":{"num_deleted":"0","num_feature":"16","num_nodes":"23","size_leaf_vector":"1"}},{"base_weights":[3.169227E-4,-7.648971E-1,1.6255606E-2,-1.5167154E0,8.221728E-1,-1.5197513E0,1.0482481E-2,-1.3498363E0,1.30485E0,-1.5789058E-2,-1.3748616E0,-1.3738354E0,1.1065744E-2,6.605136E-1,1.5423065E0,-1.1795101E-2,-1.4300607E-2,-1.4925286E-2,-7.249126E-3,1.3357345E-2,-9.248007E-3,1.6396662E-2,1.2654443E-2],"categories":[],"categories_nodes":[],"categories_segments":[],"categories_sizes":[],"default_left":[0,0,0,0,0,0,0,0,0,0,0,0,0,0,0,0,0,0,0,0,0,0,0],"id":26,"left_children":[1,3,-1,5,7,9,-1,11,13,-1,15,17,-1,19,21,-1,-1,-1,-1,-1,-1,-1,-1],"loss_changes":[2.1864803E4,1.4267322E4,0E0,6.953906E1,4.037895E3,6.0779297E1,0E0,4.7408325E1,4.7754443E2,0E0,1.8921875E1,4.928296E1,0E0,9.1980347E2,5.3620117E1,0E0,0E0,0E0,0E0,0E0,0E0,0E0,0E0],"parents":[2147483647,0,0,1,1,3,3,4,4,5,5,7,7,8,8,10,10,11,11,13,13,14,14],"right_children":[2,4,-1,6,8,10,-1,12,14,-1,16,18,-1,20,22,-1,-1,-1,-1,-1,-1,-1,-1],"split_conditions":[1E0,2E0,1.6255606E-2,5.5E1,2.4E1,2.3E1,1.0482481E-2,1E0,3E1,-1.5789058E-2,1.2E1,2.3E1,1.1065744E-2,1.1E1,1.6E1,-1.1795101E-2,-1.4300607E-2,-1.4925286E-2,-7.249126E-3,1.3357345E-2,-9.248007E-3,1.6396662E-2,1.2654443E-2],"split_indices":[10,2,0,0,0,0,0,13,0,0,8,0,0,5,8,0,0,0,0,0,0,0,0],"split_type":[0,0,0,0,0,0,0,0,0,0,0,0,0,0,0,0,0,0,0,0,0,0,0],"sum_hessian":[1.7573025E4,1.194913E4,5.623895E3,8.1082905E3,3.840839E3,8.100333E3,7.95741E0,6.970379E2,3.1438013E3,5.7238496E3,2.3764834E3,6.9203955E2,4.998353E0,8.5066205E2,2.2931392E3,5.4327814E2,1.8332053E3,5.806364E2,1.1140315E2,5.970113E2,2.5365077E2,1.6819753E3,6.1116394E2],"tree_param":{"num_deleted":"0","num_feature":"16","num_nodes":"23","size_leaf_vector":"1"}},{"base_weights":[4.1713996E-4,-1.5337853E0,1.0504444E0,-1.5743371E-2,-1.4150242E0,-1.1917392E0,1.2178646E0,1.4970862E-2,-1.4439431E0,-1.5303067E0,1.5434956E-2,6.912632E-1,1.6153485E-2,-1.5786845E-2,-1.3985848E0,-1.542425E-2,6.995274E-3,-5.2653486E-1,1.2938443E0,1.8688915E-2,-1.4455812E-2,-1.2277484E-2,-5.681158E-4,7.712348E-3,1.4780104E-2],"categories":[],"categories_nodes":[],"categories_segments":[],"categories_sizes":[],"default_left":[0,0,0,0,0,0,0,0,0,0,0,0,0,0,0,0,0,0,0,0,0,0,0,0,0],"id":27,"left_children":[1,3,5,-1,7,9,11,-1,13,15,-1,17,-1,-1,19,-1,-1,21,23,-1,-1,-1,-1,-1,-1],"loss_changes":[2.8220852E4,2.536914E1,3.909874E3,0E0,1.6455884E2,6.8049646E2,2.0216016E3,0E0,2.3842773E0,2.179419E1,0E0,3.0631362E3,0E0,0E0,2.2702686E2,0E0,0E0,4.5536795E2,2.640796E2,0E0,0E0,0E0,0E0,0E0,0E0],"parents":[2147483647,0,0,1,1,2,2,4,4,5,5,6,6,8,8,9,9,11,11,14,14,17,17,18,18],"right_children":[2,4,6,-1,8,10,12,-1,14,16,-1,18,-1,-1,20,-1,-1,22,24,-1,-1,-1,-1,-1,-1],"split_conditions":[4E0,2.3E1,2.1E1,-1.5743371E-2,1.6E1,1E0,1E0,1.4970862E-2,2.4E1,1E0,1.5434956E-2,2.8E1,1.6153485E-2,-1.5786845E-2,1.7E1,-1.542425E-2,6.995274E-3,2.4E1,3.2E1,1.8688915E-2,-1.4455812E-2,-1.2277484E-2,-5.681158E-4,7.712348E-3,1.4780104E-2],"split_indices":[4,0,0,0,1,10,10,0,0,13,0,0,0,0,1,0,0,0,0,0,0,0,0,0,0],"split_type":[0,0,0,0,0,0,0,0,0,0,0,0,0,0,0,0,0,0,0,0,0,0,0,0,0],"sum_hessian":[1.7510096E4,7.113974E3,1.0396121E4,5.266621E3,1.8473528E3,7.206259E2,9.675495E3,1.6168085E1,1.8311847E3,6.4281976E2,7.780618E1,4.166509E3,5.508987E3,4.2713037E2,1.4040543E3,6.405716E2,2.2481437E0,1.379363E3,2.7871458E3,1.7709558E1,1.3863447E3,5.507443E2,8.2861865E2,7.316598E2,2.0554858E3],"tree_param":{"num_deleted":"0","num_feature":"16","num_nodes":"25","size_leaf_vector":"1"}},{"base_weights":[1.802032E-3,-1.5245742E0,1.0408152E0,-1.5638143E-2,-1.4092665E0,3.8211542E-1,1.6055826E-2,-8.7585366E-1,-1.4317649E-2,-1.1335545E0,1.1473931E0,-1.3313168E-2,-4.3623322E-1,-1.3863841E0,-3.9300567E-1,-1.004873E0,1.3880044E0,-2.972879E-4,-1.1223012E-2,-1.3998266E-2,1.0817059E-2,1.6425991E-3,-1.6532715E-2,-1.0663863E-2,1.1835565E-2,8.510159E-3,1.5223318E-2],"categories":[],"categories_nodes":[],"categories_segments":[],"categories_sizes":[],"default_left":[0,0,0,0,0,0,0,0,0,0,0,0,0,0,0,0,0,0,0,0,0,0,0,0,0,0,0],"id":28,"left_children":[1,3,5,-1,7,9,-1,11,-1,13,15,-1,17,19,21,23,25,-1,-1,-1,-1,-1,-1,-1,-1,-1,-1],"loss_changes":[2.763612E4,2.311914E1,3.8546367E3,0E0,1.6975342E1,5.5627046E3,0E0,1.4589081E1,0E0,2.991797E2,1.6553682E3,0E0,1.3512206E1,4.5813232E1,2.9270752E2,4.8484375E1,2.0162988E2,0E0,0E0,0E0,0E0,0E0,0E0,0E0,0E0,0E0,0E0],"parents":[2147483647,0,0,1,1,2,2,4,4,5,5,7,7,9,9,10,10,12,12,13,13,14,14,15,15,16,16],"right_children":[2,4,6,-1,8,10,-1,12,-1,14,16,-1,18,20,22,24,26,-1,-1,-1,-1,-1,-1,-1,-1,-1,-1],"split_conditions":[4E0,2.3E1,1E0,-1.5638143E-2,1.2E1,2.6E1,1.6055826E-2,1.1E1,-1.4317649E-2,2.4E1,2E0,-1.3313168E-2,2.4E1,1E0,1E1,5.5E1,3E1,-2.972879E-4,-1.1223012E-2,-1.3998266E-2,1.0817059E-2,1.6425991E-3,-1.6532715E-2,-1.0663863E-2,1.1835565E-2,8.510159E-3,1.5223318E-2],"split_indices":[4,0,9,0,5,0,0,5,0,0,2,0,0,13,5,0,0,0,0,0,0,0,0,0,0,0,0],"split_type":[0,0,0,0,0,0,0,0,0,0,0,0,0,0,0,0,0,0,0,0,0,0,0,0,0,0,0],"sum_hessian":[1.7417867E4,7.0536855E3,1.0364181E4,5.225247E3,1.8284386E3,4.787329E3,5.576852E3,8.046318E1,1.7479753E3,1.6055444E3,3.1817844E3,3.5534637E1,4.4928543E1,1.1943087E3,4.1123578E2,3.1866086E2,2.8631235E3,3.0832943E1,1.4095601E1,1.189561E3,4.7476077E0,2.875606E2,1.2367518E2,3.1194345E2,6.717386E0,5.7877E2,2.2843535E3],"tree_param":{"num_deleted":"0","num_feature":"16","num_nodes":"27","size_leaf_vector":"1"}},{"base_weights":[2.4897468E-3,-1.5139387E0,1.0364349E0,-1.5546059E-2,-1.3950294E0,-1.1740884E0,1.2019962E0,-8.361373E-1,-1.4186856E0,-1.5129695E0,1.5258958E-2,6.799006E-1,1.5958194E-2,-1.2942277E-2,-4.1118115E-1,-1.567653E-2,-1.3730228E0,-1.5250059E-2,6.932676E-3,-1.218647E0,1.0733831E0,-6.194152E-4,-1.0071692E-2,2.0661321E-3,-1.4177273E-2,-1.2600516E-2,9.4215255E-3,-4.6409545E-3,1.3796861E-2],"categories":[],"categories_nodes":[],"categories_segments":[],"categories_sizes":[],"default_left":[0,0,0,0,0,0,0,0,0,0,0,0,0,0,0,0,0,0,0,0,0,0,0,0,0,0,0,0,0],"id":29,"left_children":[1,3,5,-1,7,9,11,13,15,17,-1,19,-1,-1,21,-1,23,-1,-1,25,27,-1,-1,-1,-1,-1,-1,-1,-1],"loss_changes":[2.7288895E4,2.5445312E1,3.7930205E3,0E0,1.9545166E1,6.7085205E2,1.975627E3,1.4290634E1,3.340332E0,2.1343018E1,0E0,3.1035679E3,0E0,0E0,1.0077963E1,0E0,9.840161E1,0E0,0E0,6.86178E1,1.6214309E3,0E0,0E0,0E0,0E0,0E0,0E0,0E0,0E0],"parents":[2147483647,0,0,1,1,2,2,4,4,5,5,6,6,7,7,8,8,9,9,11,11,14,14,16,16,19,19,20,20],"right_children":[2,4,6,-1,8,10,12,14,16,18,-1,20,-1,-1,22,-1,24,-1,-1,26,28,-1,-1,-1,-1,-1,-1,-1,-1],"split_conditions":[4E0,2.3E1,2.1E1,-1.5546059E-2,1.2E1,1E0,1E0,1.1E1,2.4E1,1E0,1.5258958E-2,2E0,1.5958194E-2,-1.2942277E-2,2.4E1,-1.567653E-2,1.3E1,-1.5250059E-2,6.932676E-3,7.8333335E0,2.6E1,-6.194152E-4,-1.0071692E-2,2.0661321E-3,-1.4177273E-2,-1.2600516E-2,9.4215255E-3,-4.6409545E-3,1.3796861E-2],"split_indices":[4,0,0,0,5,9,9,5,0,13,0,2,0,0,0,0,5,0,0,3,0,0,0,0,0,0,0,0,0],"split_type":[0,0,0,0,0,0,0,0,0,0,0,0,0,0,0,0,0,0,0,0,0,0,0,0,0,0,0,0,0],"sum_hessian":[1.7396697E4,7.05203E3,1.0344667E4,5.218864E3,1.8331659E3,7.1910004E2,9.625566E3,8.034491E1,1.7528209E3,6.4047156E2,7.8628494E1,4.1434536E3,5.4821133E3,3.4727474E1,4.5617435E1,3.7995514E2,1.3728658E3,6.3822473E2,2.246816E0,7.098841E2,3.4335693E3,3.1547073E1,1.4070364E1,3.7384865E1,1.335481E3,6.9817334E2,1.1710742E1,5.700683E2,2.863501E3],"tree_param":{"num_deleted":"0","num_feature":"16","num_nodes":"29","size_leaf_vector":"1"}},{"base_weights":[3.603368E-4,-1.5043794E0,1.0293797E0,-1.5440802E-2,-1.3880664E0,3.7941945E-1,1.5864827E-2,-8.3785397E-1,-1.4119617E0,-8.2494146E-1,1.0695878E0,-1.3078059E-2,-4.2054868E-1,-1.55234365E-2,-1.368892E0,-1.2879051E0,5.6165445E-1,-9.726757E-1,1.3141978E0,-7.6428876E-4,-1.0172926E-2,1.8907504E-3,-1.4122032E-2,-1.4619921E-2,-7.813704E-3,-1.2476889E-2,1.0230386E-2,-1.0567715E-2,8.668256E-3,1.5515604E-2,1.078725E-2],"categories":[],"categories_nodes":[],"categories_segments":[],"categories_sizes":[],"default_left":[0,0,0,0,0,0,0,0,0,0,0,0,0,0,0,0,0,0,0,0,0,0,0,0,0,0,0,0,0,0,0],"id":30,"left_children":[1,3,5,-1,7,9,-1,11,13,15,17,-1,19,-1,21,23,25,27,29,-1,-1,-1,-1,-1,-1,-1,-1,-1,-1,-1,-1],"loss_changes":[2.686612E4,2.3964844E1,3.728706E3,0E0,1.936377E1,3.9609565E3,0E0,1.4689041E1,2.084961E0,1.1177444E3,1.5179509E3,0E0,1.0266702E1,0E0,9.3745605E1,1.10346924E2,3.703271E2,5.412845E1,1.4455762E2,0E0,0E0,0E0,0E0,0E0,0E0,0E0,0E0,0E0,0E0,0E0,0E0],"parents":[2147483647,0,0,1,1,2,2,4,4,5,5,7,7,8,8,9,9,10,10,12,12,14,14,15,15,16,16,17,17,18,18],"right_children":[2,4,6,-1,8,10,-1,12,14,16,18,-1,20,-1,22,24,26,28,30,-1,-1,-1,-1,-1,-1,-1,-1,-1,-1,-1,-1],"split_conditions":[4E0,6.09375E0,1E0,-1.5440802E-2,1.2E1,4.8E0,1.5864827E-2,1.1E1,6.4E0,5E0,2E0,-1.3078059E-2,6.4E0,-1.55234365E-2,1.3E1,4.3333335E0,2E0,7.8333335E0,1.2E1,-7.6428876E-4,-1.0172926E-2,1.8907504E-3,-1.4122032E-2,-1.4619921E-2,-7.813704E-3,-1.2476889E-2,1.0230386E-2,-1.0567715E-2,8.668256E-3,1.5515604E-2,1.078725E-2],"split_indices":[4,3,10,0,5,3,0,5,3,4,2,0,3,0,5,3,2,3,8,0,0,0,0,0,0,0,0,0,0,0,0],"split_type":[0,0,0,0,0,0,0,0,0,0,0,0,0,0,0,0,0,0,0,0,0,0,0,0,0,0,0,0,0,0,0],"sum_hessian":[1.7342818E4,7.042577E3,1.0300241E4,5.2138467E3,1.8287307E3,4.7570337E3,5.543207E3,8.211863E1,1.746612E3,1.732681E3,3.0243525E3,3.460838E1,4.7510254E1,3.7715067E2,1.3694613E3,1.2991868E3,4.3349435E2,3.222192E2,2.7021333E3,3.299537E1,1.4514885E1,3.6676907E1,1.3327844E3,9.6127014E2,3.379166E2,8.669565E1,3.467987E2,3.0976004E2,1.2459141E1,1.3345332E3,1.3676001E3],"tree_param":{"num_deleted":"0","num_feature":"16","num_nodes":"31","size_leaf_vector":"1"}},{"base_weights":[8.473255E-4,-1.4966158E0,1.0227058E0,-1.536619E-2,-1.3802705E0,3.7932298E-1,1.5772356E-2,1.4807095E-2,-1.4081299E0,-7.50896E-1,1.1702831E0,-1.5425684E-2,-1.3640465E0,-1.105053E0,3.652178E-1,-1.1065125E0,1.3894986E0,1.898132E-2,-1.41587425E-2,-1.2701701E-2,8.353142E-4,8.835982E-3,-1.0485163E-2,-1.3392355E-2,-5.0667534E-3,1.0502851E-2,1.5374232E-2],"categories":[],"categories_nodes":[],"categories_segments":[],"categories_sizes":[],"default_left":[0,0,0,0,0,0,0,0,0,0,0,0,0,0,0,0,0,0,0,0,0,0,0,0,0,0,0],"id":31,"left_children":[1,3,5,-1,7,9,-1,-1,11,13,15,-1,17,19,21,23,25,-1,-1,-1,-1,-1,-1,-1,-1,-1,-1],"loss_changes":[2.6495535E4,2.4203125E1,3.6695205E3,0E0,1.546997E2,4.267297E3,0E0,0E0,2.3735352E0,7.787688E2,1.4073809E3,0E0,2.4839502E2,2.9353125E2,3.529797E2,3.2016693E1,1.2213135E2,0E0,0E0,0E0,0E0,0E0,0E0,0E0,0E0,0E0,0E0],"parents":[2147483647,0,0,1,1,2,2,4,4,5,5,8,8,9,9,10,10,12,12,13,13,14,14,15,15,16,16],"right_children":[2,4,6,-1,8,10,-1,-1,12,14,16,-1,18,20,22,24,26,-1,-1,-1,-1,-1,-1,-1,-1,-1,-1],"split_conditions":[4E0,6.09375E0,1E0,-1.536619E-2,1.6E1,2E1,1.5772356E-2,1.4807095E-2,6.4E0,4.8E0,2E0,-1.5425684E-2,1.7E1,5E0,1.1E1,6.09375E0,2.5E1,1.898132E-2,-1.41587425E-2,-1.2701701E-2,8.353142E-4,8.835982E-3,-1.0485163E-2,-1.3392355E-2,-5.0667534E-3,1.0502851E-2,1.5374232E-2],"split_indices":[4,3,9,0,1,1,0,0,3,3,2,0,1,4,8,3,1,0,0,0,0,0,0,0,0,0,0],"split_type":[0,0,0,0,0,0,0,0,0,0,0,0,0,0,0,0,0,0,0,0,0,0,0,0,0,0,0],"sum_hessian":[1.7307129E4,7.019167E3,1.0287963E4,5.18691E3,1.8322567E3,4.765554E3,5.5224087E3,1.5658306E1,1.8165984E3,1.9620886E3,2.8034656E3,4.1500803E2,1.4015903E3,1.4894933E3,4.7259537E2,2.4479616E2,2.5586694E3,1.9690992E1,1.3818994E3,1.3075718E3,1.8192148E2,3.46897E2,1.2569836E2,1.7281662E2,7.197953E1,7.8680585E2,1.7718635E3],"tree_param":{"num_deleted":"0","num_feature":"16","num_nodes":"27","size_leaf_vector":"1"}},{"base_weights":[1.4970106E-3,-1.4890689E0,1.0135398E0,-1.5280917E-2,-1.375443E0,3.6805663E-1,1.5681928E-2,1.4391598E-2,-1.4006542E0,-6.6896355E-1,1.2225969E0,-1.5378374E-2,-1.3554577E0,-1.0655468E0,2.780904E-1,7.508577E-1,1.413968E0,1.8353725E-2,-1.4008194E-2,-1.280057E-2,2.137048E-3,8.053021E-3,-9.307782E-3,1.0754045E-2,-8.692686E-3,1.4402996E-2,8.903701E-3],"categories":[],"categories_nodes":[],"categories_segments":[],"categories_sizes":[],"default_left":[0,0,0,0,0,0,0,0,0,0,0,0,0,0,0,0,0,0,0,0,0,0,0,0,0,0,0],"id":32,"left_children":[1,3,5,-1,7,9,-1,-1,11,13,15,-1,17,19,21,23,25,-1,-1,-1,-1,-1,-1,-1,-1,-1,-1],"loss_changes":[2.6005375E4,2.2503906E1,3.673709E3,0E0,1.3736548E2,4.213055E3,0E0,0E0,2.8725586E0,8.082053E2,2.3099902E2,0E0,2.120122E2,4.169176E2,4.092156E2,4.0364508E2,2.03667E1,0E0,0E0,0E0,0E0,0E0,0E0,0E0,0E0,0E0,0E0],"parents":[2147483647,0,0,1,1,2,2,4,4,5,5,8,8,9,9,10,10,12,12,13,13,14,14,15,15,16,16],"right_children":[2,4,6,-1,8,10,-1,-1,12,14,16,-1,18,20,22,24,26,-1,-1,-1,-1,-1,-1,-1,-1,-1,-1],"split_conditions":[4E0,6.09375E0,1E0,-1.5280917E-2,1.6E1,2.1E1,1.5681928E-2,1.4391598E-2,6.4E0,4.8E0,2.5E1,-1.5378374E-2,1.7E1,5E0,1.1E1,1.4E1,4E0,1.8353725E-2,-1.4008194E-2,-1.280057E-2,2.137048E-3,8.053021E-3,-9.307782E-3,1.0754045E-2,-8.692686E-3,1.4402996E-2,8.903701E-3],"split_indices":[4,3,9,0,1,1,0,0,3,3,1,0,1,4,8,8,15,0,0,0,0,0,0,0,0,0,0],"split_type":[0,0,0,0,0,0,0,0,0,0,0,0,0,0,0,0,0,0,0,0,0,0,0,0,0,0,0],"sum_hessian":[1.7231037E4,6.9673853E3,1.0263651E4,5.1491895E3,1.8181959E3,4.746508E3,5.5171436E3,1.41499195E1,1.8040459E3,2.1446973E3,2.6018108E3,4.14334E2,1.3897119E3,1.5113232E3,6.33374E2,7.5655634E2,1.8452545E3,1.7267136E1,1.3724448E3,1.2942891E3,2.170342E2,4.4196127E2,1.9141277E2,6.314149E2,1.2514139E2,1.7502325E3,9.5021866E1],"tree_param":{"num_deleted":"0","num_feature":"16","num_nodes":"27","size_leaf_vector":"1"}},{"base_weights":[-1.1222786E-3,-1.476887E0,1.008848E0,-1.5163802E-2,-1.3611208E0,3.7309465E-1,1.559329E-2,1.4457202E-2,-1.3875471E0,-1.0831721E0,1.1120569E0,-1.52630145E-2,-1.3419201E0,-1.3337489E0,-3.5542706E-1,3.531927E-1,1.3493544E0,1.8265247E-2,-1.3884448E-2,-1.3463119E-2,1.0413494E-2,1.8417404E-3,-1.6288586E-2,8.154327E-3,-1.0921126E-2,1.0664184E-2,1.4743419E-2],"categories":[],"categories_nodes":[],"categories_segments":[],"categories_sizes":[],"default_left":[0,0,0,0,0,0,0,0,0,0,0,0,0,0,0,0,0,0,0,0,0,0,0,0,0,0,0],"id":33,"left_children":[1,3,5,-1,7,9,-1,-1,11,13,15,-1,17,19,21,23,25,-1,-1,-1,-1,-1,-1,-1,-1,-1,-1],"loss_changes":[2.5594447E4,2.3644531E1,3.565579E3,0E0,1.4256323E2,5.1016455E3,0E0,0E0,3.196289E0,2.8920947E2,5.64239E2,0E0,2.1458716E2,4.099707E1,2.859032E2,5.0751703E2,7.835596E1,0E0,0E0,0E0,0E0,0E0,0E0,0E0,0E0,0E0,0E0],"parents":[2147483647,0,0,1,1,2,2,4,4,5,5,8,8,9,9,10,10,12,12,13,13,14,14,15,15,16,16],"right_children":[2,4,6,-1,8,10,-1,-1,12,14,16,-1,18,20,22,24,26,-1,-1,-1,-1,-1,-1,-1,-1,-1,-1],"split_conditions":[4E0,2.3E1,1E0,-1.5163802E-2,7.111111E0,2.6E1,1.559329E-2,1.4457202E-2,2.4E1,2.4E1,3E1,-1.52630145E-2,7.5555553E0,1E0,1E1,1.2E1,3.4E1,1.8265247E-2,-1.3884448E-2,-1.3463119E-2,1.0413494E-2,1.8417404E-3,-1.6288586E-2,8.154327E-3,-1.0921126E-2,1.0664184E-2,1.4743419E-2],"split_indices":[4,0,10,0,6,0,0,0,0,0,0,0,6,13,5,5,0,0,0,0,0,0,0,0,0,0,0],"split_type":[0,0,0,0,0,0,0,0,0,0,0,0,0,0,0,0,0,0,0,0,0,0,0,0,0,0,0],"sum_hessian":[1.7163969E4,6.9730806E3,1.0190888E4,5.1632583E3,1.8098221E3,4.732273E3,5.4586147E3,1.487676E1,1.7949454E3,1.5923596E3,3.139913E3,4.1205545E2,1.38289E3,1.182032E3,4.1032767E2,7.503354E2,2.3895776E3,1.779757E1,1.3650924E3,1.1775361E3,4.4959025E0,2.906077E2,1.1971996E2,5.698335E2,1.805019E2,7.438483E2,1.6457294E3],"tree_param":{"num_deleted":"0","num_feature":"16","num_nodes":"27","size_leaf_vector":"1"}},{"base_weights":[5.226503E-3,-1.4691911E0,1.0052941E0,-1.5084088E-2,-1.3548545E0,-1.1431941E0,1.1655028E0,1.4456577E-2,-1.3821224E0,-1.4658192E-2,1.4799469E-2,6.578693E-1,1.55055495E-2,-1.5132787E-2,-1.3379102E0,-4.9670067E-1,1.2351022E0,1.8139215E-2,-1.3853415E-2,-1.1658881E-2,-4.9471314E-4,7.287765E-3,1.4167842E-2],"categories":[],"categories_nodes":[],"categories_segments":[],"categories_sizes":[],"default_left":[0,0,0,0,0,0,0,0,0,0,0,0,0,0,0,0,0,0,0,0,0,0,0],"id":34,"left_children":[1,3,5,-1,7,9,11,-1,13,-1,-1,15,-1,-1,17,19,21,-1,-1,-1,-1,-1,-1],"loss_changes":[2.5210307E4,2.280957E1,3.5118994E3,0E0,1.4575928E2,6.0866345E2,1.8494102E3,0E0,2.27417E0,0E0,0E0,2.733001E3,0E0,0E0,2.152024E2,4.0932727E2,2.4724658E2,0E0,0E0,0E0,0E0,0E0,0E0],"parents":[2147483647,0,0,1,1,2,2,4,4,5,5,6,6,8,8,11,11,14,14,15,15,16,16],"right_children":[2,4,6,-1,8,10,12,-1,14,-1,-1,16,-1,-1,18,20,22,-1,-1,-1,-1,-1,-1],"split_conditions":[4E0,2.3E1,2.1E1,-1.5084088E-2,1.6E1,1E0,1E0,1.4456577E-2,2.4E1,-1.4658192E-2,1.4799469E-2,2.8E1,1.55055495E-2,-1.5132787E-2,1.7E1,2.4E1,3.2E1,1.8139215E-2,-1.3853415E-2,-1.1658881E-2,-4.9471314E-4,7.287765E-3,1.4167842E-2],"split_indices":[4,0,0,0,1,9,9,0,0,0,0,0,0,0,1,0,0,0,0,0,0,0,0],"split_type":[0,0,0,0,0,0,0,0,0,0,0,0,0,0,0,0,0,0,0,0,0,0,0],"sum_hessian":[1.7089322E4,6.9059214E3,1.01834E4,5.1058394E3,1.800082E3,7.0495917E2,9.478441E3,1.5351602E1,1.7847305E3,6.293224E2,7.563679E1,4.0931167E3,5.3853247E3,4.1644025E2,1.3682902E3,1.3644762E3,2.7286406E3,1.8077213E1,1.350213E3,5.4402545E2,8.2045074E2,7.258449E2,2.0027957E3],"tree_param":{"num_deleted":"0","num_feature":"16","num_nodes":"23","size_leaf_vector":"1"}},{"base_weights":[-4.126776E-4,-1.4607311E0,9.941005E-1,-1.5002516E-2,-1.3451563E0,3.605848E-1,1.54217435E-2,1.4158685E-2,-1.3706113E0,-1.070919E0,1.0923452E0,-1.5107799E-2,-1.3242302E0,-1.3313136E0,-3.2293236E-1,-9.752977E-1,1.3225942E0,1.787563E-2,-1.3700973E-2,-1.3453753E-2,1.0936883E-2,1.9214474E-2,-7.336108E-3,1.6679429E-2,-1.1429486E-2,8.791573E-3,1.4882999E-2],"categories":[],"categories_nodes":[],"categories_segments":[],"categories_sizes":[],"default_left":[0,0,0,0,0,0,0,0,0,0,0,0,0,0,0,0,0,0,0,0,0,0,0,0,0,0,0],"id":35,"left_children":[1,3,5,-1,7,9,-1,-1,11,13,15,-1,17,19,21,23,25,-1,-1,-1,-1,-1,-1,-1,-1,-1,-1],"loss_changes":[2.467067E4,2.3362305E1,3.5064688E3,0E0,1.3372925E2,4.92016E3,0E0,0E0,3.5566406E0,3.0783838E2,1.484396E3,0E0,2.050957E2,4.6042725E1,3.887932E2,1.466127E2,2.0032861E2,0E0,0E0,0E0,0E0,0E0,0E0,0E0,0E0,0E0,0E0],"parents":[2147483647,0,0,1,1,2,2,4,4,5,5,8,8,9,9,10,10,12,12,13,13,14,14,15,15,16,16],"right_children":[2,4,6,-1,8,10,-1,-1,12,14,16,-1,18,20,22,24,26,-1,-1,-1,-1,-1,-1,-1,-1,-1,-1],"split_conditions":[4E0,2.3E1,1E0,-1.5002516E-2,1.6E1,2.6E1,1.54217435E-2,1.4158685E-2,2.4E1,2.4E1,2E0,-1.5107799E-2,1.7E1,1E0,1.7E1,1.9E1,3.1E1,1.787563E-2,-1.3700973E-2,-1.3453753E-2,1.0936883E-2,1.9214474E-2,-7.336108E-3,1.6679429E-2,-1.1429486E-2,8.791573E-3,1.4882999E-2],"split_indices":[4,0,10,0,1,0,0,0,0,0,2,0,1,13,1,1,0,0,0,0,0,0,0,0,0,0,0],"split_type":[0,0,0,0,0,0,0,0,0,0,0,0,0,0,0,0,0,0,0,0,0,0,0,0,0,0,0],"sum_hessian":[1.697924E4,6.877952E3,1.0101289E4,5.089638E3,1.7883136E3,4.6885034E3,5.412785E3,1.43406105E1,1.773973E3,1.5853379E3,3.1031658E3,4.0965585E2,1.3643171E3,1.1736417E3,4.116962E2,3.0964053E2,2.7935251E3,1.7611362E1,1.3467058E3,1.168646E3,4.995709E0,6.1404186E1,3.5029202E2,1.6333025E1,2.933075E2,7.66787E2,2.0267382E3],"tree_param":{"num_deleted":"0","num_feature":"16","num_nodes":"27","size_leaf_vector":"1"}},{"base_weights":[-2.5054326E-3,-1.4516981E0,9.861949E-1,-1.4892456E-2,-1.3743767E-2,3.5909474E-1,1.5338572E-2,-6.429721E-1,1.194904E0,-1.2405553E0,-8.4012926E-2,-1.0771526E0,1.388676E0,-1.280652E-2,1.3122385E-2,-1.2216276E-2,4.2382437E-3,-1.1455806E-2,2.5369867E-3,1.5418655E-2,1.1519625E-2],"categories":[],"categories_nodes":[],"categories_segments":[],"categories_sizes":[],"default_left":[0,0,0,0,0,0,0,0,0,0,0,0,0,0,0,0,0,0,0,0,0],"id":36,"left_children":[1,3,5,-1,-1,7,-1,9,11,13,15,17,19,-1,-1,-1,-1,-1,-1,-1,-1],"loss_changes":[2.4277832E4,1.1763672E1,3.457037E3,0E0,0E0,3.9402078E3,0E0,7.1453E2,1.1350107E3,1.1257825E2,6.4347797E2,1.9719803E1,7.864307E1,0E0,0E0,0E0,0E0,0E0,0E0,0E0,0E0],"parents":[2147483647,0,0,1,1,2,2,5,5,7,7,8,8,9,9,10,10,11,11,12,12],"right_children":[2,4,6,-1,-1,8,-1,10,12,14,16,18,20,-1,-1,-1,-1,-1,-1,-1,-1],"split_conditions":[4E0,1.5E1,1E0,-1.4892456E-2,-1.3743767E-2,2.1E1,1.5338572E-2,1.6E1,2E0,1E1,2E0,8.8E0,1.4E1,-1.280652E-2,1.3122385E-2,-1.2216276E-2,4.2382437E-3,-1.1455806E-2,2.5369867E-3,1.5418655E-2,1.1519625E-2],"split_indices":[4,1,9,0,0,1,0,1,2,5,2,6,8,0,0,0,0,0,0,0,0],"split_type":[0,0,0,0,0,0,0,0,0,0,0,0,0,0,0,0,0,0,0,0,0],"sum_hessian":[1.6936127E4,6.8677754E3,1.0068352E4,4.573718E3,2.2940579E3,4.6968506E3,5.3715005E3,2.136402E3,2.5604485E3,1.0301699E3,1.1062322E3,1.9977461E2,2.3606738E3,1.0162018E3,1.3968136E1,3.3968225E2,7.665499E2,1.9053477E2,9.23983E0,1.4197964E3,9.4087744E2],"tree_param":{"num_deleted":"0","num_feature":"16","num_nodes":"21","size_leaf_vector":"1"}},{"base_weights":[-9.4901095E-4,-7.13851E-1,1.5257244E-2,-1.4195024E0,7.728587E-1,-1.4385245E0,-9.791488E-1,-1.2371882E0,1.214643E0,-1.4763779E-2,-1.3318527E0,1.7684016E-2,-1.150519E0,-1.429479E0,-7.809044E-1,6.029435E-1,1.4444346E0,1.612277E-2,-1.362014E-2,-1.1685294E-2,3.8381934E-3,-1.45505E-2,9.137857E-3,1.268472E-2,-1.44975595E-2,1.2813791E-2,-9.531662E-3,1.5474244E-2,1.152493E-2],"categories":[],"categories_nodes":[],"categories_segments":[],"categories_sizes":[],"default_left":[0,0,0,0,0,0,0,0,0,0,0,0,0,0,0,0,0,0,0,0,0,0,0,0,0,0,0,0,0],"id":37,"left_children":[1,3,-1,5,7,9,11,13,15,-1,17,-1,19,21,23,25,27,-1,-1,-1,-1,-1,-1,-1,-1,-1,-1,-1,-1],"loss_changes":[1.8389113E4,1.2087574E4,0E0,5.9802734E1,3.3003103E3,2.233789E1,1.663465E2,5.435742E1,4.2429834E2,0E0,1.863789E2,0E0,1.0601044E1,3.3291565E1,2.9189975E2,8.895066E2,5.9296387E1,0E0,0E0,0E0,0E0,0E0,0E0,0E0,0E0,0E0,0E0,0E0,0E0],"parents":[2147483647,0,0,1,1,3,3,4,4,5,5,6,6,7,7,8,8,10,10,12,12,13,13,14,14,15,15,16,16],"right_children":[2,4,-1,6,8,10,12,14,16,-1,18,-1,20,22,24,26,28,-1,-1,-1,-1,-1,-1,-1,-1,-1,-1,-1,-1],"split_conditions":[1E0,2E0,1.5257244E-2,3E1,2.4E1,2.3E1,2.3E1,2.2E1,3E1,-1.4763779E-2,1.6E1,1.7684016E-2,5.5E1,1E0,8E0,1.1E1,1.6E1,1.612277E-2,-1.362014E-2,-1.1685294E-2,3.8381934E-3,-1.45505E-2,9.137857E-3,1.268472E-2,-1.44975595E-2,1.2813791E-2,-9.531662E-3,1.5474244E-2,1.152493E-2],"split_indices":[9,2,0,0,0,0,1,0,0,0,1,0,0,13,8,8,8,0,0,0,0,0,0,0,0,0,0,0,0],"split_type":[0,0,0,0,0,0,0,0,0,0,0,0,0,0,0,0,0,0,0,0,0,0,0,0,0,0,0,0,0],"sum_hessian":[1.6888033E4,1.1513684E4,5.3743496E3,7.8079175E3,3.7057664E3,7.4759106E3,3.3200674E2,6.664274E2,3.0393389E3,5.4799395E3,1.995971E3,1.730363E1,3.1470312E2,4.6284164E2,2.0358583E2,8.3393134E2,2.2054075E3,1.8112795E1,1.9778582E3,3.1199454E2,2.7085958E0,4.5934518E2,3.4964383E0,4.921229E1,1.5437354E2,5.8123126E2,2.5270009E2,1.6175679E3,5.8783966E2],"tree_param":{"num_deleted":"0","num_feature":"16","num_nodes":"29","size_leaf_vector":"1"}},{"base_weights":[-2.8053342E-4,-1.4351189E0,9.776277E-1,-1.4754481E-2,-1.3182293E0,3.5587338E-1,1.51774315E-2,1.4193493E-2,-1.3446908E0,-1.0539943E0,1.0720946E0,-1.4836214E-2,-1.299645E0,-1.3007152E0,-3.522533E-1,-9.678526E-1,1.3063073E0,1.805239E-2,-1.3465282E-2,-1.3727543E-2,-8.90017E-3,1.8814512E-2,-7.4400734E-3,1.6538884E-2,-1.12771625E-2,8.789535E-3,1.46475565E-2],"categories":[],"categories_nodes":[],"categories_segments":[],"categories_sizes":[],"default_left":[0,0,0,0,0,0,0,0,0,0,0,0,0,0,0,0,0,0,0,0,0,0,0,0,0,0,0],"id":38,"left_children":[1,3,5,-1,7,9,-1,-1,11,13,15,-1,17,19,21,23,25,-1,-1,-1,-1,-1,-1,-1,-1,-1,-1],"loss_changes":[2.3609902E4,2.436914E1,3.3582324E3,0E0,1.3708301E2,4.706997E3,0E0,0E0,3.3759766E0,2.7012903E2,1.4814651E3,0E0,2.0919702E2,2.9454102E1,3.6796048E2,1.4180814E2,1.8265918E2,0E0,0E0,0E0,0E0,0E0,0E0,0E0,0E0,0E0,0E0],"parents":[2147483647,0,0,1,1,2,2,4,4,5,5,8,8,9,9,10,10,12,12,13,13,14,14,15,15,16,16],"right_children":[2,4,6,-1,8,10,-1,-1,12,14,16,-1,18,20,22,24,26,-1,-1,-1,-1,-1,-1,-1,-1,-1,-1],"split_conditions":[4E0,2.3E1,1E0,-1.4754481E-2,1.6E1,2.6E1,1.51774315E-2,1.4193493E-2,2.4E1,2.4E1,2E0,-1.4836214E-2,1.7E1,2.3E1,1.7E1,1.9E1,3.1E1,1.805239E-2,-1.3465282E-2,-1.3727543E-2,-8.90017E-3,1.8814512E-2,-7.4400734E-3,1.6538884E-2,-1.12771625E-2,8.789535E-3,1.46475565E-2],"split_indices":[4,0,11,0,1,0,0,0,0,0,2,0,1,0,1,1,0,0,0,0,0,0,0,0,0,0,0],"split_type":[0,0,0,0,0,0,0,0,0,0,0,0,0,0,0,0,0,0,0,0,0,0,0,0,0,0,0],"sum_hessian":[1.6818475E4,6.8159233E3,1.0002551E4,5.0329604E3,1.782963E3,4.652946E3,5.349605E3,1.5053452E1,1.7679095E3,1.5668147E3,3.086131E3,4.015883E2,1.3663213E3,1.1567173E3,4.1009744E2,3.1654614E2,2.769585E3,1.8092758E1,1.3482285E3,9.761281E2,1.8058919E2,5.892248E1,3.5117496E2,1.6044024E1,3.0050214E2,7.5620386E2,2.0133812E3],"tree_param":{"num_deleted":"0","num_feature":"16","num_nodes":"27","size_leaf_vector":"1"}},{"base_weights":[2.3259078E-3,-1.426575E0,9.740964E-1,-1.4661282E-2,-1.311634E0,3.5903805E-1,1.5099338E-2,1.3903559E-2,-1.3363211E0,-1.0445852E0,1.0726253E0,-1.4761947E-2,-1.2902005E0,-1.2985035E0,-3.367729E-1,-9.2857385E-1,1.2985667E0,1.7968798E-2,-1.3385072E-2,-1.3105802E-2,1.0159297E-2,2.0023203E-3,-1.5995923E-2,1.1671709E-2,-9.905966E-3,7.7301203E-3,1.4329631E-2],"categories":[],"categories_nodes":[],"categories_segments":[],"categories_sizes":[],"default_left":[0,0,0,0,0,0,0,0,0,0,0,0,0,0,0,0,0,0,0,0,0,0,0,0,0,0,0],"id":39,"left_children":[1,3,5,-1,7,9,-1,-1,11,13,15,-1,17,19,21,23,25,-1,-1,-1,-1,-1,-1,-1,-1,-1,-1],"loss_changes":[2.3294764E4,2.318164E1,3.288704E3,0E0,1.2593457E2,4.6662026E3,0E0,0E0,3.7514648E0,2.8054675E2,1.4008672E3,0E0,2.1201514E2,3.7597656E1,2.8616772E2,4.5642548E1,1.9164404E2,0E0,0E0,0E0,0E0,0E0,0E0,0E0,0E0,0E0,0E0],"parents":[2147483647,0,0,1,1,2,2,4,4,5,5,8,8,9,9,10,10,12,12,13,13,14,14,15,15,16,16],"right_children":[2,4,6,-1,8,10,-1,-1,12,14,16,-1,18,20,22,24,26,-1,-1,-1,-1,-1,-1,-1,-1,-1,-1],"split_conditions":[4E0,2.3E1,1E0,-1.4661282E-2,7.111111E0,2.6E1,1.5099338E-2,1.3903559E-2,2.4E1,2.4E1,2E0,-1.4761947E-2,7.5555553E0,1E0,1E1,3E0,3E1,1.7968798E-2,-1.3385072E-2,-1.3105802E-2,1.0159297E-2,2.0023203E-3,-1.5995923E-2,1.1671709E-2,-9.905966E-3,7.7301203E-3,1.4329631E-2],"split_indices":[4,0,9,0,6,0,0,0,0,0,2,0,6,13,8,7,0,0,0,0,0,0,0,0,0,0,0],"split_type":[0,0,0,0,0,0,0,0,0,0,0,0,0,0,0,0,0,0,0,0,0,0,0,0,0,0,0],"sum_hessian":[1.6768154E4,6.7868433E3,9.9813125E3,5.0143076E3,1.7725355E3,4.650239E3,5.331073E3,1.4045005E1,1.7584905E3,1.5666968E3,3.083542E3,4.0529388E2,1.3531965E3,1.150597E3,4.1609973E2,3.1156064E2,2.7719812E3,1.8617899E1,1.3345787E3,1.1463503E3,4.2467155E0,2.943116E2,1.2178812E2,6.9067907E0,3.0465387E2,5.700028E2,2.2019785E3],"tree_param":{"num_deleted":"0","num_feature":"16","num_nodes":"27","size_leaf_vector":"1"}},{"base_weights":[2.8058677E-3,-6.940795E-1,1.5022671E-2,-1.3921067E0,7.640846E-1,-1.395156E0,1.0091076E-2,-1.2198359E0,1.2018806E0,-1.4519058E-2,-1.2588527E0,-1.4066317E0,-7.794968E-1,6.172141E-1,1.4215816E0,1.6484648E-2,-1.2895005E-2,-1.4397358E-2,3.7578016E-3,1.2518491E-2,-1.4332636E-2,1.2631771E-2,-9.159573E-3,1.52059905E-2,1.1428744E-2],"categories":[],"categories_nodes":[],"categories_segments":[],"categories_sizes":[],"default_left":[0,0,0,0,0,0,0,0,0,0,0,0,0,0,0,0,0,0,0,0,0,0,0,0,0],"id":40,"left_children":[1,3,-1,5,7,9,-1,11,13,-1,15,17,19,21,23,-1,-1,-1,-1,-1,-1,-1,-1,-1,-1],"loss_changes":[1.745873E4,1.161418E4,0E0,6.2124023E1,3.21535E3,5.230664E1,0E0,5.0724243E1,3.8559766E2,0E0,2.1305347E2,2.9628906E1,2.8411832E2,8.3104736E2,5.372754E1,0E0,0E0,0E0,0E0,0E0,0E0,0E0,0E0,0E0,0E0],"parents":[2147483647,0,0,1,1,3,3,4,4,5,5,7,7,8,8,10,10,11,11,12,12,13,13,14,14],"right_children":[2,4,-1,6,8,10,-1,12,14,-1,16,18,20,22,24,-1,-1,-1,-1,-1,-1,-1,-1,-1,-1],"split_conditions":[1E0,2E0,1.5022671E-2,5.5E1,2.4E1,2.3E1,1.0091076E-2,2.2E1,3E1,-1.4519058E-2,1.6E1,3E0,8E0,1.1E1,1.6E1,1.6484648E-2,-1.2895005E-2,-1.4397358E-2,3.7578016E-3,1.2518491E-2,-1.4332636E-2,1.2631771E-2,-9.159573E-3,1.52059905E-2,1.1428744E-2],"split_indices":[9,2,0,0,0,0,0,0,0,0,1,2,8,8,8,0,0,0,0,0,0,0,0,0,0],"split_type":[0,0,0,0,0,0,0,0,0,0,0,0,0,0,0,0,0,0,0,0,0,0,0,0,0],"sum_hessian":[1.6699684E4,1.1402457E4,5.2972256E3,7.711245E3,3.6912124E3,7.7031387E3,8.106441E0,6.660027E2,3.0252097E3,5.411467E3,2.2916714E3,4.6146664E2,2.0453603E2,8.3045325E2,2.1947566E3,2.1703247E1,2.2699683E3,4.5380728E2,7.65935E0,4.8909138E1,1.5562689E2,5.8477673E2,2.4567653E2,1.6062677E3,5.8848883E2],"tree_param":{"num_deleted":"0","num_feature":"16","num_nodes":"25","size_leaf_vector":"1"}},{"base_weights":[-4.0477575E-3,-1.4129964E0,9.5802987E-1,-1.4520166E-2,-1.2988086E0,3.433558E-1,1.4947616E-2,1.3861143E-2,-1.3247501E0,-1.0392272E0,1.047717E0,-1.4673271E-2,-1.2784319E0,-1.3511322E0,-5.1906276E-1,-9.1079205E-1,1.2735431E0,1.7742215E-2,-1.3244038E-2,-1.3669534E-2,2.7710726E-3,2.1658028E-2,-6.805054E-3,1.6646342E-2,-1.074072E-2,8.426886E-3,1.4346366E-2],"categories":[],"categories_nodes":[],"categories_segments":[],"categories_sizes":[],"default_left":[0,0,0,0,0,0,0,0,0,0,0,0,0,0,0,0,0,0,0,0,0,0,0,0,0,0,0],"id":41,"left_children":[1,3,5,-1,7,9,-1,-1,11,13,15,-1,17,19,21,23,25,-1,-1,-1,-1,-1,-1,-1,-1,-1,-1],"loss_changes":[2.2491857E4,2.2455078E1,3.2509268E3,0E0,1.2941943E2,4.485461E3,0E0,0E0,3.973877E0,2.4948901E2,1.3537959E3,0E0,1.9785132E2,2.6493652E1,2.6137726E2,1.4074963E2,1.8511523E2,0E0,0E0,0E0,0E0,0E0,0E0,0E0,0E0,0E0,0E0],"parents":[2147483647,0,0,1,1,2,2,4,4,5,5,8,8,9,9,10,10,12,12,13,13,14,14,15,15,16,16],"right_children":[2,4,6,-1,8,10,-1,-1,12,14,16,-1,18,20,22,24,26,-1,-1,-1,-1,-1,-1,-1,-1,-1,-1],"split_conditions":[4E0,2.3E1,1E0,-1.4520166E-2,1.6E1,2.6E1,1.4947616E-2,1.3861143E-2,2.4E1,2.3E1,2E0,-1.4673271E-2,1.7E1,3E0,1.6E1,1.9E1,3.1E1,1.7742215E-2,-1.3244038E-2,-1.3669534E-2,2.7710726E-3,2.1658028E-2,-6.805054E-3,1.6646342E-2,-1.074072E-2,8.426886E-3,1.4346366E-2],"split_indices":[4,0,9,0,1,0,0,0,0,0,2,0,1,2,1,1,0,0,0,0,0,0,0,0,0,0,0],"split_type":[0,0,0,0,0,0,0,0,0,0,0,0,0,0,0,0,0,0,0,0,0,0,0,0,0,0,0],"sum_hessian":[1.6584818E4,6.728765E3,9.856053E3,4.9800986E3,1.7486664E3,4.59749E3,5.258563E3,1.4726758E1,1.7339396E3,1.5510497E3,3.0464404E3,3.950807E2,1.3388589E3,9.656371E2,5.854126E2,3.1370004E2,2.7327405E3,1.7632668E1,1.3212262E3,9.569802E2,8.656848E0,3.0387823E1,5.550248E2,1.6509813E1,2.9719022E2,7.504743E2,1.9822662E3],"tree_param":{"num_deleted":"0","num_feature":"16","num_nodes":"27","size_leaf_vector":"1"}},{"base_weights":[-3.533889E-4,-1.4042833E0,9.530228E-1,-1.4450942E-2,-1.2867535E0,3.423057E-1,1.4874046E-2,1.3913264E-2,-1.3136768E0,-6.936418E-1,1.0792584E0,-1.4507423E-2,-1.2684288E0,-9.347217E-1,7.216016E-1,-1.0529219E0,1.2962881E0,1.7577976E-2,-1.3141063E-2,-1.0661011E-2,1.2502932E-3,1.6432064E-2,-7.8665826E-4,-1.2599745E-2,-4.9659717E-3,9.75319E-3,1.4382591E-2],"categories":[],"categories_nodes":[],"categories_segments":[],"categories_sizes":[],"default_left":[0,0,0,0,0,0,0,0,0,0,0,0,0,0,0,0,0,0,0,0,0,0,0,0,0,0,0],"id":42,"left_children":[1,3,5,-1,7,9,-1,-1,11,13,15,-1,17,19,21,23,25,-1,-1,-1,-1,-1,-1,-1,-1,-1,-1],"loss_changes":[2.2095396E4,2.458496E1,3.206546E3,0E0,1.3401611E2,3.5096992E3,0E0,0E0,3.4421387E0,6.5496136E2,1.2481741E3,0E0,1.9465918E2,2.2820581E2,2.0740514E2,2.632959E1,1.0554004E2,0E0,0E0,0E0,0E0,0E0,0E0,0E0,0E0,0E0,0E0],"parents":[2147483647,0,0,1,1,2,2,4,4,5,5,8,8,9,9,10,10,12,12,13,13,14,14,15,15,16,16],"right_children":[2,4,6,-1,8,10,-1,-1,12,14,16,-1,18,20,22,24,26,-1,-1,-1,-1,-1,-1,-1,-1,-1,-1],"split_conditions":[4E0,6.09375E0,1E0,-1.4450942E-2,1.6E1,2E1,1.4874046E-2,1.3913264E-2,6.4E0,5.1666665E0,2E0,-1.4507423E-2,1.7E1,5E0,1.9E1,6.09375E0,2.5E1,1.7577976E-2,-1.3141063E-2,-1.0661011E-2,1.2502932E-3,1.6432064E-2,-7.8665826E-4,-1.2599745E-2,-4.9659717E-3,9.75319E-3,1.4382591E-2],"split_indices":[4,3,10,0,1,1,0,0,3,3,2,0,1,4,1,3,1,0,0,0,0,0,0,0,0,0,0],"split_type":[0,0,0,0,0,0,0,0,0,0,0,0,0,0,0,0,0,0,0,0,0,0,0,0,0,0,0],"sum_hessian":[1.649991E4,6.6723696E3,9.82754E3,4.9190845E3,1.7532855E3,4.589268E3,5.2382725E3,1.5433071E1,1.7378524E3,1.9077482E3,2.68152E3,4.00477E2,1.3373755E3,1.6312334E3,2.765147E2,2.4630644E2,2.4352134E3,1.7656693E1,1.3197188E3,1.4512903E3,1.799432E2,1.265564E2,1.499583E2,1.7581316E2,7.049329E1,7.564673E2,1.6787462E3],"tree_param":{"num_deleted":"0","num_feature":"16","num_nodes":"27","size_leaf_vector":"1"}},{"base_weights":[-3.178122E-4,-1.3959664E0,9.502596E-1,-1.4373003E-2,-1.2756811E0,3.4629416E-1,1.4801915E-2,1.3678981E-2,-1.3012804E0,-6.0542345E-1,1.1448672E0,-1.4401459E-2,-1.2556921E0,-9.792902E-1,2.809417E-1,6.9164103E-1,1.3303517E0,1.7467238E-2,-1.3019516E-2,-1.17979385E-2,1.8788005E-3,7.879588E-3,-9.118917E-3,1.0157705E-2,-8.862298E-3,1.3552316E-2,8.198468E-3],"categories":[],"categories_nodes":[],"categories_segments":[],"categories_sizes":[],"default_left":[0,0,0,0,0,0,0,0,0,0,0,0,0,0,0,0,0,0,0,0,0,0,0,0,0,0,0],"id":43,"left_children":[1,3,5,-1,7,9,-1,-1,11,13,15,-1,17,19,21,23,25,-1,-1,-1,-1,-1,-1,-1,-1,-1,-1],"loss_changes":[2.1861715E4,2.5859375E1,3.1352715E3,0E0,1.2507788E2,3.4884785E3,0E0,0E0,3.7080078E0,6.953966E2,2.0608276E2,0E0,1.9415894E2,3.4594812E2,3.8066403E2,3.7845758E2,1.7989502E1,0E0,0E0,0E0,0E0,0E0,0E0,0E0,0E0,0E0,0E0],"parents":[2147483647,0,0,1,1,2,2,4,4,5,5,8,8,9,9,10,10,12,12,13,13,14,14,15,15,16,16],"right_children":[2,4,6,-1,8,10,-1,-1,12,14,16,-1,18,20,22,24,26,-1,-1,-1,-1,-1,-1,-1,-1,-1,-1],"split_conditions":[4E0,6.09375E0,1E0,-1.4373003E-2,1.6E1,2.1E1,1.4801915E-2,1.3678981E-2,6.4E0,4.8E0,2.5E1,-1.4401459E-2,1.7E1,5E0,1.1E1,1.4E1,4E0,1.7467238E-2,-1.3019516E-2,-1.17979385E-2,1.8788005E-3,7.879588E-3,-9.118917E-3,1.0157705E-2,-8.862298E-3,1.3552316E-2,8.198468E-3],"split_indices":[4,3,11,0,1,1,0,0,3,3,1,0,1,4,8,8,15,0,0,0,0,0,0,0,0,0,0],"split_type":[0,0,0,0,0,0,0,0,0,0,0,0,0,0,0,0,0,0,0,0,0,0,0,0,0,0,0],"sum_hessian":[1.6470615E4,6.6723384E3,9.798277E3,4.933297E3,1.7390413E3,4.5823584E3,5.2159185E3,1.4666982E1,1.7243743E3,2.0911501E3,2.4912085E3,3.9594186E2,1.3284325E3,1.470484E3,6.2066614E2,7.289515E2,1.762257E3,1.7926092E1,1.3105063E3,1.2548713E3,2.156127E2,4.364918E2,1.8417433E2,6.0590924E2,1.230422E2,1.6740516E3,8.820527E1],"tree_param":{"num_deleted":"0","num_feature":"16","num_nodes":"27","size_leaf_vector":"1"}},{"base_weights":[-1.8200066E-4,-1.3896852E0,9.472809E-1,-1.43004535E-2,-1.2735673E0,3.5243896E-1,1.4731147E-2,1.3544942E-2,-1.2984934E0,-6.8113863E-1,1.0774171E0,-1.4406554E-2,-1.251941E0,-1.0198834E0,3.5188252E-1,-1.0302517E0,1.2867875E0,1.7392717E-2,-1.299042E-2,-1.1798738E-2,7.607182E-4,8.542581E-3,-1.0163379E-2,-1.255138E-2,-4.6083545E-3,1.4756051E-2,1.0465562E-2],"categories":[],"categories_nodes":[],"categories_segments":[],"categories_sizes":[],"default_left":[0,0,0,0,0,0,0,0,0,0,0,0,0,0,0,0,0,0,0,0,0,0,0,0,0,0,0],"id":44,"left_children":[1,3,5,-1,7,9,-1,-1,11,13,15,-1,17,19,21,23,25,-1,-1,-1,-1,-1,-1,-1,-1,-1,-1],"loss_changes":[2.1562002E4,2.3833984E1,3.0438857E3,0E0,1.2162305E2,3.4306963E3,0E0,0E0,4.2666016E0,6.6221576E2,1.1924304E3,0E0,1.974668E2,2.4987878E2,3.2603506E2,2.909903E1,1.0490283E2,0E0,0E0,0E0,0E0,0E0,0E0,0E0,0E0,0E0,0E0],"parents":[2147483647,0,0,1,1,2,2,4,4,5,5,8,8,9,9,10,10,12,12,13,13,14,14,15,15,16,16],"right_children":[2,4,6,-1,8,10,-1,-1,12,14,16,-1,18,20,22,24,26,-1,-1,-1,-1,-1,-1,-1,-1,-1,-1],"split_conditions":[4E0,6.09375E0,1E0,-1.43004535E-2,1.6E1,2E1,1.4731147E-2,1.3544942E-2,6.4E0,4.8E0,2E0,-1.4406554E-2,1.7E1,5E0,1.1E1,6.09375E0,1.3E1,1.7392717E-2,-1.299042E-2,-1.1798738E-2,7.607182E-4,8.542581E-3,-1.0163379E-2,-1.255138E-2,-4.6083545E-3,1.4756051E-2,1.0465562E-2],"split_indices":[4,3,9,0,1,1,0,0,3,3,2,0,1,4,8,3,8,0,0,0,0,0,0,0,0,0,0],"split_type":[0,0,0,0,0,0,0,0,0,0,0,0,0,0,0,0,0,0,0,0,0,0,0,0,0,0,0],"sum_hessian":[1.6370244E4,6.6361387E3,9.734106E3,4.8908984E3,1.7452402E3,4.5704883E3,5.163618E3,1.439267E1,1.7308475E3,1.8843187E3,2.6861694E3,3.9741852E2,1.3334291E3,1.4190422E3,4.6527655E2,2.413083E2,2.444861E3,1.8443512E1,1.3149855E3,1.238008E3,1.8103407E2,3.4141882E2,1.2385773E2,1.6953487E2,7.1773445E1,1.357399E3,1.087462E3],"tree_param":{"num_deleted":"0","num_feature":"16","num_nodes":"27","size_leaf_vector":"1"}},{"base_weights":[-2.3689403E-3,-6.803408E-1,1.4661794E-2,-1.3621932E0,7.3441756E-1,-1.3811885E0,-9.2756915E-1,-1.1852925E0,1.1602516E0,-1.4191468E-2,-1.2753369E0,-9.806344E-1,9.834077E-3,-1.3762225E0,-7.463507E-1,5.789391E-1,1.381014E0,-7.1383254E-3,-1.2894664E-2,-6.3734585E-3,-1.2207849E-2,-1.4032028E-2,2.0161618E-3,1.2944453E-2,-1.3951315E-2,1.2336452E-2,-9.1793835E-3,1.485929E-2,1.0886982E-2],"categories":[],"categories_nodes":[],"categories_segments":[],"categories_sizes":[],"default_left":[0,0,0,0,0,0,0,0,0,0,0,0,0,0,0,0,0,0,0,0,0,0,0,0,0,0,0,0,0],"id":45,"left_children":[1,3,-1,5,7,9,11,13,15,-1,17,19,-1,21,23,25,27,-1,-1,-1,-1,-1,-1,-1,-1,-1,-1,-1,-1],"loss_changes":[1.6248787E4,1.0774768E4,0E0,5.708789E1,2.9760264E3,2.1737305E1,3.7091553E1,5.1345825E1,3.7872754E2,0E0,1.1733643E1,2.334134E1,0E0,2.0559692E1,2.843625E2,8.140418E2,5.9590332E1,0E0,0E0,0E0,0E0,0E0,0E0,0E0,0E0,0E0,0E0,0E0,0E0],"parents":[2147483647,0,0,1,1,3,3,4,4,5,5,6,6,7,7,8,8,10,10,11,11,13,13,14,14,15,15,16,16],"right_children":[2,4,-1,6,8,10,12,14,16,-1,18,20,-1,22,24,26,28,-1,-1,-1,-1,-1,-1,-1,-1,-1,-1,-1,-1],"split_conditions":[1E0,2E0,1.4661794E-2,3E1,2.4E1,2.3E1,5.5E1,2.2E1,3E1,-1.4191468E-2,4.5384617E0,1.9E1,9.834077E-3,3E0,8E0,1.1E1,1.6E1,-7.1383254E-3,-1.2894664E-2,-6.3734585E-3,-1.2207849E-2,-1.4032028E-2,2.0161618E-3,1.2944453E-2,-1.3951315E-2,1.2336452E-2,-9.1793835E-3,1.485929E-2,1.0886982E-2],"split_indices":[9,2,0,0,0,0,0,0,0,0,6,8,0,2,5,5,8,0,0,0,0,0,0,0,0,0,0,0,0],"split_type":[0,0,0,0,0,0,0,0,0,0,0,0,0,0,0,0,0,0,0,0,0,0,0,0,0,0,0,0,0],"sum_hessian":[1.6312025E4,1.1161391E4,5.1506353E3,7.5316226E3,3.629768E3,7.2078906E3,3.2373178E2,6.576901E2,2.972078E3,5.26885E3,1.9390408E3,3.1687982E2,6.8519545E0,4.523754E2,2.053147E2,8.2202026E2,2.1500576E3,5.2654404E1,1.8863865E3,1.3644757E2,1.8043225E2,4.4520535E2,7.1700563E0,4.856585E1,1.5674886E2,5.7237683E2,2.4964346E2,1.5701736E3,5.798841E2],"tree_param":{"num_deleted":"0","num_feature":"16","num_nodes":"29","size_leaf_vector":"1"}},{"base_weights":[1.8293757E-3,-1.3761758E0,9.339918E-1,-1.4161054E-2,-1.2606064E0,3.376867E-1,1.4593841E-2,1.3638493E-2,-1.28669E0,-6.7295414E-1,1.0575637E0,-1.4232251E-2,-1.2421199E0,-9.1759104E-1,7.263447E-1,-1.0390735E0,1.2715791E0,1.7394973E-2,-1.2903896E-2,-1.0448632E-2,8.365789E-4,1.6172575E-2,-2.5807277E-4,-1.2431737E-2,-5.029272E-3,9.528144E-3,1.4139203E-2],"categories":[],"categories_nodes":[],"categories_segments":[],"categories_sizes":[],"default_left":[0,0,0,0,0,0,0,0,0,0,0,0,0,0,0,0,0,0,0,0,0,0,0,0,0,0,0],"id":46,"left_children":[1,3,5,-1,7,9,-1,-1,11,13,15,-1,17,19,21,23,25,-1,-1,-1,-1,-1,-1,-1,-1,-1,-1],"loss_changes":[2.0885584E4,2.3134766E1,3.0365586E3,0E0,1.2483911E2,3.3116565E3,0E0,0E0,3.3117676E0,6.511391E2,1.19779E3,0E0,1.9863391E2,2.060509E2,1.9056544E2,2.467569E1,1.0410864E2,0E0,0E0,0E0,0E0,0E0,0E0,0E0,0E0,0E0,0E0],"parents":[2147483647,0,0,1,1,2,2,4,4,5,5,8,8,9,9,10,10,12,12,13,13,14,14,15,15,16,16],"right_children":[2,4,6,-1,8,10,-1,-1,12,14,16,-1,18,20,22,24,26,-1,-1,-1,-1,-1,-1,-1,-1,-1,-1],"split_conditions":[4E0,6.09375E0,1E0,-1.4161054E-2,1.6E1,2E1,1.4593841E-2,1.3638493E-2,6.4E0,5.1666665E0,2E0,-1.4232251E-2,1.7E1,5E0,1.9E1,6.09375E0,2.5E1,1.7394973E-2,-1.2903896E-2,-1.0448632E-2,8.365789E-4,1.6172575E-2,-2.5807277E-4,-1.2431737E-2,-5.029272E-3,9.528144E-3,1.4139203E-2],"split_indices":[4,3,9,0,1,1,0,0,3,3,2,0,1,4,1,3,1,0,0,0,0,0,0,0,0,0,0],"split_type":[0,0,0,0,0,0,0,0,0,0,0,0,0,0,0,0,0,0,0,0,0,0,0,0,0,0,0],"sum_hessian":[1.6251387E4,6.556735E3,9.694652E3,4.839617E3,1.7171177E3,4.54396E3,5.1506924E3,1.4879114E1,1.7022386E3,1.8903474E3,2.6536123E3,3.8847223E2,1.3137664E3,1.6102136E3,2.8013376E2,2.4435255E2,2.4092598E3,1.869713E1,1.2950692E3,1.4284625E3,1.8175105E2,1.2613181E2,1.5400194E2,1.7315935E2,7.1193214E1,7.532272E2,1.6560327E3],"tree_param":{"num_deleted":"0","num_feature":"16","num_nodes":"27","size_leaf_vector":"1"}},{"base_weights":[3.2005394E-3,-1.3680677E0,9.2825854E-1,-1.4075971E-2,-1.2541903E0,3.416557E-1,1.4527081E-2,1.3505804E-2,-1.2797289E0,-7.2647655E-1,9.578516E-1,-1.4113594E-2,-1.2364568E0,-1.1365749E0,4.7560412E-1,-9.150518E-1,1.1947905E0,1.71991E-2,-1.2839577E-2,-1.3198621E-2,-6.2189805E-3,-1.1719535E-2,9.160052E-3,-9.921491E-3,8.210694E-3,1.4437424E-2,9.557832E-3],"categories":[],"categories_nodes":[],"categories_segments":[],"categories_sizes":[],"default_left":[0,0,0,0,0,0,0,0,0,0,0,0,0,0,0,0,0,0,0,0,0,0,0,0,0,0,0],"id":47,"left_children":[1,3,5,-1,7,9,-1,-1,11,13,15,-1,17,19,21,23,25,-1,-1,-1,-1,-1,-1,-1,-1,-1,-1],"loss_changes":[2.0516275E4,2.2268555E1,2.969295E3,0E0,1.2103735E2,3.0068293E3,0E0,0E0,2.708252E0,8.264288E2,1.2895754E3,0E0,1.9313647E2,1.1443506E2,3.1495007E2,4.709543E1,1.4755591E2,0E0,0E0,0E0,0E0,0E0,0E0,0E0,0E0,0E0,0E0],"parents":[2147483647,0,0,1,1,2,2,4,4,5,5,8,8,9,9,10,10,12,12,13,13,14,14,15,15,16,16],"right_children":[2,4,6,-1,8,10,-1,-1,12,14,16,-1,18,20,22,24,26,-1,-1,-1,-1,-1,-1,-1,-1,-1,-1],"split_conditions":[4E0,6.09375E0,1E0,-1.4075971E-2,7.111111E0,4.8E0,1.4527081E-2,1.3505804E-2,6.4E0,5E0,2E0,-1.4113594E-2,7.5555553E0,4.3333335E0,2E0,7.8333335E0,1.2E1,1.71991E-2,-1.2839577E-2,-1.3198621E-2,-6.2189805E-3,-1.1719535E-2,9.160052E-3,-9.921491E-3,8.210694E-3,1.4437424E-2,9.557832E-3],"split_indices":[4,3,9,0,6,3,0,0,3,4,2,0,6,3,2,3,5,0,0,0,0,0,0,0,0,0,0],"split_type":[0,0,0,0,0,0,0,0,0,0,0,0,0,0,0,0,0,0,0,0,0,0,0,0,0,0,0],"sum_hessian":[1.6165612E4,6.5114253E3,9.654187E3,4.7998477E3,1.7115774E3,4.5601797E3,5.0940073E3,1.4603268E1,1.6969741E3,1.6680376E3,2.8921418E3,3.8855533E2,1.3084188E3,1.2438928E3,4.2414484E2,3.235069E2,2.568635E3,1.8463364E1,1.2899554E3,9.1262866E2,3.3126413E2,8.806096E1,3.360839E2,3.1139273E2,1.2114168E1,1.2482675E3,1.3203674E3],"tree_param":{"num_deleted":"0","num_feature":"16","num_nodes":"27","size_leaf_vector":"1"}},{"base_weights":[-1.0354811E-3,-1.3619087E0,9.203817E-1,-1.3958022E-2,-1.22237E0,3.3162186E-1,1.446157E-2,1.7046358E-2,-1.2697874E0,-5.913432E-1,1.1049111E0,-1.4152182E-2,-1.2180989E0,-9.4859713E-1,2.5468048E-1,6.62482E-1,1.2911699E0,2.3411557E-2,-1.2766964E-2,-1.1450581E-2,1.7887977E-3,6.849187E-3,-9.052477E-3,9.727814E-3,-8.393981E-3,1.3154086E-2,7.992916E-3],"categories":[],"categories_nodes":[],"categories_segments":[],"categories_sizes":[],"default_left":[0,0,0,0,0,0,0,0,0,0,0,0,0,0,0,0,0,0,0,0,0,0,0,0,0,0,0],"id":48,"left_children":[1,3,5,-1,7,9,-1,-1,11,13,15,-1,17,19,21,23,25,-1,-1,-1,-1,-1,-1,-1,-1,-1,-1],"loss_changes":[2.0193205E4,2.3923828E1,2.970546E3,0E0,1.8947229E2,3.2393635E3,0E0,0E0,2.758789E0,6.2662787E2,2.0003955E2,0E0,2.1556604E2,3.2339612E2,3.1076605E2,3.479889E2,1.645996E1,0E0,0E0,0E0,0E0,0E0,0E0,0E0,0E0,0E0,0E0],"parents":[2147483647,0,0,1,1,2,2,4,4,5,5,8,8,9,9,10,10,12,12,13,13,14,14,15,15,16,16],"right_children":[2,4,6,-1,8,10,-1,-1,12,14,16,-1,18,20,22,24,26,-1,-1,-1,-1,-1,-1,-1,-1,-1,-1],"split_conditions":[4E0,6.4E0,1E0,-1.3958022E-2,1.7E1,2.1E1,1.446157E-2,1.7046358E-2,6.75E0,4.8E0,2.5E1,-1.4152182E-2,1.8E1,5E0,1E0,1.4E1,4E0,2.3411557E-2,-1.2766964E-2,-1.1450581E-2,1.7887977E-3,6.849187E-3,-9.052477E-3,9.727814E-3,-8.393981E-3,1.3154086E-2,7.992916E-3],"split_indices":[4,3,9,0,1,1,0,0,3,3,1,0,1,4,15,5,15,0,0,0,0,0,0,0,0,0,0],"split_type":[0,0,0,0,0,0,0,0,0,0,0,0,0,0,0,0,0,0,0,0,0,0,0,0,0,0,0],"sum_hessian":[1.609591E4,6.4975454E3,9.598364E3,5.1987656E3,1.2987799E3,4.5310483E3,5.067316E3,1.8476171E1,1.2803037E3,2.0660454E3,2.4650027E3,3.0805173E2,9.72252E2,1.4522942E3,6.137513E2,7.3569653E2,1.7293063E3,1.3223668E1,9.590283E2,1.2367332E3,2.1556111E2,4.4888852E2,1.6486275E2,6.108911E2,1.2480543E2,1.6417094E3,8.759693E1],"tree_param":{"num_deleted":"0","num_feature":"16","num_nodes":"27","size_leaf_vector":"1"}},{"base_weights":[2.5553858E-5,-1.3540868E0,9.162581E-1,-1.3960202E-2,-1.2332549E0,3.2881942E-1,1.4397396E-2,1.36532225E-2,-1.2601753E0,-9.767307E-1,1.0009075E0,-1.4075148E-2,-1.2123235E0,-1.2886784E0,-4.737472E-1,-8.785363E-1,1.2204008E0,1.7054556E-2,-1.2620717E-2,-1.3066515E-2,3.1755331E-3,2.1984749E-2,-6.340705E-3,1.616625E-2,-1.023684E-2,7.1075335E-3,1.3548635E-2],"categories":[],"categories_nodes":[],"categories_segments":[],"categories_sizes":[],"default_left":[0,0,0,0,0,0,0,0,0,0,0,0,0,0,0,0,0,0,0,0,0,0,0,0,0,0,0],"id":49,"left_children":[1,3,5,-1,7,9,-1,-1,11,13,15,-1,17,19,21,23,25,-1,-1,-1,-1,-1,-1,-1,-1,-1,-1],"loss_changes":[1.9859742E4,2.5845703E1,2.933998E3,0E0,1.2570679E2,3.9558882E3,0E0,0E0,5.0422363E0,2.3804065E2,1.2316731E3,0E0,1.97229E2,2.8902222E1,2.596355E2,1.201456E2,1.7883374E2,0E0,0E0,0E0,0E0,0E0,0E0,0E0,0E0,0E0,0E0],"parents":[2147483647,0,0,1,1,2,2,4,4,5,5,8,8,9,9,10,10,12,12,13,13,14,14,15,15,16,16],"right_children":[2,4,6,-1,8,10,-1,-1,12,14,16,-1,18,20,22,24,26,-1,-1,-1,-1,-1,-1,-1,-1,-1,-1],"split_conditions":[4E0,2.3E1,1E0,-1.3960202E-2,1.6E1,2.6E1,1.4397396E-2,1.36532225E-2,2.4E1,2.3E1,2E0,-1.4075148E-2,1.7E1,3E0,1.6E1,1.9E1,3E1,1.7054556E-2,-1.2620717E-2,-1.3066515E-2,3.1755331E-3,2.1984749E-2,-6.340705E-3,1.616625E-2,-1.023684E-2,7.1075335E-3,1.3548635E-2],"split_indices":[4,0,9,0,1,0,0,0,0,0,2,0,1,2,1,1,0,0,0,0,0,0,0,0,0,0,0],"split_type":[0,0,0,0,0,0,0,0,0,0,0,0,0,0,0,0,0,0,0,0,0,0,0,0,0,0,0],"sum_hessian":[1.5999122E4,6.45592E3,9.543202E3,4.7613306E3,1.6945894E3,4.4999624E3,5.0432393E3,1.5336337E1,1.679253E3,1.5286682E3,2.9712944E3,3.8381107E2,1.295442E3,9.3965247E2,5.8901575E2,3.0946286E2,2.6618315E3,1.9485264E1,1.2759568E3,9.299922E2,9.660283E0,3.0460363E1,5.5855536E2,1.4783097E1,2.9467978E2,5.609257E2,2.1009058E3],"tree_param":{"num_deleted":"0","num_feature":"16","num_nodes":"27","size_leaf_vector":"1"}},{"base_weights":[-1.191467E-3,-6.608735E-1,1.4334392E-2,-1.322516E0,7.090677E-1,-1.3738264E-2,-1.156318E0,-1.1542181E0,1.122245E0,1.7831909E-2,-1.2112485E0,-1.3453519E0,-7.104378E-1,5.511285E-1,1.3437693E0,-1.4337429E-2,-1.1459844E-2,-1.3747447E-2,9.637208E-3,1.2793955E-2,-1.3578298E-2,1.2050588E-2,-9.444285E-3,1.4518668E-2,1.0408501E-2],"categories":[],"categories_nodes":[],"categories_segments":[],"categories_sizes":[],"default_left":[0,0,0,0,0,0,0,0,0,0,0,0,0,0,0,0,0,0,0,0,0,0,0,0,0],"id":50,"left_children":[1,3,-1,5,7,-1,9,11,13,-1,15,17,19,21,23,-1,-1,-1,-1,-1,-1,-1,-1,-1,-1],"loss_changes":[1.5098735E4,9.909549E3,0E0,5.6501953E1,2.7473008E3,0E0,2.9347754E2,5.1178406E1,3.6613232E2,0E0,1.860791E1,3.5756653E1,2.693313E2,8.085743E2,6.269507E1,0E0,0E0,0E0,0E0,0E0,0E0,0E0,0E0,0E0,0E0],"parents":[2147483647,0,0,1,1,3,3,4,4,6,6,7,7,8,8,10,10,11,11,12,12,13,13,14,14],"right_children":[2,4,-1,6,8,-1,10,12,14,-1,16,18,20,22,24,-1,-1,-1,-1,-1,-1,-1,-1,-1,-1],"split_conditions":[1E0,2E0,1.4334392E-2,2.4E1,2.4E1,-1.3738264E-2,1.7E1,2.2E1,3E1,1.7831909E-2,2.5E1,1E0,8E0,1.1E1,1.6E1,-1.4337429E-2,-1.1459844E-2,-1.3747447E-2,9.637208E-3,1.2793955E-2,-1.3578298E-2,1.2050588E-2,-9.444285E-3,1.4518668E-2,1.0408501E-2],"split_indices":[9,2,0,0,0,0,1,0,0,0,0,13,8,8,8,0,0,0,0,0,0,0,0,0,0],"split_type":[0,0,0,0,0,0,0,0,0,0,0,0,0,0,0,0,0,0,0,0,0,0,0,0,0],"sum_hessian":[1.5945856E4,1.0924592E4,5.021265E3,7.3667837E3,3.5578076E3,5.6067417E3,1.7600421E3,6.444388E2,2.913369E3,2.997795E1,1.7300642E3,4.447577E2,1.996811E2,8.181167E2,2.0952522E3,3.7335867E2,1.3567056E3,4.4076562E2,3.9920902E0,4.805958E1,1.5162152E2,5.697648E2,2.4835191E2,1.5330184E3,5.6223376E2],"tree_param":{"num_deleted":"0","num_feature":"16","num_nodes":"25","size_leaf_vector":"1"}},{"base_weights":[2.7252797E-3,-1.3411733E0,9.073577E-1,-1.3817938E-2,-1.2249575E0,3.266781E-1,1.4272525E-2,1.3562679E-2,-1.2510405E0,-9.7649163E-1,9.936564E-1,-1.389103E-2,-1.2062176E0,-1.2124488E0,-3.2065445E-1,2.9036897E-1,1.2229719E0,1.6482195E-2,-1.2509794E-2,-1.2265018E-2,1.0688462E-2,1.899333E-2,-7.252095E-3,7.2340188E-3,-1.0967885E-2,9.365028E-3,1.3502628E-2],"categories":[],"categories_nodes":[],"categories_segments":[],"categories_sizes":[],"default_left":[0,0,0,0,0,0,0,0,0,0,0,0,0,0,0,0,0,0,0,0,0,0,0,0,0,0,0],"id":51,"left_children":[1,3,5,-1,7,9,-1,-1,11,13,15,-1,17,19,21,23,25,-1,-1,-1,-1,-1,-1,-1,-1,-1,-1],"loss_changes":[1.9334715E4,2.343457E1,2.8677153E3,0E0,1.20731445E2,3.9111792E3,0E0,0E0,3.6791992E0,2.342655E2,4.7844775E2,0E0,1.7394006E2,4.112549E1,3.7251065E2,4.4580417E2,7.671777E1,0E0,0E0,0E0,0E0,0E0,0E0,0E0,0E0,0E0,0E0],"parents":[2147483647,0,0,1,1,2,2,4,4,5,5,8,8,9,9,10,10,12,12,13,13,14,14,15,15,16,16],"right_children":[2,4,6,-1,8,10,-1,-1,12,14,16,-1,18,20,22,24,26,-1,-1,-1,-1,-1,-1,-1,-1,-1,-1],"split_conditions":[4E0,2.3E1,1E0,-1.3817938E-2,1.6E1,2.6E1,1.4272525E-2,1.3562679E-2,2.4E1,2.4E1,3E1,-1.389103E-2,1.7E1,1E0,1.7E1,1.2E1,3.4E1,1.6482195E-2,-1.2509794E-2,-1.2265018E-2,1.0688462E-2,1.899333E-2,-7.252095E-3,7.2340188E-3,-1.0967885E-2,9.365028E-3,1.3502628E-2],"split_indices":[4,0,11,0,1,0,0,0,0,0,0,0,1,13,1,5,0,0,0,0,0,0,0,0,0,0,0],"split_type":[0,0,0,0,0,0,0,0,0,0,0,0,0,0,0,0,0,0,0,0,0,0,0,0,0,0,0],"sum_hessian":[1.589573E4,6.394418E3,9.5013125E3,4.7059897E3,1.688428E3,4.491354E3,5.0099585E3,1.4849998E1,1.673578E3,1.5198846E3,2.9714695E3,3.8077032E2,1.2928077E3,1.1152462E3,4.0463834E2,7.328764E2,2.238593E3,1.7747808E1,1.2750599E3,1.1102565E3,4.989812E0,6.009404E1,3.445443E2,5.599799E2,1.7289653E2,6.989745E2,1.5396185E3],"tree_param":{"num_deleted":"0","num_feature":"16","num_nodes":"27","size_leaf_vector":"1"}},{"base_weights":[2.2259366E-4,-1.3355957E0,9.0393645E-1,-1.3764604E-2,-1.2185098E0,3.2632896E-1,1.4211801E-2,-7.2781265E-1,-1.239912E0,-9.6402556E-1,9.872659E-1,-1.1481453E-2,-3.3721918E-1,-1.3875178E-2,-1.1955466E0,-1.2071081E0,-2.9272723E-1,-8.526647E-1,1.2046527E0,1.2345523E-4,-9.27235E-3,2.9871636E-3,-1.2381673E-2,-1.221918E-2,1.084828E-2,2.4062793E-3,-1.5531631E-2,-9.332917E-3,9.030668E-3,7.0874277E-3,1.3364682E-2],"categories":[],"categories_nodes":[],"categories_segments":[],"categories_sizes":[],"default_left":[0,0,0,0,0,0,0,0,0,0,0,0,0,0,0,0,0,0,0,0,0,0,0,0,0,0,0,0,0,0,0],"id":52,"left_children":[1,3,5,-1,7,9,-1,11,13,15,17,-1,19,-1,21,23,25,27,29,-1,-1,-1,-1,-1,-1,-1,-1,-1,-1,-1,-1],"loss_changes":[1.9072459E4,2.3793945E1,2.813585E3,0E0,1.4078613E1,3.8051206E3,0E0,1.159811E1,3.895996E0,2.4527783E2,1.1838242E3,0E0,9.774483E0,0E0,8.2071045E1,4.2931763E1,2.7522177E2,4.7820602E1,1.6874927E2,0E0,0E0,0E0,0E0,0E0,0E0,0E0,0E0,0E0,0E0,0E0,0E0],"parents":[2147483647,0,0,1,1,2,2,4,4,5,5,7,7,8,8,9,9,10,10,12,12,14,14,15,15,16,16,17,17,18,18],"right_children":[2,4,6,-1,8,10,-1,12,14,16,18,-1,20,-1,22,24,26,28,30,-1,-1,-1,-1,-1,-1,-1,-1,-1,-1,-1,-1],"split_conditions":[4E0,2.3E1,1E0,-1.3764604E-2,1.2E1,2.6E1,1.4211801E-2,1.1E1,2.4E1,2.4E1,2E0,-1.1481453E-2,2.4E1,-1.3875178E-2,1.3E1,1E0,1E1,7.8333335E0,3E1,1.2345523E-4,-9.27235E-3,2.9871636E-3,-1.2381673E-2,-1.221918E-2,1.084828E-2,2.4062793E-3,-1.5531631E-2,-9.332917E-3,9.030668E-3,7.0874277E-3,1.3364682E-2],"split_indices":[4,0,10,0,8,0,0,8,0,0,2,0,0,0,8,13,8,3,0,0,0,0,0,0,0,0,0,0,0,0,0],"split_type":[0,0,0,0,0,0,0,0,0,0,0,0,0,0,0,0,0,0,0,0,0,0,0,0,0,0,0,0,0,0,0],"sum_hessian":[1.5790954E4,6.37132E3,9.419634E3,4.6910474E3,1.6802727E3,4.4532266E3,4.966407E3,7.607606E1,1.6041967E3,1.5077653E3,2.9454614E3,3.2906338E1,4.3169724E1,3.427509E2,1.2614458E3,1.1045912E3,4.0317407E2,3.0999744E2,2.6354639E3,2.9567984E1,1.3601739E1,3.4315678E1,1.2271301E3,1.0993549E3,5.2363195E0,2.8557077E2,1.1760329E2,2.9817816E2,1.1819275E1,5.5877515E2,2.0766887E3],"tree_param":{"num_deleted":"0","num_feature":"16","num_nodes":"31","size_leaf_vector":"1"}},{"base_weights":[8.3541236E-4,-1.3288761E0,8.997262E-1,-1.369705E-2,-1.21130925E-2,3.2470196E-1,1.4152184E-2,-9.429943E-1,9.728733E-1,-1.1890757E0,-2.7018845E-1,-8.626725E-1,1.1916428E0,-1.2031595E-2,1.0574593E-2,-1.1974238E-2,2.5805712E-3,1.183123E-2,-9.299365E-3,7.6934574E-3,1.3530767E-2],"categories":[],"categories_nodes":[],"categories_segments":[],"categories_sizes":[],"default_left":[0,0,0,0,0,0,0,0,0,0,0,0,0,0,0,0,0,0,0,0,0],"id":53,"left_children":[1,3,5,-1,-1,7,-1,9,11,13,15,17,19,-1,-1,-1,-1,-1,-1,-1,-1],"loss_changes":[1.8799691E4,2.3816406E1,2.77992E3,0E0,0E0,3.6530063E3,0E0,2.4782349E2,1.1849802E3,3.9908203E1,2.0113277E2,4.781392E1,1.7507764E2,0E0,0E0,0E0,0E0,0E0,0E0,0E0,0E0],"parents":[2147483647,0,0,1,1,2,2,5,5,7,7,8,8,9,9,10,10,11,11,12,12],"right_children":[2,4,6,-1,-1,8,-1,10,12,14,16,18,20,-1,-1,-1,-1,-1,-1,-1,-1],"split_conditions":[4E0,2.3E1,1E0,-1.369705E-2,-1.21130925E-2,2.6E1,1.4152184E-2,2.4E1,2E0,1E0,2E0,3E0,3.1E1,-1.2031595E-2,1.0574593E-2,-1.1974238E-2,2.5805712E-3,1.183123E-2,-9.299365E-3,7.6934574E-3,1.3530767E-2],"split_indices":[4,0,9,0,0,0,0,0,2,13,2,7,0,0,0,0,0,0,0,0,0],"split_type":[0,0,0,0,0,0,0,0,0,0,0,0,0,0,0,0,0,0,0,0,0],"sum_hessian":[1.5720465E4,6.3399653E3,9.3805E3,4.674124E3,1.6658412E3,4.4372876E3,4.943212E3,1.5005961E3,2.9366917E3,1.0964835E3,4.0411252E2,3.1148236E2,2.6252092E3,1.0914985E3,4.9850373E0,1.4482768E2,2.5928482E2,7.8029566E0,3.036794E2,7.3239386E2,1.8928154E3],"tree_param":{"num_deleted":"0","num_feature":"16","num_nodes":"21","size_leaf_vector":"1"}},{"base_weights":[-1.6543695E-3,-1.3235449E0,8.938264E-1,-1.365125E-2,-1.2035099E0,3.2191053E-1,1.4093568E-2,-7.073446E-1,-1.2254604E0,-9.4353193E-1,9.6865094E-1,-1.1012423E-2,-3.536923E-1,-1.3747302E-2,-1.1808915E0,-1.1886636E0,-2.7149478E-1,-8.7437916E-1,1.1884351E0,-4.115994E-4,-8.744503E-3,2.6371095E-3,-1.224497E-2,-1.202044E-2,1.0269961E-2,2.760781E-3,-1.5155258E-2,1.1514937E-2,-9.376125E-3,8.217214E-3,1.368118E-2],"categories":[],"categories_nodes":[],"categories_segments":[],"categories_sizes":[],"default_left":[0,0,0,0,0,0,0,0,0,0,0,0,0,0,0,0,0,0,0,0,0,0,0,0,0,0,0,0,0,0,0],"id":54,"left_children":[1,3,5,-1,7,9,-1,11,13,15,17,-1,19,-1,21,23,25,27,29,-1,-1,-1,-1,-1,-1,-1,-1,-1,-1,-1,-1],"loss_changes":[1.848666E4,2.4905273E1,2.7432358E3,0E0,1.4573242E1,3.62019E3,0E0,9.535805E0,4.022949E0,2.4525745E2,1.1895295E3,0E0,7.644657E0,0E0,7.976221E1,3.7413574E1,2.776836E2,4.455507E1,1.678938E2,0E0,0E0,0E0,0E0,0E0,0E0,0E0,0E0,0E0,0E0,0E0,0E0],"parents":[2147483647,0,0,1,1,2,2,4,4,5,5,7,7,8,8,9,9,10,10,12,12,14,14,15,15,16,16,17,17,18,18],"right_children":[2,4,6,-1,8,10,-1,12,14,16,18,-1,20,-1,22,24,26,28,30,-1,-1,-1,-1,-1,-1,-1,-1,-1,-1,-1,-1],"split_conditions":[4E0,2.3E1,1E0,-1.365125E-2,1.2E1,2.6E1,1.4093568E-2,1.1E1,2.4E1,2.4E1,2E0,-1.1012423E-2,2.4E1,-1.3747302E-2,1.3E1,1E0,1E1,3E0,3.2E1,-4.115994E-4,-8.744503E-3,2.6371095E-3,-1.224497E-2,-1.202044E-2,1.0269961E-2,2.760781E-3,-1.5155258E-2,1.1514937E-2,-9.376125E-3,8.217214E-3,1.368118E-2],"split_indices":[4,0,9,0,5,0,0,5,0,0,2,0,0,0,5,13,5,7,0,0,0,0,0,0,0,0,0,0,0,0,0],"split_type":[0,0,0,0,0,0,0,0,0,0,0,0,0,0,0,0,0,0,0,0,0,0,0,0,0,0,0,0,0,0,0],"sum_hessian":[1.5609329E4,6.303023E3,9.306306E3,4.65057E3,1.6524534E3,4.414961E3,4.8913447E3,7.563807E1,1.5768153E3,1.4926116E3,2.922349E3,3.1782782E1,4.3855293E1,3.351048E2,1.2417106E3,1.0914282E3,4.011834E2,3.1009473E2,2.6122544E3,3.0104353E1,1.3750939E1,3.5791332E1,1.2059192E3,1.0866956E3,4.7326655E0,2.807297E2,1.2045371E2,7.3023176E0,3.0279242E2,8.663726E2,1.7458818E3],"tree_param":{"num_deleted":"0","num_feature":"16","num_nodes":"31","size_leaf_vector":"1"}},{"base_weights":[3.6964791E-3,-1.3149452E0,8.923025E-1,-1.356982E-2,-1.1944939E0,3.2508916E-1,1.4036182E-2,-6.6572905E-1,-1.2177392E0,-9.312725E-1,9.7197795E-1,-1.1005513E-2,-2.775583E-1,-1.3634831E-2,-1.1731918E0,-1.2477314E0,-4.233911E-1,2.9004905E-1,1.2001001E0,5.311649E-4,-8.5497815E-3,2.6585145E-3,-1.21689355E-2,-1.2638722E-2,1.0217642E-2,-4.9555366E-4,-1.4850784E-2,7.4205613E-3,-1.1317451E-2,9.220567E-3,1.3233531E-2],"categories":[],"categories_nodes":[],"categories_segments":[],"categories_sizes":[],"default_left":[0,0,0,0,0,0,0,0,0,0,0,0,0,0,0,0,0,0,0,0,0,0,0,0,0,0,0,0,0,0,0],"id":55,"left_children":[1,3,5,-1,7,9,-1,11,13,15,17,-1,19,-1,21,23,25,27,29,-1,-1,-1,-1,-1,-1,-1,-1,-1,-1,-1,-1],"loss_changes":[1.8229428E4,2.522754E1,2.6937256E3,0E0,1.708374E1,3.5889304E3,0E0,1.2021618E1,3.8552246E0,2.3920337E2,4.5192188E2,0E0,9.118442E0,0E0,7.916443E1,3.897583E1,2.3087677E2,4.7618524E2,6.990527E1,0E0,0E0,0E0,0E0,0E0,0E0,0E0,0E0,0E0,0E0,0E0,0E0],"parents":[2147483647,0,0,1,1,2,2,4,4,5,5,7,7,8,8,9,9,10,10,12,12,14,14,15,15,16,16,17,17,18,18],"right_children":[2,4,6,-1,8,10,-1,12,14,16,18,-1,20,-1,22,24,26,28,30,-1,-1,-1,-1,-1,-1,-1,-1,-1,-1,-1,-1],